{"learner":{"attributes":{"best_iteration":"180","best_score":"0.9100922505138442","scikit_learn":"{\"_estimator_type\": \"classifier\"}"},"feature_names":[],"feature_types":[],"gradient_booster":{"model":{"cats":{"enc":[],"feature_segments":[],"sorted_idx":[]},"gbtree_model_param":{"num_parallel_tree":"1","num_trees":"633"},"iteration_indptr":[0,3,6,9,12,15,18,21,24,27,30,33,36,39,42,45,48,51,54,57,60,63,66,69,72,75,78,81,84,87,90,93,96,99,102,105,108,111,114,117,120,123,126,129,132,135,138,141,144,147,150,153,156,159,162,165,168,171,174,177,180,183,186,189,192,195,198,201,204,207,210,213,216,219,222,225,228,231,234,237,240,243,246,249,252,255,258,261,264,267,270,273,276,279,282,285,288,291,294,297,300,303,306,309,312,315,318,321,324,327,330,333,336,339,342,345,348,351,354,357,360,363,366,369,372,375,378,381,384,387,390,393,396,399,402,405,408,411,414,417,420,423,426,429,432,435,438,441,444,447,450,453,456,459,462,465,468,471,474,477,480,483,486,489,492,495,498,501,504,507,510,513,516,519,522,525,528,531,534,537,540,543,546,549,552,555,558,561,564,567,570,573,576,579,582,585,588,591,594,597,600,603,606,609,612,615,618,621,624,627,630,633],"tree_info":[0,1,2,0,1,2,0,1,2,0,1,2,0,1,2,0,1,2,0,1,2,0,1,2,0,1,2,0,1,2,0,1,2,0,1,2,0,1,2,0,1,2,0,1,2,0,1,2,0,1,2,0,1,2,0,1,2,0,1,2,0,1,2,0,1,2,0,1,2,0,1,2,0,1,2,0,1,2,0,1,2,0,1,2,0,1,2,0,1,2,0,1,2,0,1,2,0,1,2,0,1,2,0,1,2,0,1,2,0,1,2,0,1,2,0,1,2,0,1,2,0,1,2,0,1,2,0,1,2,0,1,2,0,1,2,0,1,2,0,1,2,0,1,2,0,1,2,0,1,2,0,1,2,0,1,2,0,1,2,0,1,2,0,1,2,0,1,2,0,1,2,0,1,2,0,1,2,0,1,2,0,1,2,0,1,2,0,1,2,0,1,2,0,1,2,0,1,2,0,1,2,0,1,2,0,1,2,0,1,2,0,1,2,0,1,2,0,1,2,0,1,2,0,1,2,0,1,2,0,1,2,0,1,2,0,1,2,0,1,2,0,1,2,0,1,2,0,1,2,0,1,2,0,1,2,0,1,2,0,1,2,0,1,2,0,1,2,0,1,2,0,1,2,0,1,2,0,1,2,0,1,2,0,1,2,0,1,2,0,1,2,0,1,2,0,1,2,0,1,2,0,1,2,0,1,2,0,1,2,0,1,2,0,1,2,0,1,2,0,1,2,0,1,2,0,1,2,0,1,2,0,1,2,0,1,2,0,1,2,0,1,2,0,1,2,0,1,2,0,1,2,0,1,2,0,1,2,0,1,2,0,1,2,0,1,2,0,1,2,0,1,2,0,1,2,0,1,2,0,1,2,0,1,2,0,1,2,0,1,2,0,1,2,0,1,2,0,1,2,0,1,2,0,1,2,0,1,2,0,1,2,0,1,2,0,1,2,0,1,2,0,1,2,0,1,2,0,1,2,0,1,2,0,1,2,0,1,2,0,1,2,0,1,2,0,1,2,0,1,2,0,1,2,0,1,2,0,1,2,0,1,2,0,1,2,0,1,2,0,1,2,0,1,2,0,1,2,0,1,2,0,1,2,0,1,2,0,1,2,0,1,2,0,1,2,0,1,2,0,1,2,0,1,2,0,1,2,0,1,2,0,1,2,0,1,2,0,1,2,0,1,2,0,1,2,0,1,2,0,1,2,0,1,2,0,1,2,0,1,2,0,1,2,0,1,2,0,1,2,0,1,2,0,1,2,0,1,2,0,1,2,0,1,2,0,1,2,0,1,2,0,1,2,0,1,2,0,1,2,0,1,2,0,1,2,0,1,2,0,1,2,0,1,2,0,1,2,0,1,2,0,1,2,0,1,2,0,1,2,0,1,2,0,1,2,0,1,2,0,1,2,0,1,2,0,1,2,0,1,2,0,1,2],"trees":[{"base_weights":[2.4432445E-2,-3.7257475E-1,5.263059E-1,-5.842303E-1,-1.8583144E-1,3.5243452E-1,8.796236E-1,-6.3153154E-1,-3.9895976E-1,-3.3026463E-1,-7.232357E-2,8.022852E-2,4.4121757E-1,7.421639E-1,1.334018E0,6.487552E-4,-6.390426E-1,2.4866946E-2,-4.5419452E-1,-4.0697065E-1,3.488887E-1,-1.9059855E-1,2.3337238E-1,-2.5399843E-1,2.6542866E-1,5.5628055E-1,1.8783452E-1,1.1812181E0,5.8723915E-1,1.3870683E0,5.859864E-3,-1.3431272E-2,-1.969485E-2,-1.7443169E-2,-4.8736096E-3,-1.3140027E-2,1.8999303E-2,-5.380474E-3,3.476485E-2,-8.007344E-3,1.0748106E-2,-7.327694E-3,1.7886478E-2,-1.619139E-2,6.626528E-3,1.4693931E-2,-7.1183187E-3,8.753465E-3,2.0186327E-2,1.3683145E-2,-3.6464788E-3,6.487552E-4,3.8457282E-2,3.898754E-2,1.4686072E-2,7.675813E-3,4.298263E-2],"categories":[],"categories_nodes":[],"categories_segments":[],"categories_sizes":[],"default_left":[0,0,0,0,0,0,0,0,0,0,0,0,0,0,0,0,0,0,0,0,0,0,0,0,0,0,0,0,0,0,0,0,0,0,0,0,0,0,0,0,0,0,0,0,0,0,0,0,0,0,0,0,0,0,0,0,0],"id":0,"left_children":[1,3,5,7,9,11,13,15,17,19,21,23,25,27,29,-1,31,-1,33,35,37,39,41,43,45,47,49,51,53,55,-1,-1,-1,-1,-1,-1,-1,-1,-1,-1,-1,-1,-1,-1,-1,-1,-1,-1,-1,-1,-1,-1,-1,-1,-1,-1,-1],"loss_changes":[1.5375584E2,1.6922516E1,2.062645E1,1.5139618E0,3.7531E0,5.524889E0,5.9888687E0,7.9291916E-1,3.3401403E0,5.4088545E0,4.75502E0,3.6456573E0,4.9471245E0,5.2946167E0,1.2209129E0,0E0,2.3046112E-1,0E0,1.4818888E0,3.2246523E0,4.8278017E0,4.053353E0,6.522297E0,2.985093E0,4.366841E0,3.4627151E0,4.671807E0,2.5379257E0,4.0312996E0,8.444443E-1,0E0,0E0,0E0,0E0,0E0,0E0,0E0,0E0,0E0,0E0,0E0,0E0,0E0,0E0,0E0,0E0,0E0,0E0,0E0,0E0,0E0,0E0,0E0,0E0,0E0,0E0,0E0],"parents":[2147483647,0,0,1,1,2,2,3,3,4,4,5,5,6,6,7,7,8,8,9,9,10,10,11,11,12,12,13,13,14,14,16,16,18,18,19,19,20,20,21,21,22,22,23,23,24,24,25,25,26,26,27,27,28,28,29,29],"right_children":[2,4,6,8,10,12,14,16,18,20,22,24,26,28,30,-1,32,-1,34,36,38,40,42,44,46,48,50,52,54,56,-1,-1,-1,-1,-1,-1,-1,-1,-1,-1,-1,-1,-1,-1,-1,-1,-1,-1,-1,-1,-1,-1,-1,-1,-1,-1,-1],"split_conditions":[4.7224972E-2,-8.651478E-1,1.0539048E0,-3.482915E-1,-3.1998262E-1,-7.2810906E-1,1.6509861E0,-6.9464725E-1,-1.1904664E0,7.9118985E-1,9.1809726E-1,-3.5943875E-1,2.9768604E-1,-4.2915875E-1,8.099676E-1,6.487552E-4,-3.2818016E-1,2.4866946E-2,-8.414162E-1,8.0326605E-1,-5.8933604E-1,8.32994E-1,-3.963308E-1,-1.0551351E-2,2.3291008E-1,-7.2225444E-2,-5.242652E-2,-1.6851169E0,-2.7361175E-1,-1.2998184E0,5.859864E-3,-1.3431272E-2,-1.969485E-2,-1.7443169E-2,-4.8736096E-3,-1.3140027E-2,1.8999303E-2,-5.380474E-3,3.476485E-2,-8.007344E-3,1.0748106E-2,-7.327694E-3,1.7886478E-2,-1.619139E-2,6.626528E-3,1.4693931E-2,-7.1183187E-3,8.753465E-3,2.0186327E-2,1.3683145E-2,-3.6464788E-3,6.487552E-4,3.8457282E-2,3.898754E-2,1.4686072E-2,7.675813E-3,4.298263E-2],"split_indices":[3,3,3,88,10,5,2,70,66,81,17,52,1,95,10,0,32,0,2,87,32,22,14,94,96,14,95,84,94,13,0,0,0,0,0,0,0,0,0,0,0,0,0,0,0,0,0,0,0,0,0,0,0,0,0,0,0],"split_type":[0,0,0,0,0,0,0,0,0,0,0,0,0,0,0,0,0,0,0,0,0,0,0,0,0,0,0,0,0,0,0,0,0,0,0,0,0,0,0,0,0,0,0,0,0,0,0,0,0,0,0,0,0,0,0,0,0],"sum_hessian":[7.6969904E2,4.2989114E2,3.398079E2,2.005071E2,2.2938403E2,2.290751E2,1.107328E2,1.5780849E2,4.2698612E1,1.00100914E2,1.2928313E2,5.680782E1,1.7226727E2,8.703652E1,2.369628E1,1.772746E0,1.5603574E2,1.2351286E0,4.1463486E1,9.030258E1,9.798331E0,9.348854E1,3.579458E1,2.0122204E1,3.6685616E1,1.17647385E2,5.4619896E1,2.0973494E1,6.606303E1,2.2433023E1,1.2632554E0,1.527096E1,1.4076477E2,2.8179737E1,1.3283748E1,8.824918E1,2.0534015E0,6.401727E0,3.3966038E0,8.252785E1,1.0960697E1,1.5594111E1,2.0200468E1,1.2478163E1,7.64404E0,2.5382505E1,1.1303109E1,3.706609E1,8.058129E1,2.899969E1,2.5620207E1,1.772746E0,1.9200747E1,6.4844255E0,5.95786E1,1.1270549E0,2.130597E1],"tree_param":{"num_deleted":"0","num_feature":"100","num_nodes":"57","size_leaf_vector":"1"}},{"base_weights":[2.933899E-2,-6.772654E-1,5.7658378E-2,-5.602108E-2,-2.1699622E-2,-1.516163E-1,1.5162078E-1,8.162888E-3,-1.1355782E-2,3.0651602E-1,-2.582843E-1,2.5421998E-1,3.508047E-2,-4.5125872E-1,4.442608E-1,-5.3674406E-1,-1.548992E-1,3.192697E-1,-1.14233874E-1,-9.032247E-3,6.757056E-1,8.162888E-3,-1.8881736E-2,1.992446E-2,-4.720125E-3,-1.8960288E-2,-4.0654343E-4,5.9103062E-3,-8.218563E-3,4.754967E-3,1.365765E-2,-1.0535383E-2,1.4795774E-2,1.2849611E-3,-1.6943704E-2,-1.6184924E-2,2.8545309E-2],"categories":[],"categories_nodes":[],"categories_segments":[],"categories_sizes":[],"default_left":[0,0,0,0,0,0,0,0,0,0,0,0,0,0,0,0,0,0,0,0,0,0,0,0,0,0,0,0,0,0,0,0,0,0,0,0,0],"id":1,"left_children":[1,3,5,7,-1,9,11,-1,-1,13,15,17,19,21,23,25,27,29,31,33,35,-1,-1,-1,-1,-1,-1,-1,-1,-1,-1,-1,-1,-1,-1,-1,-1],"loss_changes":[1.5725464E1,8.2598877E-1,1.48617935E1,4.3888408E-1,0E0,1.1530413E1,6.2241135E0,0E0,0E0,4.8675733E0,5.404455E0,6.677145E0,6.936048E0,1.1213669E0,5.1761584E0,2.5435686E0,5.9366875E0,5.08202E0,6.2630215E0,6.6655912E0,5.8125887E0,0E0,0E0,0E0,0E0,0E0,0E0,0E0,0E0,0E0,0E0,0E0,0E0,0E0,0E0,0E0,0E0],"parents":[2147483647,0,0,1,1,2,2,3,3,5,5,6,6,9,9,10,10,11,11,12,12,13,13,14,14,15,15,16,16,17,17,18,18,19,19,20,20],"right_children":[2,4,6,8,-1,10,12,-1,-1,14,16,18,20,22,24,26,28,30,32,34,36,-1,-1,-1,-1,-1,-1,-1,-1,-1,-1,-1,-1,-1,-1,-1,-1],"split_conditions":[-1.8037716E0,-3.8433278E-1,-6.9076914E-1,-2.1390266E0,-2.1699622E-2,-7.2810906E-1,2.8118357E-1,8.162888E-3,-1.1355782E-2,-9.875661E-1,-8.038468E-1,9.564551E-1,1.6349343E0,-1.6856806E0,1.005698E0,1.2654512E0,-2.867041E-1,-3.74481E-1,-4.8626155E-1,4.6579218E-1,-1.0237234E-2,8.162888E-3,-1.8881736E-2,1.992446E-2,-4.720125E-3,-1.8960288E-2,-4.0654343E-4,5.9103062E-3,-8.218563E-3,4.754967E-3,1.365765E-2,-1.0535383E-2,1.4795774E-2,1.2849611E-3,-1.6943704E-2,-1.6184924E-2,2.8545309E-2],"split_indices":[2,18,13,2,0,5,32,0,0,46,57,87,91,67,14,92,36,14,27,88,36,0,0,0,0,0,0,0,0,0,0,0,0,0,0,0,0],"split_type":[0,0,0,0,0,0,0,0,0,0,0,0,0,0,0,0,0,0,0,0,0,0,0,0,0,0,0,0,0,0,0,0,0,0,0,0,0],"sum_hessian":[7.8290497E2,2.9285273E1,7.536197E2,2.1741655E0,2.7111107E1,2.3332983E2,5.2028986E2,1.1551831E0,1.0189824E0,4.3712753E1,1.8961708E2,2.760664E2,2.4422345E2,6.3736076E0,3.7339146E1,5.0204216E1,1.3941287E2,2.3475452E2,4.1311893E1,2.2941228E2,1.4811167E1,1.1551831E0,5.218425E0,2.7268402E1,1.0070744E1,4.2294952E1,7.909266E0,3.5076168E1,1.043367E2,1.0856611E2,1.26188416E2,3.0022528E1,1.1289365E1,2.1067468E2,1.8737597E1,2.562895E0,1.2248272E1],"tree_param":{"num_deleted":"0","num_feature":"100","num_nodes":"37","size_leaf_vector":"1"}},{"base_weights":[-1.7134812E-2,5.751699E-1,-3.1164616E-1,1.3135432E0,4.6080047E-1,-1.1302703E-1,-5.383185E-1,1.3503152E0,3.8971454E-3,5.651588E-1,1.3898103E-1,-2.7679518E-1,1.9520207E-1,-5.509981E-1,2.7202712E-2,6.83805E-1,4.2755205E-2,3.0929768E-1,7.1879745E-1,-6.375673E-3,8.496776E-1,-3.7660557E-1,9.155444E-2,4.7909954E-1,-8.242387E-2,3.2853594E-1,-5.667158E-1,3.390794E-2,-1.255856E-2,-1.1402555E-3,2.5219433E-2,-1.4765233E-2,2.236103E-2,6.1217416E-3,-1.2839831E-2,6.184594E-3,3.471802E-2,1.7875906E-2,-1.202621E-2,-1.4391044E-2,1.2896648E-2,1.667988E-2,-1.6718227E-2,-1.1912551E-2,6.2923427E-3,-1.4765233E-2,3.0187467E-2,-1.7369574E-2,1.089141E-2],"categories":[],"categories_nodes":[],"categories_segments":[],"categories_sizes":[],"default_left":[0,0,0,0,0,0,0,0,0,0,0,0,0,0,0,0,0,0,0,0,0,0,0,0,0,0,0,0,0,0,0,0,0,0,0,0,0,0,0,0,0,0,0,0,0,0,0,0,0],"id":2,"left_children":[1,3,5,7,9,11,13,15,-1,17,19,21,23,25,-1,27,-1,29,31,33,35,37,39,41,43,45,47,-1,-1,-1,-1,-1,-1,-1,-1,-1,-1,-1,-1,-1,-1,-1,-1,-1,-1,-1,-1,-1,-1],"loss_changes":[1.3842566E2,2.165039E1,2.3799114E1,1.3395042E0,7.637123E0,1.4376134E1,5.029793E0,7.0443726E-1,0E0,6.584484E0,5.953933E0,6.8616734E0,7.8448806E0,3.5829544E0,0E0,3.0916855E0,0E0,1.2344763E1,3.8236656E0,4.416785E0,1.6982546E0,3.691618E0,8.0135E0,4.223549E0,4.7647533E0,3.2467504E0,2.9682922E0,0E0,0E0,0E0,0E0,0E0,0E0,0E0,0E0,0E0,0E0,0E0,0E0,0E0,0E0,0E0,0E0,0E0,0E0,0E0,0E0,0E0,0E0],"parents":[2147483647,0,0,1,1,2,2,3,3,4,4,5,5,6,6,7,7,9,9,10,10,11,11,12,12,13,13,15,15,17,17,18,18,19,19,20,20,21,21,22,22,23,23,24,24,25,25,26,26],"right_children":[2,4,6,8,10,12,14,16,-1,18,20,22,24,26,-1,28,-1,30,32,34,36,38,40,42,44,46,48,-1,-1,-1,-1,-1,-1,-1,-1,-1,-1,-1,-1,-1,-1,-1,-1,-1,-1,-1,-1,-1,-1],"split_conditions":[-5.26339E-1,-1.7369392E0,3.5560402E-1,3.9026195E-1,-9.0594254E-2,1.687573E0,1.5533421E0,-5.7536376E-1,3.8971454E-3,-1.18592754E-1,-2.1180619E-2,8.0711967E-1,-7.931089E-2,-1.2848892E0,2.7202712E-2,1.0598859E0,4.2755205E-2,2.942166E-1,-1.0298278E0,-2.7104703E-1,-1.9384184E-1,-1.6669343E0,3.248052E-1,1.4218897E0,3.5234728E-1,3.5308605E-1,2.094109E0,3.390794E-2,-1.255856E-2,-1.1402555E-3,2.5219433E-2,-1.4765233E-2,2.236103E-2,6.1217416E-3,-1.2839831E-2,6.184594E-3,3.471802E-2,1.7875906E-2,-1.202621E-2,-1.4391044E-2,1.2896648E-2,1.667988E-2,-1.6718227E-2,-1.1912551E-2,6.2923427E-3,-1.4765233E-2,3.0187467E-2,-1.7369574E-2,1.089141E-2],"split_indices":[2,2,2,14,10,4,11,98,0,30,89,73,38,14,0,30,0,70,56,38,90,21,75,67,64,44,55,0,0,0,0,0,0,0,0,0,0,0,0,0,0,0,0,0,0,0,0,0,0],"split_type":[0,0,0,0,0,0,0,0,0,0,0,0,0,0,0,0,0,0,0,0,0,0,0,0,0,0,0,0,0,0,0,0,0,0,0,0,0,0,0,0,0,0,0,0,0,0,0,0,0],"sum_hessian":[7.915134E2,2.625449E2,5.2896857E2,3.3806137E1,2.2873875E2,2.82729E2,2.4623953E2,3.265096E1,1.1551814E0,1.7215642E2,5.6582336E1,1.8469757E2,9.803144E1,2.4471106E2,1.5284715E0,4.320198E0,2.833076E1,6.5721214E1,1.0643521E2,4.7797485E1,8.784851E0,1.4530293E2,3.9394638E1,4.8109478E1,4.9921967E1,3.946908E0,2.4076414E2,3.056943E0,1.2632551E0,4.0305084E1,2.5416132E1,1.908946E0,1.0452626E2,3.222814E1,1.55693445E1,3.3811643E0,5.403687E0,2.9643083E0,1.4233862E2,1.4497932E1,2.4896706E1,4.521793E1,2.8915458E0,2.3862896E1,2.605907E1,1.908946E0,2.037962E0,2.3800055E2,2.7635999E0],"tree_param":{"num_deleted":"0","num_feature":"100","num_nodes":"49","size_leaf_vector":"1"}},{"base_weights":[6.0753888E-3,-3.5382378E-1,4.7878098E-1,-5.4015553E-1,-1.7007706E-1,3.5538822E-1,8.786028E-1,-6.07722E-1,-3.422068E-1,-1.9810519E-1,5.8963835E-1,4.176698E-2,4.5792776E-1,9.4572365E-1,2.4847806E-1,-6.1492455E-1,2.1398098E-3,1.6171996E-1,-4.1028193E-1,-2.1943143E-1,7.1479344E-1,9.23939E-1,-1.4048241E-2,-2.3539886E-1,2.2984834E-1,4.1202277E-1,1.0864031E0,7.102433E-1,1.2012877E0,3.0078724E-2,-1.3922879E-1,2.0453876E-3,-1.8667316E-2,-9.7230775E-3,2.3720425E-2,-1.6325375E-2,-3.7968273E-3,-7.454618E-3,1.3502102E-2,-1.2019564E-2,3.3786982E-2,3.6762595E-2,-1.1336648E-2,2.9039772E-2,-1.0876908E-2,2.4165258E-2,2.4114216E-3,1.3207428E-2,-1.5375464E-2,3.720356E-2,-4.0494567E-3,2.9740894E-2,1.1931254E-2,3.7100926E-2,5.475375E-3,-1.4926472E-2,2.4434244E-2],"categories":[],"categories_nodes":[],"categories_segments":[],"categories_sizes":[],"default_left":[0,0,0,0,0,0,0,0,0,0,0,0,0,0,0,0,0,0,0,0,0,0,0,0,0,0,0,0,0,0,0,0,0,0,0,0,0,0,0,0,0,0,0,0,0,0,0,0,0,0,0,0,0,0,0,0,0],"id":3,"left_children":[1,3,5,7,9,11,13,15,17,19,21,23,25,27,29,31,-1,33,35,37,39,41,-1,43,45,47,49,51,53,-1,55,-1,-1,-1,-1,-1,-1,-1,-1,-1,-1,-1,-1,-1,-1,-1,-1,-1,-1,-1,-1,-1,-1,-1,-1,-1,-1],"loss_changes":[1.3426273E2,1.5249065E1,1.6517403E1,2.761345E0,4.951672E0,8.417934E0,3.1388893E0,8.470726E-1,2.082944E0,4.4346848E0,3.3787627E0,3.4813128E0,5.253578E0,3.4638672E0,2.7814944E0,8.554306E-1,0E0,2.6131728E0,1.9092808E0,4.3035116E0,2.8610175E0,3.0794635E0,0E0,4.4937134E0,3.3487425E0,5.073389E0,2.5781689E0,3.1008968E0,9.6310806E-1,0E0,2.7446349E0,0E0,0E0,0E0,0E0,0E0,0E0,0E0,0E0,0E0,0E0,0E0,0E0,0E0,0E0,0E0,0E0,0E0,0E0,0E0,0E0,0E0,0E0,0E0,0E0,0E0,0E0],"parents":[2147483647,0,0,1,1,2,2,3,3,4,4,5,5,6,6,7,7,8,8,9,9,10,10,11,11,12,12,13,13,14,14,15,15,17,17,18,18,19,19,20,20,21,21,23,23,24,24,25,25,26,26,27,27,28,28,30,30],"right_children":[2,4,6,8,10,12,14,16,18,20,22,24,26,28,30,32,-1,34,36,38,40,42,-1,44,46,48,50,52,54,-1,56,-1,-1,-1,-1,-1,-1,-1,-1,-1,-1,-1,-1,-1,-1,-1,-1,-1,-1,-1,-1,-1,-1,-1,-1,-1,-1],"split_conditions":[6.9333486E-2,-8.183406E-1,1.2093191E0,-4.134182E-1,7.4258053E-1,-7.2810906E-1,2.167159E0,2.1617622E0,-7.2810906E-1,6.1009306E-1,1.7745984E0,-7.013862E-2,1.4149151E0,7.960063E-1,-3.1120294E-1,-1.0073851E0,2.1398098E-3,5.699491E-2,-1.0162686E0,1.1652535E0,-8.2868224E-1,8.493749E-1,-1.4048241E-2,-1.3181796E0,-7.2950506E-1,1.8327801E0,6.8128127E-1,5.179317E-2,1.9430351E0,3.0078724E-2,6.2170986E-2,2.0453876E-3,-1.8667316E-2,-9.7230775E-3,2.3720425E-2,-1.6325375E-2,-3.7968273E-3,-7.454618E-3,1.3502102E-2,-1.2019564E-2,3.3786982E-2,3.6762595E-2,-1.1336648E-2,2.9039772E-2,-1.0876908E-2,2.4165258E-2,2.4114216E-3,1.3207428E-2,-1.5375464E-2,3.720356E-2,-4.0494567E-3,2.9740894E-2,1.1931254E-2,3.7100926E-2,5.475375E-3,-1.4926472E-2,2.4434244E-2],"split_indices":[3,3,3,88,88,5,69,86,5,95,44,57,63,38,9,81,0,95,3,21,59,20,0,52,67,64,61,95,67,0,95,0,0,0,0,0,0,0,0,0,0,0,0,0,0,0,0,0,0,0,0,0,0,0,0,0,0],"split_type":[0,0,0,0,0,0,0,0,0,0,0,0,0,0,0,0,0,0,0,0,0,0,0,0,0,0,0,0,0,0,0,0,0,0,0,0,0,0,0,0,0,0,0,0,0,0,0,0,0,0,0,0,0,0,0,0,0],"sum_hessian":[7.871985E2,4.470693E2,3.401292E2,2.2101016E2,2.2605913E2,2.6135794E2,7.877126E1,1.6322575E2,5.778442E1,2.1872882E2,7.33031E0,6.4743805E1,1.9661415E2,7.073566E1,8.03561E0,1.6160605E2,1.6197041E0,6.71333E0,5.107109E1,2.1447803E2,4.2507954E0,5.6663747E0,1.6639351E0,2.6071701E1,3.8672104E1,1.8477353E2,1.1840614E1,3.8781216E1,3.1954437E1,2.1899E0,5.8457103E0,1.625064E0,1.5998099E2,4.0611296E0,2.6522E0,3.407294E1,1.6998146E1,2.0615971E2,8.318316E0,1.1524976E0,3.0982978E0,4.6485443E0,1.0178306E0,1.8598044E0,2.4211897E1,7.066597E0,3.1605509E1,1.7980806E2,4.96547E0,1.0503387E1,1.3372264E0,1.9273243E1,1.9507973E1,3.0674376E1,1.2800611E0,4.59689E0,1.2488201E0],"tree_param":{"num_deleted":"0","num_feature":"100","num_nodes":"57","size_leaf_vector":"1"}},{"base_weights":[-2.2550687E-2,-2.208068E-1,6.7225695E-2,1.8918021E-1,-3.020124E-1,-5.1357085E-1,1.1449823E-1,5.0243247E-1,-2.798723E-1,-1.5303607E-2,-4.3137184E-1,-6.3654757E-1,4.818341E-2,3.599436E-1,4.8822068E-2,6.397164E-1,-1.6017135E-2,-4.9888542E-1,2.1711458E-2,-4.046558E-1,3.541366E-1,-4.811628E-1,9.910927E-2,-6.775648E-1,8.305638E-3,-3.956647E-1,2.9408028E-2,-4.260128E-1,4.4953927E-1,-4.730455E-1,8.193165E-2,2.2478294E-2,-1.3993997E-2,-2.6860993E-4,-2.0386543E-2,1.238594E-3,-1.925814E-2,-1.2814362E-2,1.6027985E-2,-1.8800758E-2,-1.1009778E-2,-1.3211801E-2,1.9793333E-2,8.216036E-3,-2.1645395E-2,-1.7997723E-2,8.361511E-3,-2.0250691E-2,2.5350664E-2,1.5019279E-2,-1.1576036E-2,-1.7456485E-2,1.5100952E-2,4.6461243E-3,-3.826027E-3],"categories":[],"categories_nodes":[],"categories_segments":[],"categories_sizes":[],"default_left":[0,0,0,0,0,0,0,0,0,0,0,0,0,0,0,0,0,0,0,0,0,0,0,0,0,0,0,0,0,0,0,0,0,0,0,0,0,0,0,0,0,0,0,0,0,0,0,0,0,0,0,0,0,0,0],"id":4,"left_children":[1,3,5,7,9,11,13,15,17,19,21,23,25,27,29,31,-1,33,-1,35,37,39,41,43,-1,45,-1,47,49,51,53,-1,-1,-1,-1,-1,-1,-1,-1,-1,-1,-1,-1,-1,-1,-1,-1,-1,-1,-1,-1,-1,-1,-1,-1],"loss_changes":[1.3928598E1,8.176988E0,1.4853018E1,6.1553254E0,7.557726E0,2.8450174E0,8.027878E0,3.8843718E0,4.1050363E0,9.413629E0,3.7588882E0,1.4423943E0,3.7993686E0,7.599557E0,6.862157E0,3.0695496E0,0E0,1.2839434E0,0E0,3.3961554E0,4.9572E0,1.9070454E0,4.1881843E0,1.5499954E0,0E0,1.0348371E0,0E0,4.140115E0,4.2455997E0,2.812252E0,5.7062078E0,0E0,0E0,0E0,0E0,0E0,0E0,0E0,0E0,0E0,0E0,0E0,0E0,0E0,0E0,0E0,0E0,0E0,0E0,0E0,0E0,0E0,0E0,0E0,0E0],"parents":[2147483647,0,0,1,1,2,2,3,3,4,4,5,5,6,6,7,7,8,8,9,9,10,10,11,11,12,12,13,13,14,14,15,15,17,17,19,19,20,20,21,21,22,22,23,23,25,25,27,27,28,28,29,29,30,30],"right_children":[2,4,6,8,10,12,14,16,18,20,22,24,26,28,30,32,-1,34,-1,36,38,40,42,44,-1,46,-1,48,50,52,54,-1,-1,-1,-1,-1,-1,-1,-1,-1,-1,-1,-1,-1,-1,-1,-1,-1,-1,-1,-1,-1,-1,-1,-1],"split_conditions":[-6.9076914E-1,-7.2810906E-1,-1.6020169E0,-1.3252905E-1,-2.240913E-1,5.360755E-1,-6.2880737E-1,1.4362366E0,1.9896792E0,3.6641597E-3,1.7445128E0,2.3003895E0,-1.367968E0,-1.1723455E0,-5.5849594E-1,1.3865182E0,-1.6017135E-2,-4.2469802E-1,2.1711458E-2,-9.398769E-1,-7.075754E-1,-5.8933604E-1,-6.317421E-2,-1.3040733E0,8.305638E-3,2.0776365E0,2.9408028E-2,5.314535E-1,1.3241222E0,1.2426481E0,1.5501322E-1,2.2478294E-2,-1.3993997E-2,-2.6860993E-4,-2.0386543E-2,1.238594E-3,-1.925814E-2,-1.2814362E-2,1.6027985E-2,-1.8800758E-2,-1.1009778E-2,-1.3211801E-2,1.9793333E-2,8.216036E-3,-2.1645395E-2,-1.7997723E-2,8.361511E-3,-2.0250691E-2,2.5350664E-2,1.5019279E-2,-1.1576036E-2,-1.7456485E-2,1.5100952E-2,4.6461243E-3,-3.826027E-3],"split_indices":[13,5,3,55,31,97,97,31,31,97,10,30,87,39,1,21,0,19,0,0,79,32,94,12,0,13,0,0,45,0,20,0,0,0,0,0,0,0,0,0,0,0,0,0,0,0,0,0,0,0,0,0,0,0,0],"split_type":[0,0,0,0,0,0,0,0,0,0,0,0,0,0,0,0,0,0,0,0,0,0,0,0,0,0,0,0,0,0,0,0,0,0,0,0,0,0,0,0,0,0,0,0,0,0,0,0,0,0,0,0,0,0,0],"sum_hessian":[7.80728E2,2.4288893E2,5.3783905E2,3.993539E1,2.0295355E2,3.9738808E1,4.9810028E2,2.3901701E1,1.6033688E1,6.3447815E1,1.3950574E2,3.2492546E1,7.246265E0,1.04200584E2,3.938997E2,2.1443754E1,2.457948E0,1.357427E1,2.4594183E0,3.0845007E1,3.260281E1,1.2762027E2,1.1885464E1,3.134324E1,1.1493042E0,5.2986245E0,1.9476403E0,1.0278662E1,9.392192E1,2.2707096E1,3.711926E2,1.9804861E1,1.6388927E0,3.9398122E0,9.634458E0,1.0999264E1,1.9845743E1,5.8515162E0,2.6751291E1,5.413147E1,7.34888E1,6.166386E0,5.719077E0,1.1528897E0,3.019035E1,4.1515846E0,1.1470399E0,8.986937E0,1.2917254E0,8.888536E1,5.0365615E0,2.0793383E1,1.9137123E0,2.7551486E2,9.567774E1],"tree_param":{"num_deleted":"0","num_feature":"100","num_nodes":"55","size_leaf_vector":"1"}},{"base_weights":[1.1674665E-2,6.064556E-1,-2.837085E-1,1.1681387E0,4.4993258E-1,-1.0883357E-1,-5.693095E-1,3.284288E-1,1.2078235E0,1.0391134E0,3.889438E-1,-1.8352365E-1,3.2103074E-1,4.6771052E-1,-5.849037E-1,2.644634E-2,-1.28384745E-2,1.2406088E0,7.7094277E-3,-4.412292E-3,1.2041675E0,4.5965248E-1,-8.060515E-2,8.0432343E-1,-2.260817E-1,1.5682709E-1,9.239578E-1,9.1833965E-4,2.2905475E-2,-6.054208E-1,2.2169216E-1,2.1602819E-2,3.844204E-2,3.9718315E-2,2.8453756E-4,9.48245E-5,1.640873E-2,-1.1813717E-2,1.9363375E-2,-1.8969272E-3,2.899682E-2,-8.875073E-3,3.8461562E-3,1.1900261E-2,-1.0258093E-2,3.4126393E-2,-1.7329035E-3,-1.87676E-2,-1.4895275E-3,2.1153955E-2,-1.4459135E-2],"categories":[],"categories_nodes":[],"categories_segments":[],"categories_sizes":[],"default_left":[0,0,0,0,0,0,0,0,0,0,0,0,0,0,0,0,0,0,0,0,0,0,0,0,0,0,0,0,0,0,0,0,0,0,0,0,0,0,0,0,0,0,0,0,0,0,0,0,0,0,0],"id":5,"left_children":[1,3,5,7,9,11,13,15,17,19,21,23,25,27,29,-1,-1,31,-1,-1,33,35,37,39,41,43,45,-1,-1,47,49,-1,-1,-1,-1,-1,-1,-1,-1,-1,-1,-1,-1,-1,-1,-1,-1,-1,-1,-1,-1],"loss_changes":[1.3521747E2,2.192691E1,2.5623482E1,1.4371567E0,6.831169E0,1.0339718E1,3.428173E0,1.9908394E0,1.3076477E0,3.7579498E0,6.148201E0,1.1677642E1,4.583942E0,4.2213178E-1,3.3219986E0,0E0,0E0,1.426239E-1,0E0,0E0,2.3004894E0,6.3798256E0,5.925476E0,1.681601E0,6.5357103E0,4.770629E0,2.1666574E0,0E0,0E0,2.0772629E0,2.2143059E0,0E0,0E0,0E0,0E0,0E0,0E0,0E0,0E0,0E0,0E0,0E0,0E0,0E0,0E0,0E0,0E0,0E0,0E0,0E0,0E0],"parents":[2147483647,0,0,1,1,2,2,3,3,4,4,5,5,6,6,7,7,8,8,9,9,10,10,11,11,12,12,13,13,14,14,17,17,20,20,21,21,22,22,23,23,24,24,25,25,26,26,29,29,30,30],"right_children":[2,4,6,8,10,12,14,16,18,20,22,24,26,28,30,-1,-1,32,-1,-1,34,36,38,40,42,44,46,-1,-1,48,50,-1,-1,-1,-1,-1,-1,-1,-1,-1,-1,-1,-1,-1,-1,-1,-1,-1,-1,-1,-1],"split_conditions":[-6.6628736E-1,-1.5593115E0,5.213111E-1,-1.3040733E0,-1.2875242E0,1.0598859E0,-1.462385E0,-3.101244E-1,6.68095E-1,-2.5557227E0,7.8623474E-1,-1.812451E0,1.7837527E0,-1.5123782E0,2.4268322E0,2.644634E-2,-1.28384745E-2,-9.620149E-1,7.7094277E-3,-4.412292E-3,1.0562873E0,-1.5033872E0,5.636842E-1,-1.1725992E0,8.893516E-1,1.4999111E0,1.516422E-1,9.1833965E-4,2.2905475E-2,2.508395E0,-6.415707E-2,2.1602819E-2,3.844204E-2,3.9718315E-2,2.8453756E-4,9.48245E-5,1.640873E-2,-1.1813717E-2,1.9363375E-2,-1.8969272E-3,2.899682E-2,-8.875073E-3,3.8461562E-3,1.1900261E-2,-1.0258093E-2,3.4126393E-2,-1.7329035E-3,-1.87676E-2,-1.4895275E-3,2.1153955E-2,-1.4459135E-2],"split_indices":[3,2,2,12,46,30,12,95,93,75,96,46,5,12,93,0,0,31,0,0,97,14,30,11,13,32,37,0,0,19,97,0,0,0,0,0,0,0,0,0,0,0,0,0,0,0,0,0,0,0,0],"split_type":[0,0,0,0,0,0,0,0,0,0,0,0,0,0,0,0,0,0,0,0,0,0,0,0,0,0,0,0,0,0,0,0,0,0,0,0,0,0,0,0,0,0,0,0,0,0,0,0,0,0,0],"sum_hessian":[7.6766486E2,2.543848E2,5.132801E2,5.4031094E1,2.003537E2,3.1920828E2,1.940718E2,2.8568811E0,5.117421E1,1.7289644E1,1.8306406E2,2.7244354E2,4.676474E1,2.445607E0,1.9162619E2,1.5545816E0,1.3022995E0,4.917394E1,2.0002732E0,2.125229E0,1.5164416E1,1.5912303E2,2.3941029E1,1.0513245E1,2.619303E2,3.7745174E1,9.019567E0,1.4324378E0,1.0131692E0,1.8711598E2,4.510199E0,4.929243E0,4.4244694E1,1.3684262E1,1.4801533E0,2.5713152E1,1.3340988E2,1.704585E1,6.8951783E0,1.7524381E0,8.760806E0,2.1898103E2,4.294928E1,2.5626457E1,1.2118716E1,7.2775064E0,1.7420601E0,1.8044307E2,6.672914E0,2.672214E0,1.837985E0],"tree_param":{"num_deleted":"0","num_feature":"100","num_nodes":"51","size_leaf_vector":"1"}},{"base_weights":[-1.1130893E-2,-3.603897E-1,4.492708E-1,-5.4305E-1,-1.8889745E-1,3.2048732E-1,8.681996E-1,-5.5309266E-1,6.719373E-2,1.2624516E-2,-3.0450618E-1,4.2516184E-1,7.216267E-2,-8.806831E-3,9.044268E-1,-2.6833397E-1,-5.7868147E-1,-1.3772295E-2,1.659024E-2,-9.522028E-2,7.2005206E-1,-3.402828E-1,7.284579E-1,6.08325E-1,2.6936364E-1,-2.6689187E-1,3.1136158E-1,2.6662615E-1,9.663231E-1,-1.1700355E-2,2.5100097E-2,-1.2311055E-2,-1.857785E-2,-8.696609E-3,5.430563E-3,-4.0000975E-3,3.4027677E-2,-1.1365357E-2,2.6311134E-3,3.431463E-2,-1.1944482E-2,2.8756328E-2,1.29047055E-2,1.2184363E-2,1.0167237E-3,1.839326E-2,-1.3556305E-2,5.131514E-3,3.6735285E-2,2.619826E-2,-1.3003439E-2,-6.3007427E-3,2.9933406E-2],"categories":[],"categories_nodes":[],"categories_segments":[],"categories_sizes":[],"default_left":[0,0,0,0,0,0,0,0,0,0,0,0,0,0,0,0,0,0,0,0,0,0,0,0,0,0,0,0,0,0,0,0,0,0,0,0,0,0,0,0,0,0,0,0,0,0,0,0,0,0,0,0,0],"id":6,"left_children":[1,3,5,7,9,11,13,15,17,19,21,23,25,-1,27,29,31,-1,-1,33,35,37,39,41,43,45,47,49,51,-1,-1,-1,-1,-1,-1,-1,-1,-1,-1,-1,-1,-1,-1,-1,-1,-1,-1,-1,-1,-1,-1,-1,-1],"loss_changes":[1.2542567E2,1.3790783E1,1.7875275E1,1.3501091E0,5.3690577E0,6.7002563E0,3.5706902E0,1.3813019E0,1.3686548E0,6.546648E0,5.657424E0,5.02861E0,6.4082403E0,0E0,2.7584991E0,2.914805E0,1.0615234E0,0E0,0E0,4.062032E0,4.162817E0,2.3794613E0,2.8974023E0,4.75671E0,3.2109118E0,5.616424E0,5.708715E0,3.8354368E0,2.7725754E0,0E0,0E0,0E0,0E0,0E0,0E0,0E0,0E0,0E0,0E0,0E0,0E0,0E0,0E0,0E0,0E0,0E0,0E0,0E0,0E0,0E0,0E0,0E0,0E0],"parents":[2147483647,0,0,1,1,2,2,3,3,4,4,5,5,6,6,7,7,8,8,9,9,10,10,11,11,12,12,14,14,15,15,16,16,19,19,20,20,21,21,22,22,23,23,24,24,25,25,26,26,27,27,28,28],"right_children":[2,4,6,8,10,12,14,16,18,20,22,24,26,-1,28,30,32,-1,-1,34,36,38,40,42,44,46,48,50,52,-1,-1,-1,-1,-1,-1,-1,-1,-1,-1,-1,-1,-1,-1,-1,-1,-1,-1,-1,-1,-1,-1,-1,-1],"split_conditions":[7.8647755E-2,-8.183406E-1,1.2093191E0,1.8916448E0,-3.5624126E-1,1.687573E0,-1.9222399E0,-2.1688025E-1,-1.804936E0,6.9597006E-1,1.9687037E0,-1.108539E-1,9.575255E-2,-8.806831E-3,-1.3427693E0,1.0421461E-1,-5.7536376E-1,-1.3772295E-2,1.659024E-2,-1.5072869E-1,-1.627115E-1,1.3347965E0,4.582454E-2,9.234142E-1,1.5386373E-1,-5.8963156E-1,6.252883E-1,-2.2226973E-1,-1.5900288E0,-1.1700355E-2,2.5100097E-2,-1.2311055E-2,-1.857785E-2,-8.696609E-3,5.430563E-3,-4.0000975E-3,3.4027677E-2,-1.1365357E-2,2.6311134E-3,3.431463E-2,-1.1944482E-2,2.8756328E-2,1.29047055E-2,1.2184363E-2,1.0167237E-3,1.839326E-2,-1.3556305E-2,5.131514E-3,3.6735285E-2,2.619826E-2,-1.3003439E-2,-6.3007427E-3,2.9933406E-2],"split_indices":[3,3,3,32,96,4,73,57,38,38,78,95,38,0,43,58,98,0,0,95,87,59,63,6,96,77,13,13,11,0,0,0,0,0,0,0,0,0,0,0,0,0,0,0,0,0,0,0,0,0,0,0,0],"split_type":[0,0,0,0,0,0,0,0,0,0,0,0,0,0,0,0,0,0,0,0,0,0,0,0,0,0,0,0,0,0,0,0,0,0,0,0,0,0,0,0,0,0,0,0,0,0,0,0,0,0,0,0,0],"sum_hessian":[7.780066E2,4.425257E2,3.3548093E2,2.1323628E2,2.292894E2,2.5794934E2,7.7531555E1,2.0987604E2,3.360244E0,8.3911285E1,1.4537813E2,1.8095891E2,7.699044E1,2.129754E0,7.54018E1,1.825182E1,1.9162422E2,1.6393813E0,1.7208627E0,7.356236E1,1.034892E1,1.4115965E2,4.2184744E0,8.183985E1,9.9119064E1,3.1799786E1,4.5190655E1,7.1396794E0,6.826212E1,1.702424E1,1.2275804E0,3.938422E1,1.5224E2,4.3123596E1,3.0438766E1,3.6032314E0,6.7456884E0,1.2959747E2,1.1562168E1,3.0709736E0,1.147501E0,2.611886E1,5.5720993E1,6.224012E1,3.687894E1,5.1215334E0,2.6678253E1,4.020085E1,4.9898033E0,3.692521E0,3.4471583E0,1.6300336E0,6.663209E1],"tree_param":{"num_deleted":"0","num_feature":"100","num_nodes":"53","size_leaf_vector":"1"}},{"base_weights":[-2.007293E-2,-6.455521E-1,1.2890091E-2,-1.677288E-1,-2.145749E-2,-2.0405798E-1,1.11691095E-1,-1.7802738E-2,2.5019253E-2,-5.0053096E-1,-1.0747401E-1,1.3642707E-1,-4.0970412E-1,-1.2878308E-1,-5.9572166E-1,-1.308016E-2,-4.154503E-1,1.616034E-1,-4.3780637E-1,-5.1994675E-1,2.5094826E-2,1.6491989E-2,-1.9448353E-2,-1.870875E-2,4.323299E-3,-1.6270723E-2,2.0193292E-3,8.253996E-3,-1.781048E-2,7.0820646E-3,1.2533201E-4,2.5390645E-2,-1.6952658E-2,-1.9265566E-2,1.9419126E-2],"categories":[],"categories_nodes":[],"categories_segments":[],"categories_sizes":[],"default_left":[0,0,0,0,0,0,0,0,0,0,0,0,0,0,0,0,0,0,0,0,0,0,0,0,0,0,0,0,0,0,0,0,0,0,0],"id":7,"left_children":[1,3,5,7,-1,9,11,-1,-1,13,15,17,19,21,23,25,27,29,31,33,-1,-1,-1,-1,-1,-1,-1,-1,-1,-1,-1,-1,-1,-1,-1],"loss_changes":[1.6239975E1,1.1932373E0,1.6073872E1,3.1923957E0,0E0,6.6659327E0,6.7000837E0,0E0,0E0,1.9541874E0,5.177377E0,7.1920424E0,3.674891E0,4.9301286E0,1.0274239E0,5.8865757E0,5.30718E0,5.5394573E0,3.9040227E0,3.5951319E0,0E0,0E0,0E0,0E0,0E0,0E0,0E0,0E0,0E0,0E0,0E0,0E0,0E0,0E0,0E0],"parents":[2147483647,0,0,1,1,2,2,3,3,5,5,6,6,9,9,10,10,11,11,12,12,13,13,14,14,15,15,16,16,17,17,18,18,19,19],"right_children":[2,4,6,8,-1,10,12,-1,-1,14,16,18,20,22,24,26,28,30,32,34,-1,-1,-1,-1,-1,-1,-1,-1,-1,-1,-1,-1,-1,-1,-1],"split_conditions":[-1.7012701E0,-9.620149E-1,-6.9076914E-1,-5.84191E-1,-2.145749E-2,-9.5058835E-1,1.4773785E0,-1.7802738E-2,2.5019253E-2,-5.2599937E-1,2.10864E-1,1.3234215E0,9.021329E-1,-6.455236E-1,2.6917863E0,-1.1776181E0,-9.2797995E-1,1.5501322E-1,-1.4020802E0,1.4472917E0,2.5094826E-2,1.6491989E-2,-1.9448353E-2,-1.870875E-2,4.323299E-3,-1.6270723E-2,2.0193292E-3,8.253996E-3,-1.781048E-2,7.0820646E-3,1.2533201E-4,2.5390645E-2,-1.6952658E-2,-1.9265566E-2,1.9419126E-2],"split_indices":[3,31,13,81,0,57,89,0,0,91,98,82,9,84,11,63,1,20,48,13,0,0,0,0,0,0,0,0,0,0,0,0,0,0,0],"split_type":[0,0,0,0,0,0,0,0,0,0,0,0,0,0,0,0,0,0,0,0,0,0,0,0,0,0,0,0,0,0,0,0,0,0,0],"sum_hessian":[7.8626855E2,3.843192E1,7.478367E2,5.325892E0,3.3106026E1,2.3367212E2,5.141645E2,4.0235724E0,1.3023195E0,5.6391403E1,1.7728072E2,4.9158133E2,2.2583204E1,1.1975689E1,4.4415714E1,1.3648955E2,4.0791176E1,4.7162238E2,1.9958939E1,2.12832E1,1.3000052E0,5.167795E0,6.8078938E0,4.2952785E1,1.4629273E0,1.7239836E1,1.192497E2,8.256534E0,3.2534645E1,3.1983472E2,1.5178766E2,1.2904137E0,1.8668526E1,1.967282E1,1.6103793E0],"tree_param":{"num_deleted":"0","num_feature":"100","num_nodes":"35","size_leaf_vector":"1"}},{"base_weights":[7.217482E-3,5.752563E-1,-2.723078E-1,1.134339E0,4.3084684E-1,-9.329666E-2,-4.8096138E-1,2.2439298E-1,1.1891227E0,1.0264847E0,3.734589E-1,1.7094599E-1,-2.3829184E-1,2.7571616E-1,-5.102631E-1,-1.4379399E-2,2.5755554E-2,7.5447527E-3,1.2235767E0,3.4497264E-1,3.7753027E-2,9.7988766E-1,3.2022363E-1,4.5417032E-1,-1.2183306E-1,-3.1976688E-1,8.333108E-2,-1.5876945E-2,6.2420046E-1,2.1417227E-2,-5.230926E-1,3.4133084E-3,3.748081E-2,2.7063757E-2,-1.5136823E-2,3.4518756E-2,7.6864534E-3,1.8318672E-2,6.670544E-3,1.8043613E-2,-6.5647904E-3,-8.8507645E-3,2.0011986E-2,-1.1049991E-2,7.1854047E-3,-1.9376107E-2,7.4315867E-3,-5.4356665E-3,3.1577054E-2,-1.6244542E-2,1.3785003E-3],"categories":[],"categories_nodes":[],"categories_segments":[],"categories_sizes":[],"default_left":[0,0,0,0,0,0,0,0,0,0,0,0,0,0,0,0,0,0,0,0,0,0,0,0,0,0,0,0,0,0,0,0,0,0,0,0,0,0,0,0,0,0,0,0,0,0,0,0,0,0,0],"id":8,"left_children":[1,3,5,7,9,11,13,15,17,19,21,23,25,27,29,-1,-1,-1,31,33,-1,35,37,39,41,43,45,-1,47,-1,49,-1,-1,-1,-1,-1,-1,-1,-1,-1,-1,-1,-1,-1,-1,-1,-1,-1,-1,-1,-1],"loss_changes":[1.2480745E2,2.0440575E1,1.96325E1,2.3553238E0,6.7138786E0,1.09522085E1,5.5290756E0,2.294452E0,1.2875443E0,2.3597908E0,5.8508377E0,8.470721E0,4.856243E0,3.0539424E0,4.0535355E0,0E0,0E0,0E0,1.2133865E0,3.2314909E0,0E0,1.5492506E0,4.895735E0,5.2656975E0,7.1225758E0,4.0881243E0,4.7206073E0,0E0,2.6867216E0,0E0,2.4578247E0,0E0,0E0,0E0,0E0,0E0,0E0,0E0,0E0,0E0,0E0,0E0,0E0,0E0,0E0,0E0,0E0,0E0,0E0,0E0,0E0],"parents":[2147483647,0,0,1,1,2,2,3,3,4,4,5,5,6,6,7,7,8,8,9,9,10,10,11,11,12,12,13,13,14,14,18,18,19,19,21,21,22,22,23,23,24,24,25,25,26,26,28,28,30,30],"right_children":[2,4,6,8,10,12,14,16,18,20,22,24,26,28,30,-1,-1,-1,32,34,-1,36,38,40,42,44,46,-1,48,-1,50,-1,-1,-1,-1,-1,-1,-1,-1,-1,-1,-1,-1,-1,-1,-1,-1,-1,-1,-1,-1],"split_conditions":[-6.6628736E-1,-1.6020169E0,4.4243538E-1,-6.91155E-1,-1.2875242E0,5.9256697E-1,-1.3499004E0,-3.1120294E-1,-9.068994E-1,-1.5225244E0,-9.089138E-1,-7.931089E-2,8.9685196E-1,6.091896E-1,-1.4524044E0,-1.4379399E-2,2.5755554E-2,7.5447527E-3,-1.173021E0,-2.4850407E-1,3.7753027E-2,2.895156E0,-1.2652743E0,4.3527687E-1,1.2447383E0,1.4941417E0,-9.2797995E-1,-1.5876945E-2,-6.3200235E-1,2.1417227E-2,2.4268322E0,3.4133084E-3,3.748081E-2,2.7063757E-2,-1.5136823E-2,3.4518756E-2,7.6864534E-3,1.8318672E-2,6.670544E-3,1.8043613E-2,-6.5647904E-3,-8.8507645E-3,2.0011986E-2,-1.1049991E-2,7.1854047E-3,-1.9376107E-2,7.4315867E-3,-5.4356665E-3,3.1577054E-2,-1.6244542E-2,1.3785003E-3],"split_indices":[3,3,3,68,46,7,12,9,92,69,53,38,73,3,14,0,0,0,30,82,0,35,3,97,69,13,1,0,59,0,93,0,0,0,0,0,0,0,0,0,0,0,0,0,0,0,0,0,0,0,0],"split_type":[0,0,0,0,0,0,0,0,0,0,0,0,0,0,0,0,0,0,0,0,0,0,0,0,0,0,0,0,0,0,0,0,0,0,0,0,0,0,0,0,0,0,0,0,0,0,0,0,0,0,0],"sum_hessian":[7.8404755E2,2.582287E2,5.258188E2,5.160076E1,2.0662794E2,2.837914E2,2.4202739E2,3.2196136E0,4.838115E1,1.667447E1,1.8995348E2,1.0048543E2,1.83306E2,8.709387E0,2.33318E2,1.6417993E0,1.5778142E0,2.008953E0,4.6372196E1,4.8656206E0,1.180885E1,1.3924615E1,1.7602887E2,5.0795948E1,4.968948E1,1.462604E2,3.7045597E1,2.4746478E0,6.2347393E0,1.8530995E0,2.3146489E2,1.1757855E0,4.519641E1,2.901085E0,1.964536E0,1.0789131E1,3.1354835E0,4.305132E1,1.3297754E2,4.1762615E1,9.03333E0,4.1257885E1,8.431596E0,1.3488852E2,1.1371884E1,6.2762437E0,3.0769352E1,2.365086E0,3.8696532E0,2.2426483E2,7.200061E0],"tree_param":{"num_deleted":"0","num_feature":"100","num_nodes":"51","size_leaf_vector":"1"}},{"base_weights":[2.1224838E-2,-3.232118E-1,4.6419162E-1,-5.1354134E-1,-1.431829E-1,3.3434215E-1,8.108648E-1,3.545855E-2,-5.305631E-1,6.36244E-1,-1.7133427E-1,3.3384565E-2,4.307553E-1,8.497543E-1,-4.5126293E-2,6.1473393E-1,-1.6653355E-2,-5.4415435E-1,1.6833337E-1,1.0073619E0,-8.381546E-3,-7.940591E-2,-3.5583863E-1,2.0574173E-1,-2.4930517E-1,5.5506194E-1,1.8970186E-1,1.1289107E0,6.8630797E-1,1.3169127E-2,-1.521984E-2,2.9626323E-2,-3.385676E-3,-1.079285E-2,-1.7561607E-2,2.7844232E-2,-1.4980481E-2,7.230144E-3,3.4214105E-2,2.3901775E-3,-6.966599E-3,-1.5813354E-2,-3.1026849E-3,1.7754776E-2,-3.9442074E-3,-1.4116157E-2,9.869685E-3,1.9933762E-2,8.859323E-3,9.846579E-3,-7.2810734E-3,3.5829257E-2,-4.6504913E-3,1.1965266E-2,3.1150278E-2],"categories":[],"categories_nodes":[],"categories_segments":[],"categories_sizes":[],"default_left":[0,0,0,0,0,0,0,0,0,0,0,0,0,0,0,0,0,0,0,0,0,0,0,0,0,0,0,0,0,0,0,0,0,0,0,0,0,0,0,0,0,0,0,0,0,0,0,0,0,0,0,0,0,0,0],"id":9,"left_children":[1,3,5,7,9,11,13,15,17,19,21,23,25,27,29,31,-1,33,35,37,-1,39,41,43,45,47,49,51,53,-1,-1,-1,-1,-1,-1,-1,-1,-1,-1,-1,-1,-1,-1,-1,-1,-1,-1,-1,-1,-1,-1,-1,-1,-1,-1],"loss_changes":[1.17363914E2,1.4755508E1,1.4875015E1,1.9810982E0,5.019475E0,7.137619E0,3.067089E0,2.8222194E0,2.0268097E0,3.0044374E0,3.6485925E0,3.017951E0,5.485943E0,3.19841E0,1.3198624E0,1.2332406E0,0E0,1.3106232E0,2.822491E0,3.2896233E-1,0E0,3.5671124E0,3.0496988E0,5.073742E0,3.1631858E0,3.287304E0,3.973141E0,2.7550583E0,5.402027E0,0E0,0E0,0E0,0E0,0E0,0E0,0E0,0E0,0E0,0E0,0E0,0E0,0E0,0E0,0E0,0E0,0E0,0E0,0E0,0E0,0E0,0E0,0E0,0E0,0E0,0E0],"parents":[2147483647,0,0,1,1,2,2,3,3,4,4,5,5,6,6,7,7,8,8,9,9,10,10,11,11,12,12,13,13,14,14,15,15,17,17,18,18,19,19,21,21,22,22,23,23,24,24,25,25,26,26,27,27,28,28],"right_children":[2,4,6,8,10,12,14,16,18,20,22,24,26,28,30,32,-1,34,36,38,-1,40,42,44,46,48,50,52,54,-1,-1,-1,-1,-1,-1,-1,-1,-1,-1,-1,-1,-1,-1,-1,-1,-1,-1,-1,-1,-1,-1,-1,-1,-1,-1],"split_conditions":[5.0827548E-2,-6.5994394E-1,1.0135785E0,-7.4958414E-1,-3.7767845E-1,-7.2810906E-1,2.3817027E0,1.9285685E0,6.853912E-1,2.048727E0,1.687573E0,2.6987877E-1,2.656216E-1,-8.776665E-2,1.0917818E-1,7.974241E-1,-1.6653355E-2,-5.7536376E-1,1.9896792E0,-3.4327835E-1,-8.381546E-3,2.1482232E-1,-7.931089E-2,-1.4131461E-2,2.9646268E-1,6.151156E-2,6.067192E-1,1.9276842E0,1.508176E0,1.3169127E-2,-1.521984E-2,2.9626323E-2,-3.385676E-3,-1.079285E-2,-1.7561607E-2,2.7844232E-2,-1.4980481E-2,7.230144E-3,3.4214105E-2,2.3901775E-3,-6.966599E-3,-1.5813354E-2,-3.1026849E-3,1.7754776E-2,-3.9442074E-3,-1.4116157E-2,9.869685E-3,1.9933762E-2,8.859323E-3,9.846579E-3,-7.2810734E-3,3.5829257E-2,-4.6504913E-3,1.1965266E-2,3.1150278E-2],"split_indices":[2,2,2,70,76,5,10,13,81,20,4,86,35,97,5,19,0,98,31,68,0,1,38,10,97,95,1,44,2,0,0,0,0,0,0,0,0,0,0,0,0,0,0,0,0,0,0,0,0,0,0,0,0,0,0],"split_type":[0,0,0,0,0,0,0,0,0,0,0,0,0,0,0,0,0,0,0,0,0,0,0,0,0,0,0,0,0,0,0,0,0,0,0,0,0,0,0,0,0,0,0,0,0,0,0,0,0,0,0,0,0,0,0],"sum_hessian":[7.67243E2,4.317773E2,3.354657E2,2.0898369E2,2.2279362E2,2.454825E2,8.998319E1,6.2521253E0,2.0273157E2,7.013378E0,2.1578024E2,5.98875E1,1.85595E2,8.60797E1,3.9034965E0,3.1355896E0,3.1165354E0,1.9908151E2,3.6500602E0,4.9193196E0,2.0940583E0,1.4497672E2,7.080353E1,3.7373135E1,2.2514366E1,1.2159048E2,6.400452E1,2.9606567E1,5.647313E1,1.9311379E0,1.9723585E0,1.837031E0,1.2985587E0,3.815905E1,1.6092245E2,1.5247905E0,2.1252694E0,1.1439189E0,3.7754009E0,7.1266914E1,7.370979E1,4.1533375E1,2.9270155E1,1.7072021E1,2.0301115E1,1.6419302E1,6.0950623E0,8.446086E1,3.7129616E1,4.865818E1,1.534634E1,2.8238037E1,1.3685292E0,3.2261707E1,2.4211422E1],"tree_param":{"num_deleted":"0","num_feature":"100","num_nodes":"55","size_leaf_vector":"1"}},{"base_weights":[1.3694899E-2,-1.8656512E-1,9.9799626E-2,2.0850201E-1,-2.697035E-1,-6.4626503E-1,1.3690627E-1,4.6171212E-1,-4.4327047E-1,-5.170467E-1,-1.8325801E-1,-2.0960797E-2,2.402511E-3,8.2795404E-2,3.365199E-1,-2.10787E-1,6.2837994E-1,-2.005125E-2,1.27454875E-2,-2.124695E-2,-2.4636555E-1,7.799698E-2,-3.1725597E-1,-1.5945786E-1,1.4940563E-1,4.5624733E-1,-3.0713093E-1,2.4890937E-2,-1.8300116E-2,3.0129038E-2,4.5637544E-3,4.9225247E-4,-1.9484024E-2,-2.8863046E-3,1.9090097E-2,-1.21572595E-2,6.527503E-3,3.314051E-3,-1.0082228E-2,8.343125E-3,-4.7519265E-4,-1.2729425E-2,1.5551478E-2,2.5194105E-2,-1.8083606E-2],"categories":[],"categories_nodes":[],"categories_segments":[],"categories_sizes":[],"default_left":[0,0,0,0,0,0,0,0,0,0,0,0,0,0,0,0,0,0,0,0,0,0,0,0,0,0,0,0,0,0,0,0,0,0,0,0,0,0,0,0,0,0,0,0,0],"id":10,"left_children":[1,3,5,7,9,11,13,15,17,19,21,-1,-1,23,25,27,29,-1,-1,-1,31,33,35,37,39,41,43,-1,-1,-1,-1,-1,-1,-1,-1,-1,-1,-1,-1,-1,-1,-1,-1,-1,-1],"loss_changes":[1.3519506E1,7.8002005E0,1.52645855E1,7.062543E0,4.0793257E0,1.0517035E0,5.621667E0,3.5417318E0,2.6557078E0,2.4134846E0,5.1431556E0,0E0,0E0,6.6853476E0,8.711124E0,3.3265448E0,4.2563324E0,0E0,0E0,0E0,2.3657968E0,4.9605474E0,4.645235E0,4.304559E0,6.9014163E0,5.3729E0,6.62405E0,0E0,0E0,0E0,0E0,0E0,0E0,0E0,0E0,0E0,0E0,0E0,0E0,0E0,0E0,0E0,0E0,0E0,0E0],"parents":[2147483647,0,0,1,1,2,2,3,3,4,4,5,5,6,6,7,7,8,8,9,9,10,10,13,13,14,14,15,15,16,16,20,20,21,21,22,22,23,23,24,24,25,25,26,26],"right_children":[2,4,6,8,10,12,14,16,18,20,22,-1,-1,24,26,28,30,-1,-1,-1,32,34,36,38,40,42,44,-1,-1,-1,-1,-1,-1,-1,-1,-1,-1,-1,-1,-1,-1,-1,-1,-1,-1],"split_conditions":[-6.9076914E-1,-7.2810906E-1,-1.7346964E0,1.005698E0,-8.772175E-1,1.5440193E0,6.233133E-2,-9.5058835E-1,9.5252275E-1,-1.3188506E0,-8.355126E-1,-2.0960797E-2,2.402511E-3,-2.7763686E-1,7.75782E-1,-1.6857431E0,-7.013862E-2,-2.005125E-2,1.27454875E-2,-2.124695E-2,3.1634757E-1,9.0640765E-1,1.5353992E0,6.344619E-2,-1.6584371E-1,-3.1860134E-1,-4.3096492E-1,2.4890937E-2,-1.8300116E-2,3.0129038E-2,4.5637544E-3,4.9225247E-4,-1.9484024E-2,-2.8863046E-3,1.9090097E-2,-1.21572595E-2,6.527503E-3,3.314051E-3,-1.0082228E-2,8.343125E-3,-4.7519265E-4,-1.2729425E-2,1.5551478E-2,2.5194105E-2,-1.8083606E-2],"split_indices":[13,5,3,14,57,57,10,57,64,1,0,0,0,94,92,78,57,0,0,0,93,54,48,98,91,9,13,0,0,0,0,0,0,0,0,0,0,0,0,0,0,0,0,0,0],"split_type":[0,0,0,0,0,0,0,0,0,0,0,0,0,0,0,0,0,0,0,0,0,0,0,0,0,0,0,0,0,0,0,0,0,0,0,0,0,0,0,0,0,0,0,0,0],"sum_hessian":[7.819627E2,2.3477129E2,5.471914E2,4.0553997E1,1.942173E2,2.5148115E1,5.220433E2,2.9417183E1,1.1136812E1,4.900888E1,1.4520842E2,2.3490625E1,1.6574898E0,4.1182214E2,1.10221146E2,5.790003E0,2.362718E1,9.026357E0,2.1104555E0,2.7774784E1,2.1234097E1,4.9369984E1,9.583843E1,8.851392E1,3.2330823E2,9.317967E1,1.7041471E1,1.3065108E0,4.483492E0,1.2584852E1,1.1042328E1,1.3435235E1,7.7988615E0,3.8260147E1,1.1109836E1,8.25075E1,1.33309355E1,3.5157135E1,5.3356785E1,1.8136906E2,1.4193915E2,5.7574916E0,8.742218E1,3.1154132E0,1.3926059E1],"tree_param":{"num_deleted":"0","num_feature":"100","num_nodes":"45","size_leaf_vector":"1"}},{"base_weights":[-1.2912995E-3,5.2477E-1,-2.965101E-1,8.127506E-1,2.8332946E-1,-1.11771934E-1,-5.0831735E-1,9.044174E-1,9.408822E-2,6.151077E-1,1.0065767E-1,-2.626306E-1,1.6090254E-1,4.874939E-1,-5.248026E-1,1.1867366E0,7.70073E-1,-4.2051494E-1,6.81458E-1,1.0862891E-1,7.9357004E-1,9.749394E-1,2.8043961E-2,-3.5295504E-1,2.118242E-1,2.418522E-1,-5.5925155E-1,2.9478438E-2,-1.2237915E-2,4.8192897E-1,-5.4172134E-1,3.6678363E-2,2.9970943E-3,5.8346293E-3,2.7132116E-2,2.195258E-2,-1.9993644E-2,2.923229E-2,-1.2901346E-2,-6.9341324E-3,3.2865766E-2,2.7684933E-2,-1.0826862E-2,3.6280885E-2,4.4214325E-5,-6.1394563E-3,6.5251645E-3,-1.3170959E-2,-4.007793E-3,1.1278975E-2,-1.3117767E-2,1.0096437E-2,-1.0004719E-2,4.3067522E-3,-1.9926729E-2,-1.2375118E-2,2.941977E-2,-1.3667582E-2,-1.9356487E-2],"categories":[],"categories_nodes":[],"categories_segments":[],"categories_sizes":[],"default_left":[0,0,0,0,0,0,0,0,0,0,0,0,0,0,0,0,0,0,0,0,0,0,0,0,0,0,0,0,0,0,0,0,0,0,0,0,0,0,0,0,0,0,0,0,0,0,0,0,0,0,0,0,0,0,0,0,0,0,0],"id":11,"left_children":[1,3,5,7,9,11,13,15,17,19,21,23,25,27,29,31,33,35,37,39,41,43,45,47,49,51,53,-1,-1,55,57,-1,-1,-1,-1,-1,-1,-1,-1,-1,-1,-1,-1,-1,-1,-1,-1,-1,-1,-1,-1,-1,-1,-1,-1,-1,-1,-1,-1],"loss_changes":[1.2119118E2,1.9273468E1,1.9501465E1,8.306999E0,9.27866E0,1.1077356E1,4.0739136E0,3.366768E0,4.9797196E0,4.8425236E0,6.3585606E0,7.492524E0,5.741784E0,2.3098674E0,4.1661873E0,1.224678E0,5.9570923E0,3.0082574E0,2.9042587E0,5.405722E0,6.3264294E0,1.7517738E0,4.184443E0,2.694027E0,3.1802726E0,4.860556E0,8.345871E-1,0E0,0E0,2.3309665E0,1.7203369E0,0E0,0E0,0E0,0E0,0E0,0E0,0E0,0E0,0E0,0E0,0E0,0E0,0E0,0E0,0E0,0E0,0E0,0E0,0E0,0E0,0E0,0E0,0E0,0E0,0E0,0E0,0E0,0E0],"parents":[2147483647,0,0,1,1,2,2,3,3,4,4,5,5,6,6,7,7,8,8,9,9,10,10,11,11,12,12,13,13,14,14,15,15,16,16,17,17,18,18,19,19,20,20,21,21,22,22,23,23,24,24,25,25,26,26,29,29,30,30],"right_children":[2,4,6,8,10,12,14,16,18,20,22,24,26,28,30,32,34,36,38,40,42,44,46,48,50,52,54,-1,-1,56,58,-1,-1,-1,-1,-1,-1,-1,-1,-1,-1,-1,-1,-1,-1,-1,-1,-1,-1,-1,-1,-1,-1,-1,-1,-1,-1,-1,-1],"split_conditions":[-6.247964E-1,-1.2092038E0,4.5975232E-1,6.68095E-1,-2.4329557E-1,1.687573E0,-1.3899982E0,-1.7346964E0,-2.9587802E-1,-2.111162E-1,-2.8867236E-1,6.07153E-2,8.847734E-1,2.048727E0,-1.2848892E0,3.5020396E-1,-1.5580117E0,-4.6597305E-1,5.978114E-1,-1.8027355E-1,6.783888E-1,1.0619524E0,-7.005984E-2,5.168279E-1,2.3849005E-1,5.577771E-1,-6.8371737E-1,2.9478438E-2,-1.2237915E-2,5.6221783E-1,1.5989363E-1,3.6678363E-2,2.9970943E-3,5.8346293E-3,2.7132116E-2,2.195258E-2,-1.9993644E-2,2.923229E-2,-1.2901346E-2,-6.9341324E-3,3.2865766E-2,2.7684933E-2,-1.0826862E-2,3.6280885E-2,4.4214325E-5,-6.1394563E-3,6.5251645E-3,-1.3170959E-2,-4.007793E-3,1.1278975E-2,-1.3117767E-2,1.0096437E-2,-1.0004719E-2,4.3067522E-3,-1.9926729E-2,-1.2375118E-2,2.941977E-2,-1.3667582E-2,-1.9356487E-2],"split_indices":[3,3,3,93,94,4,71,3,12,55,95,11,98,20,14,14,14,22,45,19,75,92,59,57,94,14,25,0,0,46,56,0,0,0,0,0,0,0,0,0,0,0,0,0,0,0,0,0,0,0,0,0,0,0,0,0,0,0,0],"split_type":[0,0,0,0,0,0,0,0,0,0,0,0,0,0,0,0,0,0,0,0,0,0,0,0,0,0,0,0,0,0,0,0,0,0,0,0,0,0,0,0,0,0,0,0,0,0,0,0,0,0,0,0,0,0,0,0,0,0,0],"sum_hessian":[7.783503E2,2.7950763E2,4.9884262E2,1.2638932E2,1.5311832E2,2.6726337E2,2.3157924E2,1.1186256E2,1.4526765E1,5.352893E1,9.958939E1,1.7209029E2,9.517308E1,3.305985E0,2.2827325E2,3.3541958E1,7.83206E1,7.8944206E0,6.6323447E0,1.4366181E1,3.9162746E1,6.6841903E0,9.2905205E1,1.4478323E2,2.7307058E1,8.615312E1,9.019963E0,2.0661461E0,1.239839E0,3.318593E0,2.2495465E2,3.23492E1,1.1927538E0,1.528306E1,6.303754E1,1.0411474E0,6.853273E0,5.3465333E0,1.2858112E0,1.1256582E1,3.1095986E0,3.539981E1,3.7629375E0,5.191646E0,1.4925442E0,4.1659615E1,5.124559E1,1.03262115E2,4.1521122E1,2.2131233E1,5.175824E0,7.4333595E1,1.1819523E1,1.1243925E0,7.8955708E0,1.2498956E0,2.0686975E0,1.2572235E2,9.923231E1],"tree_param":{"num_deleted":"0","num_feature":"100","num_nodes":"59","size_leaf_vector":"1"}},{"base_weights":[-4.097388E-3,-3.3970344E-1,4.288307E-1,-5.434116E-1,-1.5153308E-1,3.5835433E-1,1.0104611E0,-2.2850312E-2,-5.60668E-1,-1.8072928E-1,5.4335254E-1,4.5338365E-1,1.1039593E-1,-1.2883828E-2,1.0758784E0,3.2255703E-1,-1.5715998E-2,8.184335E-3,-5.665065E-1,-2.0202848E-1,6.0531247E-1,-9.985543E-3,8.941715E-1,5.6448716E-1,2.9039177E-1,4.165049E-1,-1.9254163E-1,1.1578553E0,2.8518265E-1,2.3737693E-2,-1.3591075E-2,-1.7376704E-2,-3.4231376E-3,2.7768398E-2,-6.427583E-3,-7.959895E-3,3.245556E-2,3.5166927E-2,-1.1501843E-2,7.720185E-3,2.074537E-2,3.4361547E-3,1.7110763E-2,1.6200054E-2,-6.5632816E-3,-1.0021745E-2,2.404772E-2,3.6949217E-2,1.7792722E-2,-1.4561436E-2,2.6931562E-2],"categories":[],"categories_nodes":[],"categories_segments":[],"categories_sizes":[],"default_left":[0,0,0,0,0,0,0,0,0,0,0,0,0,0,0,0,0,0,0,0,0,0,0,0,0,0,0,0,0,0,0,0,0,0,0,0,0,0,0,0,0,0,0,0,0,0,0,0,0,0,0],"id":12,"left_children":[1,3,5,7,9,11,13,15,17,19,21,23,25,-1,27,29,-1,-1,31,33,35,-1,37,39,41,43,45,47,49,-1,-1,-1,-1,-1,-1,-1,-1,-1,-1,-1,-1,-1,-1,-1,-1,-1,-1,-1,-1,-1,-1],"loss_changes":[1.1438065E2,1.6916237E1,1.3729805E1,1.896534E0,4.803141E0,7.2115593E0,3.9100113E0,1.5296017E0,1.1554871E0,3.8609095E0,3.2487113E0,3.8647614E0,8.120577E0,0E0,1.9578362E0,2.2752497E0,0E0,0E0,1.1109161E0,3.205637E0,2.8351302E0,0E0,2.9811754E0,4.9421387E0,4.4757514E0,3.5264878E0,6.4948936E0,5.8868027E-1,2.6270788E0,0E0,0E0,0E0,0E0,0E0,0E0,0E0,0E0,0E0,0E0,0E0,0E0,0E0,0E0,0E0,0E0,0E0,0E0,0E0,0E0,0E0,0E0],"parents":[2147483647,0,0,1,1,2,2,3,3,4,4,5,5,6,6,7,7,8,8,9,9,10,10,11,11,12,12,14,14,15,15,18,18,19,19,20,20,22,22,23,23,24,24,25,25,26,26,27,27,28,28],"right_children":[2,4,6,8,10,12,14,16,18,20,22,24,26,-1,28,30,-1,-1,32,34,36,-1,38,40,42,44,46,48,50,-1,-1,-1,-1,-1,-1,-1,-1,-1,-1,-1,-1,-1,-1,-1,-1,-1,-1,-1,-1,-1,-1],"split_conditions":[5.8590766E-2,-8.183406E-1,1.5420558E0,-6.9464725E-1,7.4258053E-1,1.687573E0,-2.848642E0,2.0374131E0,-1.3550531E0,6.1009306E-1,-8.476855E-1,-5.1863063E-2,5.426965E-1,-1.2883828E-2,1.4870888E0,1.9430351E0,-1.5715998E-2,8.184335E-3,2.4268322E0,-1.5627048E0,-5.7623494E-1,-9.985543E-3,5.3375596E-1,-6.6760518E-3,5.857581E-1,1.0319388E0,1.3079866E0,-5.056364E-3,8.32994E-1,2.3737693E-2,-1.3591075E-2,-1.7376704E-2,-3.4231376E-3,2.7768398E-2,-6.427583E-3,-7.959895E-3,3.245556E-2,3.5166927E-2,-1.1501843E-2,7.720185E-3,2.074537E-2,3.4361547E-3,1.7110763E-2,1.6200054E-2,-6.5632816E-3,-1.0021745E-2,2.404772E-2,3.6949217E-2,1.7792722E-2,-1.4561436E-2,2.6931562E-2],"split_indices":[2,3,3,70,88,4,11,52,77,95,42,1,36,0,46,67,0,0,93,79,88,0,20,14,2,71,30,13,22,0,0,0,0,0,0,0,0,0,0,0,0,0,0,0,0,0,0,0,0,0,0],"split_type":[0,0,0,0,0,0,0,0,0,0,0,0,0,0,0,0,0,0,0,0,0,0,0,0,0,0,0,0,0,0,0,0,0,0,0,0,0,0,0,0,0,0,0,0,0,0,0,0,0,0,0],"sum_hessian":[7.852371E2,4.4245847E2,3.4277866E2,2.115511E2,2.3090736E2,3.0717432E2,3.560432E1,6.8623977E0,2.046887E2,2.2230687E2,8.600493E0,2.2146866E2,8.570568E1,1.3054135E0,3.429891E1,4.2728395E0,2.5895581E0,1.1057847E0,2.0358292E2,2.1716536E2,5.141504E0,2.4736156E0,6.1268773E0,1.3023238E2,9.123627E1,4.244323E1,4.3262447E1,3.0656212E1,3.6426938E0,2.65076E0,1.6220794E0,1.97744E2,5.8389115E0,1.5276353E0,2.1563773E2,1.9754865E0,3.1660173E0,5.0994444E0,1.0274329E0,3.8987144E1,9.124524E1,5.690324E1,3.433303E1,3.566084E1,6.782392E0,3.8452618E1,4.8098307E0,2.6069483E1,4.5867295E0,1.7051814E0,1.9375124E0],"tree_param":{"num_deleted":"0","num_feature":"100","num_nodes":"51","size_leaf_vector":"1"}},{"base_weights":[-1.4182489E-2,-3.4854656E-1,4.1490443E-2,-2.0874018E-2,-2.5547534E-1,1.3257432E-1,-1.6145428E-1,-3.4018508E-1,4.1135433E-1,2.425317E-1,-8.069405E-3,2.9804483E-1,-2.564536E-1,5.7511628E-2,-4.276967E-1,8.726705E-1,-2.9648215E-1,5.5761963E-1,1.6922998E-1,-6.2621124E-2,5.5351305E-1,-4.9331778E-1,5.207428E-1,-4.6628603E-1,-1.2380772E-1,1.901818E-2,-7.7883312E-3,-8.68535E-3,-2.1216793E-2,3.99074E-3,3.1704858E-2,8.62955E-3,-1.6370755E-2,-4.020211E-3,2.3426488E-2,-1.4393937E-3,8.983093E-3,-5.614166E-3,4.9792756E-3,2.2315767E-2,-1.5687212E-2,6.3321176E-3,-1.9398445E-2,4.5574633E-3,2.5931347E-2,-1.5965093E-2,3.833818E-3,-2.0891323E-3,-1.9722871E-2],"categories":[],"categories_nodes":[],"categories_segments":[],"categories_sizes":[],"default_left":[0,0,0,0,0,0,0,0,0,0,0,0,0,0,0,0,0,0,0,0,0,0,0,0,0,0,0,0,0,0,0,0,0,0,0,0,0,0,0,0,0,0,0,0,0,0,0,0,0],"id":13,"left_children":[1,3,5,-1,7,9,11,13,15,17,19,21,23,25,27,29,31,33,35,37,39,41,43,45,47,-1,-1,-1,-1,-1,-1,-1,-1,-1,-1,-1,-1,-1,-1,-1,-1,-1,-1,-1,-1,-1,-1,-1,-1],"loss_changes":[1.4701427E1,3.4654102E0,1.2540557E1,0E0,5.2507577E0,7.2396193E0,9.2543745E0,2.8376265E0,3.7366247E0,5.9728613E0,6.355271E0,6.6866198E0,4.806658E0,2.9905183E0,2.3588228E0,7.72295E-1,8.7739766E-1,7.692974E0,6.0822387E0,5.4093823E0,4.152584E0,1.0570974E0,3.5389013E0,2.703249E0,3.0888069E0,0E0,0E0,0E0,0E0,0E0,0E0,0E0,0E0,0E0,0E0,0E0,0E0,0E0,0E0,0E0,0E0,0E0,0E0,0E0,0E0,0E0,0E0,0E0,0E0],"parents":[2147483647,0,0,1,1,2,2,4,4,5,5,6,6,7,7,8,8,9,9,10,10,11,11,12,12,13,13,14,14,15,15,16,16,17,17,18,18,19,19,20,20,21,21,22,22,23,23,24,24],"right_children":[2,4,6,-1,8,10,12,14,16,18,20,22,24,26,28,30,32,34,36,38,40,42,44,46,48,-1,-1,-1,-1,-1,-1,-1,-1,-1,-1,-1,-1,-1,-1,-1,-1,-1,-1,-1,-1,-1,-1,-1,-1],"split_conditions":[-1.0658234E0,-1.4554454E0,4.8960555E-1,-2.0874018E-2,6.8099135E-1,2.8306514E-2,-7.2810906E-1,-1.1949385E0,-3.489527E-1,-3.682907E-1,2.0186446E0,7.461444E-1,-1.1127352E0,-2.3914802E-1,1.3239223E0,-7.332018E-1,-3.1120294E-1,-2.3914802E-1,1.6939725E-1,1.380497E0,9.6066934E-1,5.6942776E-3,4.976514E-1,1.1181072E0,1.547902E0,1.901818E-2,-7.7883312E-3,-8.68535E-3,-2.1216793E-2,3.99074E-3,3.1704858E-2,8.62955E-3,-1.6370755E-2,-4.020211E-3,2.3426488E-2,-1.4393937E-3,8.983093E-3,-5.614166E-3,4.9792756E-3,2.2315767E-2,-1.5687212E-2,6.3321176E-3,-1.9398445E-2,4.5574633E-3,2.5931347E-2,-1.5965093E-2,3.833818E-3,-2.0891323E-3,-1.9722871E-2],"split_indices":[2,88,79,0,96,2,5,88,47,55,35,79,52,98,77,71,9,98,50,90,82,71,39,90,56,0,0,0,0,0,0,0,0,0,0,0,0,0,0,0,0,0,0,0,0,0,0,0,0],"split_type":[0,0,0,0,0,0,0,0,0,0,0,0,0,0,0,0,0,0,0,0,0,0,0,0,0,0,0,0,0,0,0,0,0,0,0,0,0,0,0,0,0,0,0,0,0,0,0,0,0],"sum_hessian":[7.879844E2,1.1172408E2,6.762603E2,2.2246208E1,8.9477875E1,4.670084E2,2.092519E2,7.982701E1,9.650862E0,2.6169046E2,2.0531795E2,3.548386E1,1.7376804E2,1.4459337E1,6.5367676E1,5.7019057E0,3.9489558E0,4.814248E1,2.1354797E2,1.8794919E2,1.7368757E1,7.525748E0,2.7958113E1,6.6328224E1,1.0743982E2,4.7770853E0,9.682252E0,4.5105545E1,2.0262129E1,1.4800059E0,4.2218995E0,1.1347975E0,2.8141584E0,1.1845912E1,3.6296566E1,8.027131E1,1.3327667E2,1.2179066E2,6.615853E1,1.5021433E1,2.3473246E0,1.2777431E0,6.248005E0,1.418032E1,1.3777793E1,5.980053E1,6.527693E0,9.856464E1,8.875179E0],"tree_param":{"num_deleted":"0","num_feature":"100","num_nodes":"49","size_leaf_vector":"1"}},{"base_weights":[-5.982656E-3,5.205798E-1,-2.9631042E-1,8.243165E-1,3.1721833E-1,-1.24296956E-1,-4.8630956E-1,9.035616E-1,1.8389923E-2,5.8147484E-1,1.8065645E-1,1.5415369E-1,-2.7615193E-1,-5.022885E-1,7.018391E-1,9.3724537E-1,-7.452862E-2,8.141636E-1,-5.0221914E-1,2.5457248E-1,8.7109864E-1,9.954375E-2,6.1058086E-1,4.1087085E-1,-1.1260332E-1,-3.564432E-1,9.434735E-2,-5.2422696E-1,1.7836691E-1,2.7017986E-2,4.093357E-3,2.3760546E-2,3.7815582E-2,2.0472609E-2,-1.5941648E-2,3.3424876E-3,3.024334E-2,3.4332909E-3,-1.912392E-2,-1.3545875E-2,1.7727988E-2,-1.8259863E-3,2.9639162E-2,9.623549E-3,-4.2462847E-3,-6.667114E-3,2.7459342E-2,3.5501987E-2,8.7746475E-3,-1.850347E-2,3.3722818E-3,-1.3280066E-2,2.932556E-3,-4.8991707E-3,1.9826278E-2,-1.5991908E-2,2.2866316E-2,-1.6228212E-2,1.9120209E-2],"categories":[],"categories_nodes":[],"categories_segments":[],"categories_sizes":[],"default_left":[0,0,0,0,0,0,0,0,0,0,0,0,0,0,0,0,0,0,0,0,0,0,0,0,0,0,0,0,0,0,0,0,0,0,0,0,0,0,0,0,0,0,0,0,0,0,0,0,0,0,0,0,0,0,0,0,0,0,0],"id":14,"left_children":[1,3,5,7,9,11,13,15,17,19,21,23,25,27,29,31,33,35,37,39,41,43,45,47,49,51,53,55,57,-1,-1,-1,-1,-1,-1,-1,-1,-1,-1,-1,-1,-1,-1,-1,-1,-1,-1,-1,-1,-1,-1,-1,-1,-1,-1,-1,-1,-1,-1],"loss_changes":[1.22396065E2,1.7314758E1,1.680579E1,7.2313614E0,6.1042576E0,1.1552107E1,5.001461E0,3.4733887E0,5.040945E0,5.2859383E0,3.945724E0,6.668358E0,5.2839975E0,3.710205E0,2.8916156E-1,3.6937103E0,1.8723451E0,5.4235816E-1,6.882353E-1,7.092817E0,3.3748531E0,5.264546E0,4.7819157E0,4.180126E0,5.538297E0,5.732485E0,4.811993E0,3.0765228E0,3.0878851E0,0E0,0E0,0E0,0E0,0E0,0E0,0E0,0E0,0E0,0E0,0E0,0E0,0E0,0E0,0E0,0E0,0E0,0E0,0E0,0E0,0E0,0E0,0E0,0E0,0E0,0E0,0E0,0E0,0E0,0E0],"parents":[2147483647,0,0,1,1,2,2,3,3,4,4,5,5,6,6,7,7,8,8,9,9,10,10,11,11,12,12,13,13,14,14,15,15,16,16,17,17,18,18,19,19,20,20,21,21,22,22,23,23,24,24,25,25,26,26,27,27,28,28],"right_children":[2,4,6,8,10,12,14,16,18,20,22,24,26,28,30,32,34,36,38,40,42,44,46,48,50,52,54,56,58,-1,-1,-1,-1,-1,-1,-1,-1,-1,-1,-1,-1,-1,-1,-1,-1,-1,-1,-1,-1,-1,-1,-1,-1,-1,-1,-1,-1,-1,-1],"split_conditions":[-4.9336448E-1,-1.1026222E0,3.5560402E-1,6.68095E-1,-2.4329557E-1,5.9256697E-1,1.7775122E0,4.932942E-1,-8.663759E-1,-2.1389617E-1,7.974241E-1,-7.931089E-2,3.541654E-2,2.4268322E0,1.4806129E0,8.985222E-1,-2.416736E0,-1.6035051E0,-1.518098E-2,-1.3252905E-1,-4.5198986E-1,-9.5782536E-1,-1.518098E-2,-8.038468E-1,-2.1551871E-1,9.2342424E-1,3.1558356E-1,2.979624E0,-1.375368E-1,2.7017986E-2,4.093357E-3,2.3760546E-2,3.7815582E-2,2.0472609E-2,-1.5941648E-2,3.3424876E-3,3.024334E-2,3.4332909E-3,-1.912392E-2,-1.3545875E-2,1.7727988E-2,-1.8259863E-3,2.9639162E-2,9.623549E-3,-4.2462847E-3,-6.667114E-3,2.7459342E-2,3.5501987E-2,8.7746475E-3,-1.850347E-2,3.3722818E-3,-1.3280066E-2,2.932556E-3,-4.8991707E-3,1.9826278E-2,-1.5991908E-2,2.2866316E-2,-1.6228212E-2,1.9120209E-2],"split_indices":[2,2,2,93,94,7,70,95,37,81,19,38,11,93,20,70,0,2,11,55,68,3,11,57,44,13,30,21,56,0,0,0,0,0,0,0,0,0,0,0,0,0,0,0,0,0,0,0,0,0,0,0,0,0,0,0,0,0,0],"split_type":[0,0,0,0,0,0,0,0,0,0,0,0,0,0,0,0,0,0,0,0,0,0,0,0,0,0,0,0,0,0,0,0,0,0,0,0,0,0,0,0,0,0,0,0,0,0,0,0,0,0,0,0,0,0,0,0,0,0,0],"sum_hessian":[7.9861566E2,2.8355103E2,5.1506464E2,1.1248788E2,1.7106314E2,2.711953E2,2.4386932E2,1.0230709E2,1.0180793E1,5.7172504E1,1.1389064E2,9.5699554E1,1.7549576E2,2.4120273E2,2.6665907E0,9.894147E1,3.3656163E0,3.8033454E0,6.377447E0,2.7740454E1,2.9432053E1,9.6849785E1,1.7040854E1,4.84922E1,4.720736E1,1.4426901E2,3.1226744E1,2.3389383E2,7.308893E0,1.5343344E0,1.1322562E0,7.065191E1,2.8289564E1,1.0809395E0,2.284677E0,1.1631758E0,2.6401696E0,1.1747713E0,5.202676E0,8.840247E0,1.8900206E1,3.333052E0,2.6098999E1,5.0331135E1,4.6518646E1,4.6374836E0,1.2403371E1,5.248127E0,4.3244072E1,1.4029899E1,3.317746E1,1.21271805E2,2.2997204E1,2.195398E1,9.272765E0,2.3287979E2,1.0140405E0,2.777454E0,4.5314393E0],"tree_param":{"num_deleted":"0","num_feature":"100","num_nodes":"59","size_leaf_vector":"1"}},{"base_weights":[4.15398E-3,-3.665664E-1,3.8176933E-1,-5.129371E-1,-1.9524808E-1,2.3324965E-1,7.1078527E-1,-5.257112E-1,1.7748144E-1,8.368389E-1,-2.1679518E-1,3.367507E-1,7.481245E-4,5.730537E-1,9.867599E-1,-5.3602695E-1,1.1013226E-1,2.7524926E-2,-1.4651325E-2,2.9408596E-2,7.5649065E-3,-2.4187317E-1,4.2684865E-1,4.0716875E-1,-9.2826135E-2,-2.2972094E-1,3.358794E-1,-2.9663098E-1,6.3219637E-1,1.0472386E0,-1.2810893E-2,-1.6370753E-2,-2.4871377E-3,-1.43850185E-2,2.5433674E-2,-8.653676E-3,3.2858127E-3,3.3883452E-2,-1.1545802E-2,1.615586E-2,6.417207E-3,-1.39092365E-2,5.346182E-3,-1.0302131E-2,1.43588325E-2,1.5511989E-2,-7.94996E-3,9.386927E-3,-1.792014E-2,1.5166066E-2,3.1719957E-2,3.436962E-2,3.3610843E-3],"categories":[],"categories_nodes":[],"categories_segments":[],"categories_sizes":[],"default_left":[0,0,0,0,0,0,0,0,0,0,0,0,0,0,0,0,0,0,0,0,0,0,0,0,0,0,0,0,0,0,0,0,0,0,0,0,0,0,0,0,0,0,0,0,0,0,0,0,0,0,0,0,0],"id":15,"left_children":[1,3,5,7,9,11,13,15,17,19,21,23,25,27,29,31,33,-1,-1,-1,-1,35,37,39,41,43,45,47,49,51,-1,-1,-1,-1,-1,-1,-1,-1,-1,-1,-1,-1,-1,-1,-1,-1,-1,-1,-1,-1,-1,-1,-1],"loss_changes":[1.10006874E2,9.843399E0,1.8856762E1,1.9738121E0,4.280267E0,6.489868E0,4.0179863E0,1.4338646E0,2.7250516E0,8.6193085E-2,3.0302773E0,5.683079E0,6.5712714E0,4.4476357E0,3.7613335E0,8.587723E-1,2.2227728E0,0E0,0E0,0E0,0E0,2.8990803E0,4.519287E0,3.9599895E0,2.8060086E0,4.224008E0,3.911236E0,1.2782922E0,3.6586227E0,3.319355E0,0E0,0E0,0E0,0E0,0E0,0E0,0E0,0E0,0E0,0E0,0E0,0E0,0E0,0E0,0E0,0E0,0E0,0E0,0E0,0E0,0E0,0E0,0E0],"parents":[2147483647,0,0,1,1,2,2,3,3,4,4,5,5,6,6,7,7,8,8,9,9,10,10,11,11,12,12,13,13,14,14,15,15,16,16,21,21,22,22,23,23,24,24,25,25,26,26,27,27,28,28,29,29],"right_children":[2,4,6,8,10,12,14,16,18,20,22,24,26,28,30,32,34,-1,-1,-1,-1,36,38,40,42,44,46,48,50,52,-1,-1,-1,-1,-1,-1,-1,-1,-1,-1,-1,-1,-1,-1,-1,-1,-1,-1,-1,-1,-1,-1,-1],"split_conditions":[-5.871881E-2,-8.183406E-1,1.0539048E0,6.853912E-1,-9.585688E-1,1.687573E0,1.5420558E0,1.6071671E0,1.9896792E0,-3.9610486E-2,1.9687037E0,1.3955572E0,1.4487045E-1,-9.585688E-1,1.6085789E0,1.4163876E0,1.2423687E-4,2.7524926E-2,-1.4651325E-2,2.9408596E-2,7.5649065E-3,1.3366758E0,-2.1551871E-1,8.864526E-3,-4.1310096E-1,1.0426786E0,6.8128127E-1,-2.6289117E-1,1.1932019E0,8.8809687E-1,-1.2810893E-2,-1.6370753E-2,-2.4871377E-3,-1.43850185E-2,2.5433674E-2,-8.653676E-3,3.2858127E-3,3.3883452E-2,-1.1545802E-2,1.615586E-2,6.417207E-3,-1.39092365E-2,5.346182E-3,-1.0302131E-2,1.43588325E-2,1.5511989E-2,-7.94996E-3,9.386927E-3,-1.792014E-2,1.5166066E-2,3.1719957E-2,3.436962E-2,3.3610843E-3],"split_indices":[2,3,3,81,45,4,3,72,31,31,78,12,31,45,10,12,25,0,0,0,0,92,44,96,20,13,61,32,87,97,0,0,0,0,0,0,0,0,0,0,0,0,0,0,0,0,0,0,0,0,0,0,0],"split_type":[0,0,0,0,0,0,0,0,0,0,0,0,0,0,0,0,0,0,0,0,0,0,0,0,0,0,0,0,0,0,0,0,0,0,0,0,0,0,0,0,0,0,0,0,0,0,0,0,0,0,0,0,0],"sum_hessian":[7.8382153E2,3.9553653E2,3.8828503E2,2.1222331E2,1.833132E2,2.6870087E2,1.19584175E2,2.0860234E2,3.620971E0,2.9750133E0,1.803382E2,1.8562096E2,8.307992E1,8.182431E1,3.7759865E1,2.0542653E2,3.175815E0,1.535995E0,2.0849757E0,1.8455749E0,1.1294384E0,1.7417607E2,6.1621284E0,1.5952336E2,2.6097595E1,4.941314E1,3.3666775E1,4.9544415E0,7.686987E1,3.645948E1,1.3003843E0,2.0093639E2,4.490145E0,1.9594954E0,1.2163198E0,1.5394745E2,2.0228617E1,3.093236E0,3.0688922E0,9.390779E1,6.561556E1,1.072012E1,1.5377476E1,4.302347E1,6.3896675E0,2.5974106E1,7.692669E0,1.6233653E0,3.3310764E0,6.0911568E1,1.5958302E1,3.27844E1,3.675078E0],"tree_param":{"num_deleted":"0","num_feature":"100","num_nodes":"53","size_leaf_vector":"1"}},{"base_weights":[1.0378878E-2,4.4767298E-2,-4.9004382E-1,8.771723E-2,-2.670621E-1,-5.557738E-1,6.373319E-2,-4.8593807E-1,1.12655826E-1,-3.0362815E-1,2.3917254E-2,-6.345732E-1,-1.165113E-1,-1.6192101E-2,6.8901235E-1,-5.749731E-1,2.283479E-1,2.0034177E-2,2.1529137E-1,-3.1151278E-3,-4.2610365E-1,-6.678159E-1,-1.2826829E-1,-1.7331017E-2,4.230718E-1,6.650518E-3,2.5515439E-2,-1.886396E-2,8.749329E-3,2.4628455E-2,-1.2733344E-2,2.1781044E-3,-9.953415E-3,1.0387813E-2,1.580408E-3,1.028584E-2,-1.6001418E-2,-1.4910626E-2,7.843025E-3,-5.3149653E-3,-2.117231E-2,8.982099E-3,-1.31836375E-2,2.4523776E-2,-1.1612737E-2],"categories":[],"categories_nodes":[],"categories_segments":[],"categories_sizes":[],"default_left":[0,0,0,0,0,0,0,0,0,0,0,0,0,0,0,0,0,0,0,0,0,0,0,0,0,0,0,0,0,0,0,0,0,0,0,0,0,0,0,0,0,0,0,0,0],"id":16,"left_children":[1,3,5,7,9,11,13,15,17,19,-1,21,23,-1,25,27,29,31,33,35,37,39,41,-1,43,-1,-1,-1,-1,-1,-1,-1,-1,-1,-1,-1,-1,-1,-1,-1,-1,-1,-1,-1,-1],"loss_changes":[1.3717576E1,1.0009233E1,1.9011698E0,9.44082E0,3.7644696E0,1.5155783E0,2.7625175E0,1.8815994E0,5.9804964E0,3.2459364E0,0E0,5.6589985E-1,2.2874107E0,0E0,7.944977E-2,1.3381548E0,1.8053515E0,6.1648417E0,6.3396816E0,5.054369E0,3.1858215E0,5.4655457E-1,6.137237E-1,0E0,1.7097198E0,0E0,0E0,0E0,0E0,0E0,0E0,0E0,0E0,0E0,0E0,0E0,0E0,0E0,0E0,0E0,0E0,0E0,0E0,0E0,0E0],"parents":[2147483647,0,0,1,1,2,2,3,3,4,4,5,5,6,6,7,7,8,8,9,9,11,11,12,12,14,14,15,15,16,16,17,17,18,18,19,19,20,20,21,21,22,22,24,24],"right_children":[2,4,6,8,10,12,14,16,18,20,-1,22,24,-1,26,28,30,32,34,36,38,40,42,-1,44,-1,-1,-1,-1,-1,-1,-1,-1,-1,-1,-1,-1,-1,-1,-1,-1,-1,-1,-1,-1],"split_conditions":[1.3241222E0,1.0025843E0,1.9554856E-1,-1.7369392E0,2.895156E0,-4.6651013E-2,1.3774227E-1,1.8321517E0,-5.83371E-2,-6.0296047E-1,2.3917254E-2,3.2094926E-1,-3.1120294E-1,-1.6192101E-2,-1.760095E-2,1.3546295E0,1.9631712E0,1.3239223E0,-7.242338E-2,8.454661E-1,9.822607E-1,-1.3738763E0,-2.596246E0,-1.7331017E-2,1.3678071E0,6.650518E-3,2.5515439E-2,-1.886396E-2,8.749329E-3,2.4628455E-2,-1.2733344E-2,2.1781044E-3,-9.953415E-3,1.0387813E-2,1.580408E-3,1.028584E-2,-1.6001418E-2,-1.4910626E-2,7.843025E-3,-5.3149653E-3,-2.117231E-2,8.982099E-3,-1.31836375E-2,2.4523776E-2,-1.1612737E-2],"split_indices":[45,2,97,2,35,69,54,55,94,73,0,24,9,0,14,84,1,77,2,14,84,98,21,0,25,0,0,0,0,0,0,0,0,0,0,0,0,0,0,0,0,0,0,0,0],"split_type":[0,0,0,0,0,0,0,0,0,0,0,0,0,0,0,0,0,0,0,0,0,0,0,0,0,0,0,0,0,0,0,0,0,0,0,0,0,0,0,0,0,0,0,0,0],"sum_hessian":[7.9485333E2,7.445961E2,5.025717E1,6.550863E2,8.9509834E1,4.492164E1,5.335533E0,2.6522049E1,6.285643E2,8.722769E1,2.282145E0,3.7711864E1,7.209776E0,2.7847347E0,2.5507984E0,2.3755934E1,2.7661152E0,3.3102853E2,2.9753574E2,2.5553522E1,6.1674168E1,3.508901E1,2.6228542E0,3.849183E0,3.3605928E0,1.2644837E0,1.286315E0,2.262511E1,1.1308222E0,1.314881E0,1.4512341E0,2.886858E2,4.2342747E1,1.641765E2,1.3335922E2,1.567781E1,9.875711E0,5.615869E1,5.515478E0,2.9247148E0,3.2164295E1,1.1206205E0,1.5022337E0,2.2542284E0,1.1063645E0],"tree_param":{"num_deleted":"0","num_feature":"100","num_nodes":"45","size_leaf_vector":"1"}},{"base_weights":[8.716189E-4,4.8864698E-1,-2.6953822E-1,1.0969336E0,3.904428E-1,-1.0544912E-1,-5.158029E-1,9.280377E-3,1.1263077E0,1.0120313E0,3.2763624E-1,-2.395449E-1,1.593659E-1,6.2182426E-1,-5.549817E-1,9.561395E-3,1.1576322E0,1.1260403E0,-1.3132966E-2,5.9498376E-1,1.9848686E-1,-3.5348687E-1,-4.7391687E-2,4.1315293E-1,-1.6062197E-1,-1.7526792E-1,3.120342E-2,-3.299975E-1,-6.3626224E-1,3.576659E-2,1.4001981E-2,2.3125755E-3,3.563651E-2,4.658989E-3,2.3124551E-2,-2.4287205E-3,1.1008555E-2,-1.2078674E-2,9.258686E-3,1.6825097E-2,-5.9272307E-3,2.28549E-2,6.7285607E-3,1.3710233E-2,-9.703431E-3,-1.2247627E-2,4.6700477E-3,-1.1910013E-2,1.9336823E-2,-5.7807765E-3,-1.992746E-2],"categories":[],"categories_nodes":[],"categories_segments":[],"categories_sizes":[],"default_left":[0,0,0,0,0,0,0,0,0,0,0,0,0,0,0,0,0,0,0,0,0,0,0,0,0,0,0,0,0,0,0,0,0,0,0,0,0,0,0,0,0,0,0,0,0,0,0,0,0,0,0],"id":17,"left_children":[1,3,5,7,9,11,13,-1,15,17,19,21,23,25,27,-1,29,31,-1,33,35,37,39,41,43,45,-1,47,49,-1,-1,-1,-1,-1,-1,-1,-1,-1,-1,-1,-1,-1,-1,-1,-1,-1,-1,-1,-1,-1,-1],"loss_changes":[1.0434702E2,1.6426468E1,2.0512379E1,5.4613495E-1,9.213078E0,1.0929209E1,9.404671E0,0E0,5.6448364E-1,4.122301E0,7.5998116E0,4.449683E0,8.487598E0,2.5957944E0,3.3929672E0,0E0,2.8329086E-1,1.2471523E0,0E0,5.470564E0,7.195677E0,4.2854834E0,7.1528397E0,3.6559954E0,4.832899E0,3.216247E-1,0E0,3.8059063E0,1.6553612E0,0E0,0E0,0E0,0E0,0E0,0E0,0E0,0E0,0E0,0E0,0E0,0E0,0E0,0E0,0E0,0E0,0E0,0E0,0E0,0E0,0E0,0E0],"parents":[2147483647,0,0,1,1,2,2,3,3,4,4,5,5,6,6,8,8,9,9,10,10,11,11,12,12,13,13,14,14,16,16,17,17,19,19,20,20,21,21,22,22,23,23,24,24,25,25,27,27,28,28],"right_children":[2,4,6,8,10,12,14,-1,16,18,20,22,24,26,28,-1,30,32,-1,34,36,38,40,42,44,46,-1,48,50,-1,-1,-1,-1,-1,-1,-1,-1,-1,-1,-1,-1,-1,-1,-1,-1,-1,-1,-1,-1,-1,-1],"split_conditions":[-4.9336448E-1,-1.7012701E0,5.213111E-1,-3.682907E-1,-1.3899982E0,1.687573E0,-1.3499004E0,9.280377E-3,-1.3040733E0,1.0562873E0,-2.4329557E-1,2.8118357E-1,9.575255E-2,2.4964157E-1,3.355388E-1,9.561395E-3,1.3546295E0,-2.8882325E0,-1.3132966E-2,-2.111162E-1,-1.18592754E-1,8.28149E-1,2.2334461E-1,-1.2616074E-1,-3.2599974E-1,7.9286855E-1,3.120342E-2,2.0399218E0,-5.0557977E-1,3.576659E-2,1.4001981E-2,2.3125755E-3,3.563651E-2,4.658989E-3,2.3124551E-2,-2.4287205E-3,1.1008555E-2,-1.2078674E-2,9.258686E-3,1.6825097E-2,-5.9272307E-3,2.28549E-2,6.7285607E-3,1.3710233E-2,-9.703431E-3,-1.2247627E-2,4.6700477E-3,-1.1910013E-2,1.9336823E-2,-5.7807765E-3,-1.992746E-2],"split_indices":[2,3,2,55,71,4,12,0,12,97,94,32,38,23,88,0,84,88,0,55,30,9,57,28,9,62,0,14,14,0,0,0,0,0,0,0,0,0,0,0,0,0,0,0,0,0,0,0,0,0,0],"split_type":[0,0,0,0,0,0,0,0,0,0,0,0,0,0,0,0,0,0,0,0,0,0,0,0,0,0,0,0,0,0,0,0,0,0,0,0,0,0,0,0,0,0,0,0,0,0,0,0,0,0,0],"sum_hessian":[7.8911304E2,2.8115253E2,5.079605E2,3.766734E1,2.4348518E2,3.056983E2,2.022622E2,1.7689523E0,3.5898388E1,2.0957542E1,2.2252765E2,2.0299971E2,1.0269861E2,6.238702E0,1.960235E2,1.7576642E0,3.4140724E1,1.9636667E1,1.3208752E0,7.130819E1,1.5121947E2,1.26907295E2,7.609241E1,5.71115E1,4.558711E1,2.347087E0,3.8916152E0,5.3366154E1,1.4265735E2,3.182206E1,2.3186648E0,1.2183384E0,1.841833E1,2.0908522E1,5.0399666E1,5.7071148E1,9.4148315E1,1.1850488E2,8.402414E0,1.4526567E1,6.156584E1,1.900037E1,3.8111126E1,9.133862E0,3.6453247E1,1.240273E0,1.1068139E0,5.0487656E1,2.8784957E0,8.934572E0,1.3372278E2],"tree_param":{"num_deleted":"0","num_feature":"100","num_nodes":"51","size_leaf_vector":"1"}},{"base_weights":[-3.9244806E-3,-3.716639E-1,3.7370196E-1,-5.334128E-1,-1.5577614E-1,2.6120314E-1,7.93069E-1,-5.411293E-1,1.1158646E-2,-4.7777425E-2,-3.740325E-1,9.331627E-1,2.1592544E-1,-1.2025283E-2,8.423657E-1,1.063205E-2,-5.488524E-1,-1.530513E-1,3.62464E-1,-4.5696437E-1,4.2243698E-1,1.9289617E-1,1.1622025E0,3.1702262E-1,-2.9738389E-2,-9.139752E-3,8.780979E-1,-1.2490349E-2,-1.7855877E-2,-6.420186E-3,8.092894E-3,-3.2528106E-3,3.1293552E-2,1.0466504E-2,-1.498259E-2,1.6516E-3,2.6601441E-2,-7.813874E-3,2.5290824E-2,3.7516523E-2,8.744436E-3,2.1343429E-2,6.964621E-3,7.900269E-3,-4.829237E-3,1.0398007E-2,2.8871166E-2],"categories":[],"categories_nodes":[],"categories_segments":[],"categories_sizes":[],"default_left":[0,0,0,0,0,0,0,0,0,0,0,0,0,0,0,0,0,0,0,0,0,0,0,0,0,0,0,0,0,0,0,0,0,0,0,0,0,0,0,0,0,0,0,0,0,0,0],"id":18,"left_children":[1,3,5,7,9,11,13,15,-1,17,19,21,23,-1,25,-1,27,29,31,33,35,37,39,41,43,-1,45,-1,-1,-1,-1,-1,-1,-1,-1,-1,-1,-1,-1,-1,-1,-1,-1,-1,-1,-1,-1],"loss_changes":[1.1087343E2,1.4041679E1,1.837703E1,1.8138962E0,4.0992284E0,9.293636E0,5.2126007E0,1.7803268E0,0E0,5.151316E0,4.0024347E0,3.0651379E0,7.3033695E0,0E0,3.540905E0,0E0,1.1505737E0,2.4958334E0,7.931185E0,1.9777088E0,9.674946E-1,1.9241145E0,7.599335E-1,6.802433E0,3.3708575E0,0E0,3.1472588E0,0E0,0E0,0E0,0E0,0E0,0E0,0E0,0E0,0E0,0E0,0E0,0E0,0E0,0E0,0E0,0E0,0E0,0E0,0E0,0E0],"parents":[2147483647,0,0,1,1,2,2,3,3,4,4,5,5,6,6,7,7,9,9,10,10,11,11,12,12,14,14,16,16,17,17,18,18,19,19,20,20,21,21,22,22,23,23,24,24,26,26],"right_children":[2,4,6,8,10,12,14,16,-1,18,20,22,24,-1,26,-1,28,30,32,34,36,38,40,42,44,-1,46,-1,-1,-1,-1,-1,-1,-1,-1,-1,-1,-1,-1,-1,-1,-1,-1,-1,-1,-1,-1],"split_conditions":[-5.871881E-2,-6.202939E-1,1.0558765E0,1.9842441E0,1.687573E0,-1.2245791E0,-1.5900288E0,-1.402892E0,1.1158646E-2,4.8960555E-1,1.5564153E0,-1.636716E0,1.687573E0,-1.2025283E-2,-1.9222399E0,1.063205E-2,-1.9871341E-2,1.0619524E0,-6.4339556E-2,-1.3061659E0,-1.7934565E-1,-6.673886E-1,9.25582E-1,-6.216456E-1,-1.3739091E-1,-9.139752E-3,-2.3609893E-1,-1.2490349E-2,-1.7855877E-2,-6.420186E-3,8.092894E-3,-3.2528106E-3,3.1293552E-2,1.0466504E-2,-1.498259E-2,1.6516E-3,2.6601441E-2,-7.813874E-3,2.5290824E-2,3.7516523E-2,8.744436E-3,2.1343429E-2,6.964621E-3,7.900269E-3,-4.829237E-3,1.0398007E-2,2.8871166E-2],"split_indices":[2,2,2,57,4,80,11,77,0,79,47,80,4,0,73,0,80,92,67,79,23,97,14,93,17,0,14,0,0,0,0,0,0,0,0,0,0,0,0,0,0,0,0,0,0,0,0],"split_type":[0,0,0,0,0,0,0,0,0,0,0,0,0,0,0,0,0,0,0,0,0,0,0,0,0,0,0,0,0,0,0,0,0,0,0,0,0,0,0,0,0,0,0,0,0,0,0],"sum_hessian":[7.9640784E2,4.03494E2,3.9291388E2,2.2982906E2,1.7366493E2,3.110854E2,8.182849E1,2.2828569E2,1.5433671E0,1.1699284E2,5.667209E1,1.8400253E1,2.9268515E2,2.9619536E0,7.886654E1,1.5681015E0,2.2671758E2,9.3600525E1,2.339232E1,5.1713696E1,4.958392E0,4.7831383E0,1.3617115E1,2.0714783E2,8.553731E1,2.1552618E0,7.671127E1,6.133364E1,1.6538394E2,8.2238495E1,1.1362031E1,1.4323632E1,9.068688E0,2.2269084E0,4.9486786E1,3.392489E0,1.565903E0,3.1711543E0,1.6119841E0,1.1966683E1,1.6504314E0,3.5372402E1,1.7177544E2,2.6144337E1,5.939297E1,1.11984005E1,6.551287E1],"tree_param":{"num_deleted":"0","num_feature":"100","num_nodes":"47","size_leaf_vector":"1"}},{"base_weights":[-6.692478E-4,-6.49889E-1,2.9110722E-2,-2.0715544E-2,8.521701E-3,5.866045E-2,-4.9234486E-1,1.6166674E-3,2.572621E-1,-5.534601E-1,1.14764115E-2,-3.2626525E-2,3.3627778E-1,3.3829668E-1,-2.5563604E-1,-3.4633428E-1,-2.072544E-2,-1.37194125E-2,-9.983915E-5,-3.7938934E-3,1.9994583E-2,-1.4824781E-2,1.1789785E-2,6.84615E-3,-1.7440213E-2,3.4375074E-3,-1.9609207E-2],"categories":[],"categories_nodes":[],"categories_segments":[],"categories_sizes":[],"default_left":[0,0,0,0,0,0,0,0,0,0,0,0,0,0,0,0,0,0,0,0,0,0,0,0,0,0,0],"id":19,"left_children":[1,3,5,-1,-1,7,9,11,13,15,-1,17,19,21,23,25,-1,-1,-1,-1,-1,-1,-1,-1,-1,-1,-1],"loss_changes":[1.5138927E1,1.4992905E0,1.156566E1,0E0,0E0,8.03695E0,2.364336E0,6.3385735E0,6.665742E0,8.4319305E-1,0E0,6.2423816E0,7.92932E0,6.438055E0,3.625999E0,2.507575E0,0E0,0E0,0E0,0E0,0E0,0E0,0E0,0E0,0E0,0E0,0E0],"parents":[2147483647,0,0,1,1,2,2,5,5,6,6,7,7,8,8,9,9,11,11,12,12,13,13,14,14,15,15],"right_children":[2,4,6,-1,-1,8,10,12,14,16,-1,18,20,22,24,26,-1,-1,-1,-1,-1,-1,-1,-1,-1,-1,-1],"split_conditions":[-1.7661973E0,5.2500236E-1,1.349615E0,-2.0715544E-2,8.521701E-3,7.082719E-2,-4.298554E-1,8.8809687E-1,1.005698E0,3.4915343E-1,1.14764115E-2,-4.047974E-2,-2.5205672E-1,-1.2941365E0,-2.5595886E-1,9.672164E-1,-2.072544E-2,-1.37194125E-2,-9.983915E-5,-3.7938934E-3,1.9994583E-2,-1.4824781E-2,1.1789785E-2,6.84615E-3,-1.7440213E-2,3.4375074E-3,-1.9609207E-2],"split_indices":[2,14,56,0,0,10,83,97,14,70,0,11,33,63,98,87,0,0,0,0,0,0,0,0,0,0,0],"split_type":[0,0,0,0,0,0,0,0,0,0,0,0,0,0,0,0,0,0,0,0,0,0,0,0,0,0,0],"sum_hessian":[7.8105273E2,3.3342606E1,7.4771014E2,3.2202362E1,1.1402445E0,7.084513E2,3.9258854E1,5.5115326E2,1.5729803E2,3.703891E1,2.2199445E0,5.008117E2,5.034155E1,1.3613069E2,2.1167347E1,1.6174742E1,2.0864168E1,3.1377731E1,4.69434E2,2.1220707E1,2.912084E1,7.8975863E0,1.2823311E2,8.636696E0,1.2530651E1,6.721111E0,9.453631E0],"tree_param":{"num_deleted":"0","num_feature":"100","num_nodes":"27","size_leaf_vector":"1"}},{"base_weights":[7.1295924E-3,5.080875E-1,-2.3630503E-1,9.476482E-1,3.853677E-1,-5.4012615E-2,-4.668132E-1,1.0055707E0,1.1777692E-1,4.8692733E-1,-2.8322784E-2,-2.0368652E-1,2.2893156E-1,7.653139E-1,-4.8827502E-1,1.2234799E-1,1.0476074E0,-1.5529303E-2,2.3669483E-2,5.2488106E-1,-2.6502872E-1,-2.2309631E-1,4.3916664E-1,-2.9008225E-1,1.7001276E-1,4.3723202E-1,-9.537748E-2,2.8890884E-2,3.8045319E-3,-5.1163745E-1,1.5257862E-1,2.0419082E-2,-1.2999668E-2,3.2483865E-2,5.8105113E-3,1.7338432E-2,-1.3816917E-3,2.4843417E-2,-1.969965E-2,1.7964415E-2,-1.1066639E-2,-1.5215523E-2,2.031288E-2,-1.021577E-2,8.454291E-3,-1.7657325E-2,1.6448075E-2,2.2979213E-2,4.1159443E-3,-1.6919656E-2,7.1766907E-3,-1.615763E-2,-1.7172188E-3,1.527747E-2,-1.5632963E-2],"categories":[],"categories_nodes":[],"categories_segments":[],"categories_sizes":[],"default_left":[0,0,0,0,0,0,0,0,0,0,0,0,0,0,0,0,0,0,0,0,0,0,0,0,0,0,0,0,0,0,0,0,0,0,0,0,0,0,0,0,0,0,0,0,0,0,0,0,0,0,0,0,0,0,0],"id":20,"left_children":[1,3,5,7,9,11,13,15,17,19,21,23,25,27,29,31,33,-1,-1,35,37,39,41,43,45,47,49,-1,-1,51,53,-1,-1,-1,-1,-1,-1,-1,-1,-1,-1,-1,-1,-1,-1,-1,-1,-1,-1,-1,-1,-1,-1,-1,-1],"loss_changes":[9.243674E1,1.3005909E1,2.1410217E1,2.4490967E0,8.225939E0,1.2157933E1,6.327221E0,1.7206726E0,2.3778002E0,4.6195107E0,3.6920693E0,6.1052585E0,6.75748E0,4.1363168E-1,3.4002724E0,1.3480273E0,1.2146225E0,0E0,0E0,4.5646667E0,4.057457E0,3.6391215E0,3.0331528E0,4.5016403E0,1.0610218E1,5.883237E0,6.3599563E0,0E0,0E0,2.5937767E0,2.3257856E0,0E0,0E0,0E0,0E0,0E0,0E0,0E0,0E0,0E0,0E0,0E0,0E0,0E0,0E0,0E0,0E0,0E0,0E0,0E0,0E0,0E0,0E0,0E0,0E0],"parents":[2147483647,0,0,1,1,2,2,3,3,4,4,5,5,6,6,7,7,8,8,9,9,10,10,11,11,12,12,13,13,14,14,15,15,16,16,19,19,20,20,21,21,22,22,23,23,24,24,25,25,26,26,29,29,30,30],"right_children":[2,4,6,8,10,12,14,16,18,20,22,24,26,28,30,32,34,-1,-1,36,38,40,42,44,46,48,50,-1,-1,52,54,-1,-1,-1,-1,-1,-1,-1,-1,-1,-1,-1,-1,-1,-1,-1,-1,-1,-1,-1,-1,-1,-1,-1,-1],"split_conditions":[-5.840877E-1,-1.5593115E0,3.5560402E-1,1.8127345E-1,6.1966294E-1,1.687573E0,-1.2668488E0,-9.068994E-1,2.163131E-1,1.5306972E0,2.1226662E-1,8.9685196E-1,4.00005E-1,1.4806129E0,2.4268322E0,-1.770207E-1,1.4317856E0,-1.5529303E-2,2.3669483E-2,2.1525691E-1,-3.101244E-1,-1.4319853E0,-3.333981E-1,4.1489792E-1,3.248052E-1,-2.2826445E-1,9.065305E-2,2.8890884E-2,3.8045319E-3,1.9928269E0,8.005347E-1,2.0419082E-2,-1.2999668E-2,3.2483865E-2,5.8105113E-3,1.7338432E-2,-1.3816917E-3,2.4843417E-2,-1.969965E-2,1.7964415E-2,-1.1066639E-2,-1.5215523E-2,2.031288E-2,-1.021577E-2,8.454291E-3,-1.7657325E-2,1.6448075E-2,2.2979213E-2,4.1159443E-3,-1.6919656E-2,7.1766907E-3,-1.615763E-2,-1.7172188E-3,1.527747E-2,-1.5632963E-2],"split_indices":[2,2,2,10,96,4,71,92,60,19,46,73,22,20,93,34,42,0,0,10,95,66,9,11,75,89,44,0,0,64,98,0,0,0,0,0,0,0,0,0,0,0,0,0,0,0,0,0,0,0,0,0,0,0,0],"split_type":[0,0,0,0,0,0,0,0,0,0,0,0,0,0,0,0,0,0,0,0,0,0,0,0,0,0,0,0,0,0,0,0,0,0,0,0,0,0,0,0,0,0,0,0,0,0,0,0,0,0,0,0,0,0,0],"sum_hessian":[7.560012E2,2.4687541E2,5.091258E2,5.2414368E1,1.9446104E2,2.849855E2,2.2414029E2,4.8796787E1,3.6175807E0,1.5598918E2,3.847186E1,1.8657161E2,9.841391E1,3.2439682E0,2.2089632E2,2.394619E0,4.640217E1,1.9758548E0,1.6417259E0,1.4878165E2,7.20753E0,2.7526196E1,1.0945662E1,1.517193E2,3.4852306E1,5.9712788E1,3.8701122E1,2.0888584E0,1.1551099E0,2.1332129E2,7.575036E0,1.082314E0,1.312305E0,4.4308308E1,2.0938587E0,1.3611769E2,1.2663956E1,1.607099E0,5.600431E0,3.678889E0,2.3847307E1,1.9716954E0,8.973967E0,1.3979344E2,1.1925848E1,1.1411203E1,2.3441105E1,2.7752216E1,3.196057E1,1.5836458E1,2.2864664E1,2.0120268E2,1.21186E1,5.1124086E0,2.4626274E0],"tree_param":{"num_deleted":"0","num_feature":"100","num_nodes":"55","size_leaf_vector":"1"}},{"base_weights":[1.4073814E-2,-3.6021772E-1,3.8509205E-1,-5.042903E-1,-1.8832839E-1,2.7740076E-1,7.535922E-1,8.0573065E-3,-5.1493585E-1,-3.6457485E-1,-6.313149E-2,3.9234146E-1,1.8045133E-2,8.362887E-1,2.7266955E-1,-5.279052E-1,1.0309784E-1,-3.931813E-1,1.4890937E-2,9.5979255E-1,-1.1686498E-1,5.7237536E-1,2.575176E-1,1.583E-1,-3.6617827E-1,-5.6547783E-2,8.7439E-1,-2.0440261E-1,3.0972922E-2,-1.8300882E-2,-1.2624171E-2,-1.0549118E-2,2.536241E-2,-1.3116588E-2,2.971491E-3,5.758125E-3,3.4572385E-2,2.939783E-2,-4.6776347E-3,2.2567326E-2,9.279488E-3,-7.0925034E-3,1.0158579E-2,1.1212214E-2,-3.1628485E-3,-1.5897138E-2,3.4695882E-3,9.318678E-3,-1.3349471E-2,1.4263231E-2,3.019019E-2,2.1801334E-2,-1.3242916E-2],"categories":[],"categories_nodes":[],"categories_segments":[],"categories_sizes":[],"default_left":[0,0,0,0,0,0,0,0,0,0,0,0,0,0,0,0,0,0,0,0,0,0,0,0,0,0,0,0,0,0,0,0,0,0,0,0,0,0,0,0,0,0,0,0,0,0,0,0,0,0,0,0,0],"id":21,"left_children":[1,3,5,7,9,11,13,-1,15,17,19,21,23,25,27,29,31,33,-1,35,37,39,41,43,45,47,49,51,-1,-1,-1,-1,-1,-1,-1,-1,-1,-1,-1,-1,-1,-1,-1,-1,-1,-1,-1,-1,-1,-1,-1,-1,-1],"loss_changes":[1.07120804E2,9.414997E0,1.5163269E1,1.8522377E0,3.875955E0,8.976173E0,3.2328377E0,0E0,1.7042465E0,1.9974298E0,5.857217E0,4.9197655E0,5.1012774E0,2.558937E0,5.3767586E0,1.5178795E0,2.0077233E0,1.5906792E0,0E0,5.6639576E-1,4.444861E0,3.9582767E0,4.9345837E0,3.9744918E0,2.059418E0,7.0278394E-1,3.2490845E0,2.4371583E0,0E0,0E0,0E0,0E0,0E0,0E0,0E0,0E0,0E0,0E0,0E0,0E0,0E0,0E0,0E0,0E0,0E0,0E0,0E0,0E0,0E0,0E0,0E0,0E0,0E0],"parents":[2147483647,0,0,1,1,2,2,3,3,4,4,5,5,6,6,8,8,9,9,10,10,11,11,12,12,13,13,14,14,15,15,16,16,17,17,19,19,20,20,21,21,22,22,23,23,24,24,25,25,26,26,27,27],"right_children":[2,4,6,8,10,12,14,-1,16,18,20,22,24,26,28,30,32,34,-1,36,38,40,42,44,46,48,50,52,-1,-1,-1,-1,-1,-1,-1,-1,-1,-1,-1,-1,-1,-1,-1,-1,-1,-1,-1,-1,-1,-1,-1,-1,-1],"split_conditions":[-8.183097E-2,-8.183406E-1,1.2093191E0,-7.3217344E-1,-3.0439246E-1,1.687573E0,1.6071671E0,8.0573065E-3,1.6071671E0,6.1009306E-1,-8.775002E-1,-3.028486E-1,9.226767E-1,-1.5900288E0,7.3985875E-1,-6.4339556E-2,5.699491E-2,1.4479451E0,1.4890937E-2,-6.4391917E-1,-1.5085136E0,-2.5205672E-1,5.8590766E-2,-1.0623073E-1,3.958613E-1,2.6590508E-1,5.634822E-1,-4.3732044E-1,3.0972922E-2,-1.8300882E-2,-1.2624171E-2,-1.0549118E-2,2.536241E-2,-1.3116588E-2,2.971491E-3,5.758125E-3,3.4572385E-2,2.939783E-2,-4.6776347E-3,2.2567326E-2,9.279488E-3,-7.0925034E-3,1.0158579E-2,1.1212214E-2,-3.1628485E-3,-1.5897138E-2,3.4695882E-3,9.318678E-3,-1.3349471E-2,1.4263231E-2,3.019019E-2,2.1801334E-2,-1.3242916E-2],"split_indices":[2,3,3,82,38,4,72,0,72,95,89,96,28,11,14,67,95,78,0,13,13,33,2,95,38,49,88,95,0,0,0,0,0,0,0,0,0,0,0,0,0,0,0,0,0,0,0,0,0,0,0,0,0],"split_type":[0,0,0,0,0,0,0,0,0,0,0,0,0,0,0,0,0,0,0,0,0,0,0,0,0,0,0,0,0,0,0,0,0,0,0,0,0,0,0,0,0,0,0,0,0,0,0,0,0,0,0,0,0],"sum_hessian":[7.6938135E2,3.8301566E2,3.863657E2,2.0731583E2,1.7569983E2,3.00345E2,8.6020706E1,2.4875941E0,2.0482823E2,7.217839E1,1.0352144E2,2.0775832E2,9.258668E1,7.276889E1,1.3251819E1,2.0076111E2,4.067126E0,7.038308E1,1.7953067E0,4.3249683E0,9.919647E1,8.7573586E1,1.2018472E2,6.82581E1,2.4328575E1,2.9584608E0,6.9810425E1,8.5893345E0,4.662483E0,1.10971794E2,8.9789314E1,2.8484755E0,1.2186502E0,6.470582E1,5.677262E0,1.2677414E0,3.0572267E0,2.5825298E0,9.6613945E1,5.090635E1,3.666724E1,1.6680464E1,1.0350426E2,3.7338787E1,3.0919313E1,1.808389E1,6.2446833E0,1.6238385E0,1.3346221E0,1.8494778E1,5.1315647E1,1.3236656E0,7.2656693E0],"tree_param":{"num_deleted":"0","num_feature":"100","num_nodes":"53","size_leaf_vector":"1"}},{"base_weights":[-1.0103355E-2,-5.681803E-1,1.6206102E-2,1.3396761E-1,-6.4275855E-1,-1.713415E-1,1.0263223E-1,-1.40213985E-2,2.5139295E-2,8.470757E-3,-2.0580782E-2,-1.1116552E-1,-5.666198E-1,1.2651984E-1,-4.918539E-1,-2.4622843E-2,-5.05626E-1,-6.5399665E-1,1.4851698E-2,2.909619E-1,7.4593395E-2,-6.2478405E-1,1.6167132E-2,1.8322002E-2,-2.0662278E-3,-3.1819753E-3,-1.7923169E-2,1.3214074E-3,-2.1068174E-2,-4.2634807E-3,1.170745E-2,3.226092E-2,1.7523814E-3,-2.100769E-2,6.240669E-3],"categories":[],"categories_nodes":[],"categories_segments":[],"categories_sizes":[],"default_left":[0,0,0,0,0,0,0,0,0,0,0,0,0,0,0,0,0,0,0,0,0,0,0,0,0,0,0,0,0,0,0,0,0,0,0],"id":22,"left_children":[1,3,5,7,9,11,13,-1,-1,-1,-1,15,17,19,21,23,25,27,-1,29,31,33,-1,-1,-1,-1,-1,-1,-1,-1,-1,-1,-1,-1,-1],"loss_changes":[1.1496001E1,1.9319181E0,1.2143322E1,2.1748173E0,1.4760685E0,5.559165E0,7.3433585E0,0E0,0E0,0E0,0E0,7.03277E0,3.1980886E0,4.194064E0,3.078586E0,4.830016E0,1.2969179E0,1.0101938E0,0E0,5.135421E0,6.0350657E0,1.288868E0,0E0,0E0,0E0,0E0,0E0,0E0,0E0,0E0,0E0,0E0,0E0,0E0,0E0],"parents":[2147483647,0,0,1,1,2,2,3,3,4,4,5,5,6,6,11,11,12,12,13,13,14,14,15,15,16,16,17,17,19,19,20,20,21,21],"right_children":[2,4,6,8,10,12,14,-1,-1,-1,-1,16,18,20,22,24,26,28,-1,30,32,34,-1,-1,-1,-1,-1,-1,-1,-1,-1,-1,-1,-1,-1],"split_conditions":[-1.6733617E0,-9.620149E-1,-6.9076914E-1,-8.749654E-1,-1.3040733E0,5.814301E-1,1.6925277E0,-1.40213985E-2,2.5139295E-2,8.470757E-3,-2.0580782E-2,1.3275831E0,1.154439E0,-6.2880737E-1,5.8650327E-1,-1.1725992E0,-1.3738763E0,-1.3054324E0,1.4851698E-2,-9.78278E-1,-1.1464957E0,-1.0758599E-1,1.6167132E-2,1.8322002E-2,-2.0662278E-3,-3.1819753E-3,-1.7923169E-2,1.3214074E-3,-2.1068174E-2,-4.2634807E-3,1.170745E-2,3.226092E-2,1.7523814E-3,-2.100769E-2,6.240669E-3],"split_indices":[3,31,13,12,12,0,1,0,0,0,0,56,27,97,97,11,98,98,0,0,31,10,0,0,0,0,0,0,0,0,0,0,0,0,0],"split_type":[0,0,0,0,0,0,0,0,0,0,0,0,0,0,0,0,0,0,0,0,0,0,0,0,0,0,0,0,0,0,0,0,0,0,0],"sum_hessian":[7.81335E2,3.4248966E1,7.4708606E2,3.211992E0,3.1036976E1,2.3536142E2,5.1172467E2,1.9135768E0,1.2984152E0,1.1398395E0,2.9897135E1,2.0537672E2,2.9984692E1,4.9271365E2,1.9011017E1,1.6929636E2,3.6080364E1,2.805938E1,1.9253128E0,1.1714198E2,3.7557166E2,1.7188225E1,1.822793E0,1.0189882E1,1.5910648E2,7.144314E0,2.8936049E1,1.820694E0,2.6238686E1,2.1766642E1,9.537534E1,4.934181E0,3.7063748E2,1.5905925E1,1.2822993E0],"tree_param":{"num_deleted":"0","num_feature":"100","num_nodes":"35","size_leaf_vector":"1"}},{"base_weights":[8.252755E-3,4.8371542E-1,-2.4471733E-1,3.4136098E-2,3.7191883E-1,-6.4017154E-2,-4.6279675E-1,4.5026013E-1,5.034292E-2,-2.4107406E-1,2.5556523E-1,3.3167526E-1,-4.9751619E-1,9.4838065E-1,3.877665E-1,2.4646953E-1,-3.5186902E-1,-4.4159335E-1,-8.828398E-2,5.0391555E-1,-2.976723E-2,-3.4817117E-1,7.9943293E-1,2.644501E-2,-5.1131564E-1,5.4768245E-3,3.2636244E-2,7.3225093E-3,2.1078568E-2,-1.7940762E-2,1.0947407E-2,2.0386284E-2,-1.6281703E-2,1.4309685E-2,-1.4675129E-2,-5.053063E-3,1.2551021E-2,1.89372E-2,-1.6687015E-3,-5.1782145E-3,1.8013973E-2,4.3614097E-3,-1.603163E-2,6.129212E-4,3.0723287E-2,-1.5822282E-2,3.4914063E-3],"categories":[],"categories_nodes":[],"categories_segments":[],"categories_sizes":[],"default_left":[0,0,0,0,0,0,0,0,0,0,0,0,0,0,0,0,0,0,0,0,0,0,0,0,0,0,0,0,0,0,0,0,0,0,0,0,0,0,0,0,0,0,0,0,0,0,0],"id":23,"left_children":[1,3,5,-1,7,9,11,13,15,17,19,21,23,25,27,29,31,33,35,37,39,41,43,-1,45,-1,-1,-1,-1,-1,-1,-1,-1,-1,-1,-1,-1,-1,-1,-1,-1,-1,-1,-1,-1,-1,-1],"loss_changes":[9.360072E1,1.934071E1,1.998799E1,0E0,5.829323E0,1.5845976E1,6.509735E0,5.4428444E0,3.7651038E0,5.4762974E0,7.0966377E0,3.5318882E0,4.6522408E0,1.9503288E0,7.4079914E0,3.4123807E0,3.4586608E0,3.6247492E0,4.270173E0,3.8456059E0,4.375137E0,5.249835E-1,1.0929952E0,0E0,2.2760544E0,0E0,0E0,0E0,0E0,0E0,0E0,0E0,0E0,0E0,0E0,0E0,0E0,0E0,0E0,0E0,0E0,0E0,0E0,0E0,0E0,0E0,0E0],"parents":[2147483647,0,0,1,1,2,2,4,4,5,5,6,6,7,7,8,8,9,9,10,10,11,11,12,12,13,13,14,14,15,15,16,16,17,17,18,18,19,19,20,20,21,21,22,22,24,24],"right_children":[2,4,6,-1,8,10,12,14,16,18,20,22,24,26,28,30,32,34,36,38,40,42,44,-1,46,-1,-1,-1,-1,-1,-1,-1,-1,-1,-1,-1,-1,-1,-1,-1,-1,-1,-1,-1,-1,-1,-1],"split_conditions":[-5.26339E-1,-1.7012701E0,3.5560402E-1,3.4136098E-2,-1.4131461E-2,1.687573E0,-1.3499004E0,-3.992327E-1,-9.216106E-2,6.355367E-2,-7.931089E-2,3.4204492E-1,-1.4524044E0,-1.165539E0,7.3909245E-2,-1.860682E0,-1.2079674E0,-1.6669343E0,1.3122352E0,4.7325355E-1,1.0141331E0,2.2088585E0,5.479221E-1,2.644501E-2,1.5969737E0,5.4768245E-3,3.2636244E-2,7.3225093E-3,2.1078568E-2,-1.7940762E-2,1.0947407E-2,2.0386284E-2,-1.6281703E-2,1.4309685E-2,-1.4675129E-2,-5.053063E-3,1.2551021E-2,1.89372E-2,-1.6687015E-3,-5.1782145E-3,1.8013973E-2,4.3614097E-3,-1.603163E-2,6.129212E-4,3.0723287E-2,-1.5822282E-2,3.4914063E-3],"split_indices":[2,3,2,0,10,4,12,95,0,32,38,25,14,47,95,89,99,21,12,97,69,56,2,0,80,0,0,0,0,0,0,0,0,0,0,0,0,0,0,0,0,0,0,0,0,0,0],"split_type":[0,0,0,0,0,0,0,0,0,0,0,0,0,0,0,0,0,0,0,0,0,0,0,0,0,0,0,0,0,0,0,0,0,0,0,0,0,0,0,0,0,0,0,0,0,0,0],"sum_hessian":[7.7622015E2,2.692489E2,5.0697122E2,3.7959385E1,2.3128954E2,2.7795328E2,2.2901796E2,1.8565958E2,4.5629955E1,1.790182E2,9.893506E1,9.231176E0,2.1978677E2,1.9115913E1,1.6654366E2,3.0933416E1,1.4696539E1,7.659973E1,1.0241847E2,5.2485863E1,4.6449196E1,3.8667867E0,5.36439E0,1.554582E0,2.182322E2,3.3011887E0,1.5814725E1,1.1557586E2,5.09678E1,3.3068535E0,2.7626562E1,1.8950138E0,1.2801525E1,3.327629E0,7.32721E1,8.900549E1,1.3412979E1,4.2652122E1,9.833742E0,3.8458782E1,7.9904156E0,1.1193465E0,2.7474403E0,1.4450444E0,3.9193454E0,2.1293251E2,5.299689E0],"tree_param":{"num_deleted":"0","num_feature":"100","num_nodes":"47","size_leaf_vector":"1"}},{"base_weights":[-2.9779242E-3,-3.4048223E-1,4.2201588E-1,-5.070024E-1,-1.777967E-1,3.1248912E-1,6.8791395E-1,-5.206058E-1,3.5040948E-1,-2.1488734E-1,2.5243357E-1,4.110128E-1,6.885153E-2,4.0005E-1,8.035891E-1,-5.620957E-1,-3.5662192E-1,-1.2315202E-2,2.8227888E-2,9.2038564E-2,-2.6131898E-1,-2.4118781E-2,3.22436E-2,6.3069564E-1,2.795989E-1,3.744274E-1,-1.995492E-1,-4.6042255E-1,5.303429E-1,8.4369314E-1,-3.2938096E-1,-9.686612E-3,-1.734828E-2,-1.2648908E-2,6.809556E-3,3.3706516E-2,-3.1069461E-3,-8.995614E-3,4.8089623E-3,-9.854758E-3,2.9684002E-2,-2.3329917E-3,2.3299921E-2,1.0982242E-2,-9.141713E-3,1.72891E-2,-3.3924219E-3,-8.7514995E-3,2.2422144E-2,-1.679471E-2,-1.6752983E-3,3.469717E-3,2.2541096E-2,-7.628685E-3,2.6277103E-2,-2.3123224E-3,-1.251211E-2],"categories":[],"categories_nodes":[],"categories_segments":[],"categories_sizes":[],"default_left":[0,0,0,0,0,0,0,0,0,0,0,0,0,0,0,0,0,0,0,0,0,0,0,0,0,0,0,0,0,0,0,0,0,0,0,0,0,0,0,0,0,0,0,0,0,0,0,0,0,0,0,0,0,0,0,0,0],"id":24,"left_children":[1,3,5,7,9,11,13,15,17,19,21,23,25,27,29,31,33,-1,-1,35,37,39,-1,41,43,45,47,49,51,53,55,-1,-1,-1,-1,-1,-1,-1,-1,-1,-1,-1,-1,-1,-1,-1,-1,-1,-1,-1,-1,-1,-1,-1,-1,-1,-1],"loss_changes":[1.1104427E2,1.1599171E1,9.764664E0,2.663208E0,3.5616946E0,5.841488E0,2.979725E0,1.2267761E0,2.147433E0,2.915514E0,4.0979443E0,4.844616E0,5.9482126E0,3.6535215E0,3.4461632E0,4.5454025E-1,1.806531E0,0E0,0E0,5.6448073E0,2.9155617E0,4.760471E0,0E0,6.709961E0,5.7010946E0,3.395101E0,3.6025214E0,1.5109086E-1,2.3764052E0,2.6144295E0,3.6506474E-2,0E0,0E0,0E0,0E0,0E0,0E0,0E0,0E0,0E0,0E0,0E0,0E0,0E0,0E0,0E0,0E0,0E0,0E0,0E0,0E0,0E0,0E0,0E0,0E0,0E0,0E0],"parents":[2147483647,0,0,1,1,2,2,3,3,4,4,5,5,6,6,7,7,8,8,9,9,10,10,11,11,12,12,13,13,14,14,15,15,16,16,19,19,20,20,21,21,23,23,24,24,25,25,26,26,27,27,28,28,29,29,30,30],"right_children":[2,4,6,8,10,12,14,16,18,20,22,24,26,28,30,32,34,-1,-1,36,38,40,-1,42,44,46,48,50,52,54,56,-1,-1,-1,-1,-1,-1,-1,-1,-1,-1,-1,-1,-1,-1,-1,-1,-1,-1,-1,-1,-1,-1,-1,-1,-1,-1],"split_conditions":[7.8647755E-2,-6.469323E-1,1.0025843E0,1.8916448E0,8.440891E-1,1.687573E0,-3.403231E-2,-3.482915E-1,-9.221706E-1,-6.4729273E-1,-2.0658743E-1,1.7272206E-1,5.426965E-1,-1.7964655E0,3E0,-3.8593218E-1,7.8732103E-1,-1.2315202E-2,2.8227888E-2,-6.0023266E-1,1.5770588E0,-5.2992206E-2,3.22436E-2,-4.413571E-1,1.002874E0,1.474972E-1,1.4833775E0,3.2935128E-1,2.7914715E-1,-7.742515E-1,-1.2576212E0,-9.686612E-3,-1.734828E-2,-1.2648908E-2,6.809556E-3,3.3706516E-2,-3.1069461E-3,-8.995614E-3,4.8089623E-3,-9.854758E-3,2.9684002E-2,-2.3329917E-3,2.3299921E-2,1.0982242E-2,-9.141713E-3,1.72891E-2,-3.3924219E-3,-8.7514995E-3,2.2422144E-2,-1.679471E-2,-1.6752983E-3,3.469717E-3,2.2541096E-2,-7.628685E-3,2.6277103E-2,-2.3123224E-3,-1.251211E-2],"split_indices":[3,2,2,32,81,4,99,88,91,45,21,88,36,61,17,95,68,0,0,96,92,2,0,94,58,9,0,31,39,71,1,0,0,0,0,0,0,0,0,0,0,0,0,0,0,0,0,0,0,0,0,0,0,0,0,0,0],"split_type":[0,0,0,0,0,0,0,0,0,0,0,0,0,0,0,0,0,0,0,0,0,0,0,0,0,0,0,0,0,0,0,0,0,0,0,0,0,0,0,0,0,0,0,0,0,0,0,0,0,0,0,0,0,0,0,0,0],"sum_hessian":[7.7216455E2,4.304924E2,3.4167212E2,2.1169308E2,2.1879932E2,2.4353304E2,9.8139084E1,2.0877359E2,2.9195023E0,2.0189432E2,1.6905003E1,1.7291971E2,7.0613335E1,2.9409735E1,6.8729355E1,1.6467984E2,4.4093742E1,1.4088998E0,1.5106025E0,2.6400114E1,1.754942E2,1.3377053E1,3.5279505E0,6.3300995E1,1.0961871E2,3.2835213E1,3.7778122E1,3.5343866E0,2.5875349E1,6.662629E1,2.1030598E0,1.1761067E1,1.5291878E2,3.9924114E1,4.1696286E0,3.452003E0,2.2948112E1,1.610623E2,1.4431895E1,1.0807532E1,2.5695207E0,1.0893979E1,5.2407017E1,9.581259E1,1.3806121E1,2.30911E1,9.744111E0,3.5057865E1,2.7202563E0,2.5292554E0,1.0051314E0,9.526057E0,1.634929E1,1.7023398E0,6.492395E1,1.0270298E0,1.07603E0],"tree_param":{"num_deleted":"0","num_feature":"100","num_nodes":"57","size_leaf_vector":"1"}},{"base_weights":[-1.1763431E-2,-6.0680115E-1,1.4387301E-2,1.9224624E-3,-6.4705956E-1,-4.817027E-1,4.60339E-2,-2.0726966E-2,-1.1646506E-1,-5.898753E-1,1.8370338E-1,-1.22882575E-2,2.5342527E-1,8.812423E-3,-1.2723968E-2,-6.24164E-1,9.199781E-3,-1.6089791E-2,7.48763E-1,8.486884E-1,-2.5746725E-2,5.3124715E-2,4.398771E-1,8.600595E-3,-1.9800473E-2,2.9868882E-2,4.4735232E-3,-2.5685056E-4,3.2964647E-2,-1.1267614E-2,-1.1814917E-6,5.329446E-3,-1.7267125E-2,-1.6887559E-2,1.4603796E-2],"categories":[],"categories_nodes":[],"categories_segments":[],"categories_sizes":[],"default_left":[0,0,0,0,0,0,0,0,0,0,0,0,0,0,0,0,0,0,0,0,0,0,0,0,0,0,0,0,0,0,0,0,0,0,0],"id":25,"left_children":[1,3,5,-1,7,9,11,-1,13,15,17,19,21,-1,-1,23,-1,-1,25,27,29,31,33,-1,-1,-1,-1,-1,-1,-1,-1,-1,-1,-1,-1],"loss_changes":[1.220635E1,9.3336487E-1,1.1825926E1,0E0,6.462822E-1,3.3598766E0,8.562854E0,0E0,5.7731944E-1,1.3931971E0,3.2818599E0,6.4332023E0,5.7793884E0,0E0,0E0,1.4295855E0,0E0,0E0,5.0048494E-1,1.8417587E0,4.908233E0,6.0555186E0,4.053461E0,0E0,0E0,0E0,0E0,0E0,0E0,0E0,0E0,0E0,0E0,0E0,0E0],"parents":[2147483647,0,0,1,1,2,2,4,4,5,5,6,6,8,8,9,9,10,10,11,11,12,12,15,15,18,18,19,19,20,20,21,21,22,22],"right_children":[2,4,6,-1,8,10,12,-1,14,16,18,20,22,-1,-1,24,-1,-1,26,28,30,32,34,-1,-1,-1,-1,-1,-1,-1,-1,-1,-1,-1,-1],"split_conditions":[-1.5538595E0,-7.5888073E-1,-1.3523957E0,1.9224624E-3,2.656216E-1,1.428611E-1,7.082719E-2,-2.0726966E-2,-1.9397877E0,1.5890576E0,1.0786725E0,-1.1464957E0,9.234142E-1,8.812423E-3,-1.2723968E-2,-1.4187219E0,9.199781E-3,-1.6089791E-2,1.0917818E-1,-1.7934565E-1,-4.6804428E-2,7.75782E-1,-3.1860134E-1,8.600595E-3,-1.9800473E-2,2.9868882E-2,4.4735232E-3,-2.5685056E-4,3.2964647E-2,-1.1267614E-2,-1.1814917E-6,5.329446E-3,-1.7267125E-2,-1.6887559E-2,1.4603796E-2],"split_indices":[57,18,63,0,35,91,10,0,0,79,52,31,6,0,0,59,0,0,5,23,11,92,9,0,0,0,0,0,0,0,0,0,0,0,0],"split_type":[0,0,0,0,0,0,0,0,0,0,0,0,0,0,0,0,0,0,0,0,0,0,0,0,0,0,0,0,0,0,0,0,0,0,0],"sum_hessian":[7.8287494E2,3.202265E1,7.508523E2,1.7793318E0,3.0243319E1,4.4173298E1,7.0667896E2,2.765616E1,2.5871596E0,3.809401E1,6.0792913E0,5.523024E2,1.5437657E2,1.1281891E0,1.4589707E0,3.6983353E1,1.1106555E0,2.6954508E0,3.3838406E0,7.545345E0,5.447571E2,7.504381E1,7.9332756E1,1.1356096E0,3.5847744E1,1.9292355E0,1.4546049E0,1.9224716E0,5.6228733E0,3.6358566E1,5.083985E2,6.3236263E1,1.18075485E1,3.0541542E0,7.62786E1],"tree_param":{"num_deleted":"0","num_feature":"100","num_nodes":"35","size_leaf_vector":"1"}},{"base_weights":[4.293825E-3,4.6608016E-1,-2.612089E-1,1.0769199E0,3.742629E-1,-9.7107686E-2,-4.476549E-1,3.325639E-2,4.3590385E-1,9.93949E-1,3.2209617E-1,-2.3785555E-1,1.5427883E-1,7.474639E-1,-4.6824098E-1,1.425216E-3,1.9284403E-2,-1.3113683E-3,1.090724E0,3.8159162E-1,-1.4508785E-1,-3.890104E-1,-7.670828E-2,4.7056696E-1,-9.84159E-2,3.8066795E-3,2.8011663E-2,-4.903909E-1,1.327372E-1,2.4628034E-3,3.4875497E-2,1.2126846E-2,-1.8342005E-2,1.7319124E-2,-1.0725115E-2,2.0535303E-2,-1.2949598E-2,-4.180419E-3,2.3648694E-2,1.7694192E-2,-8.493316E-3,7.166439E-3,-1.060027E-2,-1.4983587E-2,1.7170072E-2,-1.1830554E-2,2.4829807E-2],"categories":[],"categories_nodes":[],"categories_segments":[],"categories_sizes":[],"default_left":[0,0,0,0,0,0,0,0,0,0,0,0,0,0,0,0,0,0,0,0,0,0,0,0,0,0,0,0,0,0,0,0,0,0,0,0,0,0,0,0,0,0,0,0,0,0,0],"id":26,"left_children":[1,3,5,7,9,11,13,-1,15,17,19,21,23,25,27,-1,-1,-1,29,31,33,35,37,39,41,-1,-1,43,45,-1,-1,-1,-1,-1,-1,-1,-1,-1,-1,-1,-1,-1,-1,-1,-1,-1,-1],"loss_changes":[9.460242E1,1.5394894E1,1.4946487E1,2.5217438E-1,7.64526E0,9.301773E0,5.985859E0,0E0,2.3896742E-1,1.9207726E0,6.4135036E0,4.0687437E0,7.6067133E0,3.7440443E-1,3.070984E0,0E0,0E0,0E0,1.1428146E0,4.8143005E0,4.2826805E0,4.25883E0,4.5899525E0,3.9579716E0,4.676964E0,0E0,0E0,2.385254E0,3.5547235E0,0E0,0E0,0E0,0E0,0E0,0E0,0E0,0E0,0E0,0E0,0E0,0E0,0E0,0E0,0E0,0E0,0E0,0E0],"parents":[2147483647,0,0,1,1,2,2,3,3,4,4,5,5,6,6,8,8,9,9,10,10,11,11,12,12,13,13,14,14,18,18,19,19,20,20,21,21,22,22,23,23,24,24,27,27,28,28],"right_children":[2,4,6,8,10,12,14,-1,16,18,20,22,24,26,28,-1,-1,-1,30,32,34,36,38,40,42,-1,-1,44,46,-1,-1,-1,-1,-1,-1,-1,-1,-1,-1,-1,-1,-1,-1,-1,-1,-1,-1],"split_conditions":[-4.9336448E-1,-1.7661973E0,3.5560402E-1,1.5440193E0,-1.5131476E0,1.687573E0,-1.2668488E0,3.325639E-2,2.8019485E-1,-2.8882325E0,7.8623474E-1,1.9413161E-1,-3.1120294E-1,3.6040747E-1,2.4268322E0,1.425216E-3,1.9284403E-2,-1.3113683E-3,-1.3738763E0,3E0,-5.4941654E-1,-1.8874406E0,4.6579218E-1,5.164463E-1,3.4204492E-1,3.8066795E-3,2.8011663E-2,2.8468652E0,-7.005984E-2,2.4628034E-3,3.4875497E-2,1.2126846E-2,-1.8342005E-2,1.7319124E-2,-1.0725115E-2,2.0535303E-2,-1.2949598E-2,-4.180419E-3,2.3648694E-2,1.7694192E-2,-8.493316E-3,7.166439E-3,-1.060027E-2,-1.4983587E-2,1.7170072E-2,-1.1830554E-2,2.4829807E-2],"split_indices":[2,2,2,57,71,4,71,0,21,88,96,32,9,48,93,0,0,0,98,28,94,46,88,88,25,0,0,21,59,0,0,0,0,0,0,0,0,0,0,0,0,0,0,0,0,0,0],"split_type":[0,0,0,0,0,0,0,0,0,0,0,0,0,0,0,0,0,0,0,0,0,0,0,0,0,0,0,0,0,0,0,0,0,0,0,0,0,0,0,0,0,0,0,0,0,0,0],"sum_hessian":[7.69607E2,2.8067545E2,4.8893158E2,3.5274326E1,2.4540111E2,2.608576E2,2.2807399E2,3.2920723E1,2.3536038E0,1.7652664E1,2.2774844E2,1.6726309E2,9.359449E1,3.2641733E0,2.2480981E2,1.2454095E0,1.1081944E0,1.5526652E0,1.6099998E1,2.0218373E2,2.5564713E1,8.5577805E1,8.1685295E1,4.1183952E1,5.241054E1,1.1416575E0,2.1225157E0,2.1699612E2,7.8136907E0,1.2122538E0,1.4887745E1,1.9825711E2,3.9266193E0,5.4187236E0,2.014599E1,2.6944253E0,8.2883385E1,7.695172E1,4.73357E0,3.5746002E1,5.4379525E0,2.2587543E1,2.9822998E1,2.1568697E2,1.3091686E0,4.689385E0,3.1243057E0],"tree_param":{"num_deleted":"0","num_feature":"100","num_nodes":"47","size_leaf_vector":"1"}},{"base_weights":[1.5014995E-2,-3.489485E-1,3.7287545E-1,-5.052245E-1,-1.7107049E-1,1.8262954E-1,5.7691157E-1,-2.72708E-1,-5.3080773E-1,3.8647223E-1,-2.1023628E-1,3.5885677E-2,4.3032372E-1,6.593621E-1,2.276146E-1,2.970255E-1,-4.9578544E-1,-5.448872E-1,-3.273902E-2,-2.185145E-1,7.462255E-1,4.4085792E-1,-2.3892553E-1,1.2880278E-1,-3.2448792E-1,3.1679347E-1,8.6138874E-1,3.9131735E-2,7.0229626E-1,6.0566485E-2,7.5483054E-1,-6.8912036E-3,2.6194401E-2,-8.308201E-6,-1.8081637E-2,-1.6854381E-2,-4.939731E-3,-1.5327701E-2,1.418338E-2,1.209916E-2,-1.65406E-2,-1.3108897E-2,3.2579884E-2,-1.4653673E-2,2.6531104E-2,-7.8970445E-3,9.998073E-3,-6.5569807E-4,1.2564291E-2,2.5316149E-2,-1.2976144E-2,5.6903767E-3,2.2134276E-2,-1.1083258E-3,3.2079775E-2,-5.4408056E-3,2.3813022E-2,1.7923055E-2,2.8039783E-2,-5.733146E-3,1.8519295E-2,3.3058524E-2,-4.378938E-3],"categories":[],"categories_nodes":[],"categories_segments":[],"categories_sizes":[],"default_left":[0,0,0,0,0,0,0,0,0,0,0,0,0,0,0,0,0,0,0,0,0,0,0,0,0,0,0,0,0,0,0,0,0,0,0,0,0,0,0,0,0,0,0,0,0,0,0,0,0,0,0,0,0,0,0,0,0,0,0,0,0,0,0],"id":27,"left_children":[1,3,5,7,9,11,13,15,17,19,21,23,25,27,29,31,33,35,37,39,41,43,45,47,49,51,53,55,57,59,61,-1,-1,-1,-1,-1,-1,-1,-1,-1,-1,-1,-1,-1,-1,-1,-1,-1,-1,-1,-1,-1,-1,-1,-1,-1,-1,-1,-1,-1,-1,-1,-1],"loss_changes":[1.0140116E2,1.0643387E1,1.5131577E1,1.0744591E0,4.0561934E0,7.421056E0,5.291298E0,2.990698E0,1.269577E0,2.8401484E0,3.2944841E0,4.380405E0,3.4476805E0,4.0289154E0,3.2664924E0,2.3006577E0,8.71593E-1,1.0560951E0,1.7187525E0,1.3317549E0,3.666493E0,3.5466504E0,2.3713293E0,4.5411577E0,3.7537959E0,3.1651454E0,2.8913202E0,1.9611229E0,2.911522E0,4.2719736E0,2.9630737E0,0E0,0E0,0E0,0E0,0E0,0E0,0E0,0E0,0E0,0E0,0E0,0E0,0E0,0E0,0E0,0E0,0E0,0E0,0E0,0E0,0E0,0E0,0E0,0E0,0E0,0E0,0E0,0E0,0E0,0E0,0E0,0E0],"parents":[2147483647,0,0,1,1,2,2,3,3,4,4,5,5,6,6,7,7,8,8,9,9,10,10,11,11,12,12,13,13,14,14,15,15,16,16,17,17,18,18,19,19,20,20,21,21,22,22,23,23,24,24,25,25,26,26,27,27,28,28,29,29,30,30],"right_children":[2,4,6,8,10,12,14,16,18,20,22,24,26,28,30,32,34,36,38,40,42,44,46,48,50,52,54,56,58,60,62,-1,-1,-1,-1,-1,-1,-1,-1,-1,-1,-1,-1,-1,-1,-1,-1,-1,-1,-1,-1,-1,-1,-1,-1,-1,-1,-1,-1,-1,-1,-1,-1],"split_conditions":[-5.871881E-2,-8.183406E-1,7.517999E-1,-2.1688025E-1,-7.510515E-1,3.6117104E-1,4.0296644E-1,9.0640765E-1,1.6071671E0,-2.6646316E-2,-3.7767845E-1,1.1525258E0,1.6320007E-1,-5.2599937E-1,1.1932019E0,-1.7993048E-1,-2.5595886E-1,1.3122352E0,-5.2599937E-1,-1.422078E-1,-1.5493104E0,-1.73382E0,1.9687037E0,3.743897E-1,-6.532856E-1,1.5157607E0,-9.221706E-1,1.7956667E-1,3.8285112E-1,5.636842E-1,2.073966E0,-6.8912036E-3,2.6194401E-2,-8.308201E-6,-1.8081637E-2,-1.6854381E-2,-4.939731E-3,-1.5327701E-2,1.418338E-2,1.209916E-2,-1.65406E-2,-1.3108897E-2,3.2579884E-2,-1.4653673E-2,2.6531104E-2,-7.8970445E-3,9.998073E-3,-6.5569807E-4,1.2564291E-2,2.5316149E-2,-1.2976144E-2,5.6903767E-3,2.2134276E-2,-1.1083258E-3,3.2079775E-2,-5.4408056E-3,2.3813022E-2,1.7923055E-2,2.8039783E-2,-5.733146E-3,1.8519295E-2,3.3058524E-2,-4.378938E-3],"split_indices":[2,3,3,57,45,29,1,54,72,61,76,99,53,91,87,95,98,12,91,95,78,89,78,91,63,79,91,97,98,30,87,0,0,0,0,0,0,0,0,0,0,0,0,0,0,0,0,0,0,0,0,0,0,0,0,0,0,0,0,0,0,0,0],"split_type":[0,0,0,0,0,0,0,0,0,0,0,0,0,0,0,0,0,0,0,0,0,0,0,0,0,0,0,0,0,0,0,0,0,0,0,0,0,0,0,0,0,0,0,0,0,0,0,0,0,0,0,0,0,0,0,0,0,0,0,0,0,0,0],"sum_hessian":[7.765239E2,3.8499155E2,3.9153238E2,2.0396039E2,1.8103116E2,2.0359389E2,1.8793849E2,2.137259E1,1.825878E2,1.1300194E1,1.6973096E2,1.2856924E2,7.502464E1,1.5132983E2,3.6608646E1,5.9204464E0,1.5452143E1,1.7747688E2,5.110919E0,4.3602633E0,6.9399304E0,6.556919E0,1.6317404E2,1.0272554E2,2.5843702E1,6.07577E1,1.4266942E1,9.921048E0,1.414088E2,2.8646803E1,7.961845E0,3.4068975E0,2.5135486E0,2.9207685E0,1.2531374E1,1.6945615E2,8.020728E0,2.620973E0,2.4899461E0,1.4463791E0,2.9138842E0,1.484473E0,5.4554577E0,2.0855742E0,4.471345E0,1.5704218E2,6.1318717E0,6.821323E1,3.4512318E1,1.6112349E0,2.4232468E1,4.7781815E1,1.2975887E1,2.836215E0,1.1430727E1,8.265639E0,1.6554093E0,9.98979E1,4.151089E1,2.0180923E1,8.4658785E0,5.5859838E0,2.3758612E0],"tree_param":{"num_deleted":"0","num_feature":"100","num_nodes":"63","size_leaf_vector":"1"}},{"base_weights":[-3.6482906E-3,-5.688807E-1,2.6707223E-2,9.0494E-3,-6.027558E-1,-3.913422E-1,7.0352204E-2,-6.376644E-1,3.282346E-3,-2.1727997E-1,-6.3718355E-1,-2.1763764E-1,1.1418326E-1,-2.0302434E-2,4.1356375E-3,2.4801083E-2,-5.17031E-1,-2.0617887E-2,7.1324366E-3,-3.214926E-1,3.5364982E-1,1.4836608E-1,-2.2285749E-1,6.7798533E-3,-1.8324785E-2,-1.7619412E-2,9.313233E-3,5.8559785E-3,-1.2793549E-2,-1.0185266E-2,2.1220265E-2,-1.5913922E-2,4.907223E-3,1.9017154E-2,-9.631553E-3],"categories":[],"categories_nodes":[],"categories_segments":[],"categories_sizes":[],"default_left":[0,0,0,0,0,0,0,0,0,0,0,0,0,0,0,0,0,0,0,0,0,0,0,0,0,0,0,0,0,0,0,0,0,0,0],"id":28,"left_children":[1,3,5,-1,7,9,11,13,-1,15,17,19,21,-1,-1,23,25,-1,-1,27,29,31,33,-1,-1,-1,-1,-1,-1,-1,-1,-1,-1,-1,-1],"loss_changes":[1.2996462E1,1.3202629E0,1.3145692E1,0E0,1.001873E0,2.7764463E0,8.253116E0,1.1810398E0,0E0,3.0168798E0,1.3779554E0,5.2427998E0,6.558599E0,0E0,0E0,3.1889455E0,1.2606726E0,0E0,0E0,4.078725E0,3.6171346E0,5.4018927E0,4.624919E0,0E0,0E0,0E0,0E0,0E0,0E0,0E0,0E0,0E0,0E0,0E0,0E0],"parents":[2147483647,0,0,1,1,2,2,4,4,5,5,6,6,7,7,9,9,10,10,11,11,12,12,15,15,16,16,19,19,20,20,21,21,22,22],"right_children":[2,4,6,-1,8,10,12,14,-1,16,18,20,22,-1,-1,24,26,-1,-1,28,30,32,34,-1,-1,-1,-1,-1,-1,-1,-1,-1,-1,-1,-1],"split_conditions":[-1.6733617E0,-1.2374158E0,-8.772175E-1,9.0494E-3,5.2500236E-1,9.672164E-1,-9.382338E-1,1.3546295E0,3.282346E-3,7.337115E-1,1.8660247E-1,1.7431726E0,1.2093191E0,-2.0302434E-2,4.1356375E-3,-1.09733E0,-1.0742332E-1,-2.0617887E-2,7.1324366E-3,-1.7559016E0,-4.2469802E-1,-1.8415458E0,-1.0473492E0,6.7798533E-3,-1.8324785E-2,-1.7619412E-2,9.313233E-3,5.8559785E-3,-1.2793549E-2,-1.0185266E-2,2.1220265E-2,-1.5913922E-2,4.907223E-3,1.9017154E-2,-9.631553E-3],"split_indices":[3,12,57,0,14,87,39,84,0,70,13,61,3,0,0,57,72,0,0,50,19,71,73,0,0,0,0,0,0,0,0,0,0,0,0],"split_type":[0,0,0,0,0,0,0,0,0,0,0,0,0,0,0,0,0,0,0,0,0,0,0,0,0,0,0,0,0,0,0,0,0,0,0],"sum_hessian":[7.5557587E2,3.7605476E1,7.179704E2,1.112467E0,3.649301E1,6.7118225E1,6.508522E2,3.488753E1,1.6054796E0,4.0398693E1,2.6719528E1,8.5448906E1,5.6540326E2,3.333493E1,1.5526013E0,2.2856712E1,1.754198E1,2.5475836E1,1.2436936E0,7.267457E1,1.2774341E1,5.138483E2,5.1554924E1,1.7850863E1,5.00585E0,1.6436178E1,1.105803E0,1.2125152E1,6.0549416E1,4.3295274E0,8.444813E0,1.0517231E1,5.0333112E2,4.740201E0,4.6814724E1],"tree_param":{"num_deleted":"0","num_feature":"100","num_nodes":"35","size_leaf_vector":"1"}},{"base_weights":[-9.789368E-3,4.0377766E-1,-2.783678E-1,7.0566165E-1,1.8264621E-1,-1.13730706E-1,-4.556672E-1,7.586631E-1,-8.069022E-2,5.6962895E-1,8.743356E-2,-2.4673137E-1,1.15356915E-1,2.903797E-1,-4.8602867E-1,7.8816426E-1,-1.3546129E-1,2.4901394E-2,-4.9935973E-1,1.12844996E-1,8.277349E-1,1.612885E-1,-4.533045E-1,-4.1423702E-1,-1.05085604E-1,3.2619852E-1,-1.6970074E-1,-1.5385249E-2,6.364735E-1,-3.1613004E-1,-5.8129746E-1,7.279126E-3,2.5197204E-2,-1.6686076E-2,1.957359E-2,-1.9198734E-2,2.7643752E-3,-1.2252732E-2,2.419401E-2,7.1727317E-3,3.1683706E-2,-1.4695281E-3,1.0182501E-2,-1.889234E-2,1.2852044E-2,-1.439074E-2,1.5804993E-2,-7.180087E-3,1.0890686E-2,6.204325E-3,3.073221E-2,1.0431403E-2,-1.1639621E-2,-3.906787E-3,2.9386653E-2,-1.3980861E-2,1.6889823E-4,-1.8730368E-2,-1.9348249E-3],"categories":[],"categories_nodes":[],"categories_segments":[],"categories_sizes":[],"default_left":[0,0,0,0,0,0,0,0,0,0,0,0,0,0,0,0,0,0,0,0,0,0,0,0,0,0,0,0,0,0,0,0,0,0,0,0,0,0,0,0,0,0,0,0,0,0,0,0,0,0,0,0,0,0,0,0,0,0,0],"id":29,"left_children":[1,3,5,7,9,11,13,15,17,19,21,23,25,27,29,31,33,-1,35,37,39,41,43,45,47,49,51,-1,53,55,57,-1,-1,-1,-1,-1,-1,-1,-1,-1,-1,-1,-1,-1,-1,-1,-1,-1,-1,-1,-1,-1,-1,-1,-1,-1,-1,-1,-1],"loss_changes":[8.6255615E1,2.0282333E1,1.3690315E1,5.4345627E0,6.5025535E0,7.506729E0,5.268009E0,3.295311E0,3.8633134E0,4.025133E0,5.819916E0,3.6484203E0,5.514747E0,2.9609442E0,3.3425941E0,3.1034622E0,1.9257358E0,0E0,6.262188E-1,5.3081603E0,2.7270432E0,4.7863994E0,3.0007381E0,4.6233053E0,5.4694805E0,4.1691713E0,4.5711803E0,0E0,1.987119E0,3.8836098E0,3.0387383E0,0E0,0E0,0E0,0E0,0E0,0E0,0E0,0E0,0E0,0E0,0E0,0E0,0E0,0E0,0E0,0E0,0E0,0E0,0E0,0E0,0E0,0E0,0E0,0E0,0E0,0E0,0E0,0E0],"parents":[2147483647,0,0,1,1,2,2,3,3,4,4,5,5,6,6,7,7,8,8,9,9,10,10,11,11,12,12,13,13,