{"learner":{"attributes":{"best_iteration":"109","best_score":"0.9753479898727241","scikit_learn":"{\"_estimator_type\": \"classifier\"}"},"feature_names":[],"feature_types":[],"gradient_booster":{"model":{"cats":{"enc":[],"feature_segments":[],"sorted_idx":[]},"gbtree_model_param":{"num_parallel_tree":"1","num_trees":"420"},"iteration_indptr":[0,3,6,9,12,15,18,21,24,27,30,33,36,39,42,45,48,51,54,57,60,63,66,69,72,75,78,81,84,87,90,93,96,99,102,105,108,111,114,117,120,123,126,129,132,135,138,141,144,147,150,153,156,159,162,165,168,171,174,177,180,183,186,189,192,195,198,201,204,207,210,213,216,219,222,225,228,231,234,237,240,243,246,249,252,255,258,261,264,267,270,273,276,279,282,285,288,291,294,297,300,303,306,309,312,315,318,321,324,327,330,333,336,339,342,345,348,351,354,357,360,363,366,369,372,375,378,381,384,387,390,393,396,399,402,405,408,411,414,417,420],"tree_info":[0,1,2,0,1,2,0,1,2,0,1,2,0,1,2,0,1,2,0,1,2,0,1,2,0,1,2,0,1,2,0,1,2,0,1,2,0,1,2,0,1,2,0,1,2,0,1,2,0,1,2,0,1,2,0,1,2,0,1,2,0,1,2,0,1,2,0,1,2,0,1,2,0,1,2,0,1,2,0,1,2,0,1,2,0,1,2,0,1,2,0,1,2,0,1,2,0,1,2,0,1,2,0,1,2,0,1,2,0,1,2,0,1,2,0,1,2,0,1,2,0,1,2,0,1,2,0,1,2,0,1,2,0,1,2,0,1,2,0,1,2,0,1,2,0,1,2,0,1,2,0,1,2,0,1,2,0,1,2,0,1,2,0,1,2,0,1,2,0,1,2,0,1,2,0,1,2,0,1,2,0,1,2,0,1,2,0,1,2,0,1,2,0,1,2,0,1,2,0,1,2,0,1,2,0,1,2,0,1,2,0,1,2,0,1,2,0,1,2,0,1,2,0,1,2,0,1,2,0,1,2,0,1,2,0,1,2,0,1,2,0,1,2,0,1,2,0,1,2,0,1,2,0,1,2,0,1,2,0,1,2,0,1,2,0,1,2,0,1,2,0,1,2,0,1,2,0,1,2,0,1,2,0,1,2,0,1,2,0,1,2,0,1,2,0,1,2,0,1,2,0,1,2,0,1,2,0,1,2,0,1,2,0,1,2,0,1,2,0,1,2,0,1,2,0,1,2,0,1,2,0,1,2,0,1,2,0,1,2,0,1,2,0,1,2,0,1,2,0,1,2,0,1,2,0,1,2,0,1,2,0,1,2,0,1,2,0,1,2,0,1,2,0,1,2,0,1,2,0,1,2,0,1,2,0,1,2,0,1,2,0,1,2,0,1,2,0,1,2,0,1,2,0,1,2,0,1,2,0,1,2,0,1,2,0,1,2,0,1,2],"trees":[{"base_weights":[2.2033447E-2,-3.7643275E-1,5.19747E-1,-5.241836E-1,-1.551394E-1,3.5565913E-1,9.2880833E-1,-5.6293136E-1,-3.120995E-1,1.0897697E-1,-2.371996E-1,5.026631E-1,2.2078088E-1,7.3833317E-1,1.3787155E0,1.4812891E-1,-5.70725E-1,-4.898607E-1,-5.503554E-2,3.5406232E-1,-2.2981864E-1,-2.932614E-1,-1.6482707E-2,6.399556E-1,1.9916175E-1,8.6880237E-1,1.7123859E-1,6.5157473E-1,1.240625E0,1.40998E0,-9.0298353E-4,-9.988456E-3,2.482609E-2,-2.0298472E-2,-1.5366733E-2,-1.0532358E-3,-1.7951636E-2,-1.5421367E-2,7.6109585E-3,-1.4697558E-2,1.4263961E-2,2.482609E-2,-9.162677E-3,6.533267E-3,-9.74911E-3,-3.4509765E-3,3.3059992E-2,2.2076929E-2,4.147935E-3,1.4390045E-2,-4.3281945E-3,-5.191732E-4,3.513646E-2,8.198469E-3,-3.7439372E-3,2.6642112E-2,1.2182938E-2,4.1767407E-2,4.8231143E-3,4.3279003E-2,-9.0298353E-4],"categories":[],"categories_nodes":[],"categories_segments":[],"categories_sizes":[],"default_left":[0,0,0,0,0,0,0,0,0,0,0,0,0,0,0,0,0,0,0,0,0,0,0,0,0,0,0,0,0,0,0,0,0,0,0,0,0,0,0,0,0,0,0,0,0,0,0,0,0,0,0,0,0,0,0,0,0,0,0,0,0],"id":0,"left_children":[1,3,5,7,9,11,13,15,17,19,21,23,25,27,29,31,33,35,37,39,41,43,45,47,49,51,53,55,57,59,-1,-1,-1,-1,-1,-1,-1,-1,-1,-1,-1,-1,-1,-1,-1,-1,-1,-1,-1,-1,-1,-1,-1,-1,-1,-1,-1,-1,-1,-1,-1],"loss_changes":[2.5413588E2,2.318872E1,3.791182E1,3.3279266E0,6.2322235E0,7.983631E0,1.2906937E1,2.0753632E0,3.0851574E0,5.774643E0,2.7024612E0,7.9795837E0,6.7436934E0,4.260338E0,2.1204605E0,1.8080304E0,1.8559494E0,1.959836E0,4.2356052E0,4.349724E0,2.6019511E0,2.8970928E0,5.1284194E0,6.324505E0,6.046922E0,4.040395E0,6.0965757E0,5.5195465E0,2.3999424E0,2.214737E0,0E0,0E0,0E0,0E0,0E0,0E0,0E0,0E0,0E0,0E0,0E0,0E0,0E0,0E0,0E0,0E0,0E0,0E0,0E0,0E0,0E0,0E0,0E0,0E0,0E0,0E0,0E0,0E0,0E0,0E0,0E0],"parents":[2147483647,0,0,1,1,2,2,3,3,4,4,5,5,6,6,7,7,8,8,9,9,10,10,11,11,12,12,13,13,14,14,15,15,16,16,17,17,18,18,19,19,20,20,21,21,22,22,23,23,24,24,25,25,26,26,27,27,28,28,29,29],"right_children":[2,4,6,8,10,12,14,16,18,20,22,24,26,28,30,32,34,36,38,40,42,44,46,48,50,52,54,56,58,60,-1,-1,-1,-1,-1,-1,-1,-1,-1,-1,-1,-1,-1,-1,-1,-1,-1,-1,-1,-1,-1,-1,-1,-1,-1,-1,-1,-1,-1,-1,-1],"split_conditions":[4.3189626E-2,-5.0734794E-1,1.1427418E0,-1.6254607E-1,-7.802023E-1,-1.21335715E-1,1.5709018E0,-1.4120277E0,8.731723E-2,1.7946949E0,3.4541675E-1,1.7946949E0,-1.3761907E0,3.8092437E-1,1.1487083E0,-1.2038469E-1,-9.872398E-1,-7.70665E-1,-8.36806E-1,-6.1540717E-1,-5.7132316E-1,-1.054861E0,7.506552E-1,4.383281E-1,5.6755084E-1,-1.094851E-1,7.9696846E-1,-9.3055494E-2,1.5006106E0,1.15916E0,-9.0298353E-4,-9.988456E-3,2.482609E-2,-2.0298472E-2,-1.5366733E-2,-1.0532358E-3,-1.7951636E-2,-1.5421367E-2,7.6109585E-3,-1.4697558E-2,1.4263961E-2,2.482609E-2,-9.162677E-3,6.533267E-3,-9.74911E-3,-3.4509765E-3,3.3059992E-2,2.2076929E-2,4.147935E-3,1.4390045E-2,-4.3281945E-3,-5.191732E-4,3.513646E-2,8.198469E-3,-3.7439372E-3,2.6642112E-2,1.2182938E-2,4.1767407E-2,4.8231143E-3,4.3279003E-2,-9.0298353E-4],"split_indices":[2,2,3,88,13,95,3,13,96,4,91,4,98,99,10,23,63,73,2,20,45,89,14,45,36,28,62,96,64,35,0,0,0,0,0,0,0,0,0,0,0,0,0,0,0,0,0,0,0,0,0,0,0,0,0,0,0,0,0,0,0],"split_type":[0,0,0,0,0,0,0,0,0,0,0,0,0,0,0,0,0,0,0,0,0,0,0,0,0,0,0,0,0,0,0,0,0,0,0,0,0,0,0,0,0,0,0,0,0,0,0,0,0,0,0,0,0,0,0,0,0,0,0,0,0],"sum_hessian":[1.279444E3,7.1070325E2,5.6874066E2,4.253448E2,2.853585E2,4.0724915E2,1.614915E2,3.5824E2,6.710479E1,6.756569E1,2.177928E2,1.9356055E2,2.136886E2,1.1531303E2,4.6178482E1,3.6887398E0,3.5455124E2,3.9136246E1,2.7968544E1,3.917869E1,2.8387E1,1.7341656E2,4.437624E1,1.3250963E2,6.1050922E1,1.4002109E1,1.9968648E2,1.0028798E2,1.5025049E1,4.5175125E1,1.0033574E0,2.4581246E0,1.2306154E0,1.22411255E2,2.3213998E2,7.795377E0,3.134087E1,1.0979611E1,1.6988932E1,4.5452356E0,3.4633457E1,1.2306154E0,2.7156385E1,9.788721E0,1.6362784E2,4.1607357E1,2.7688847E0,1.1084508E2,2.1664553E1,3.3385807E1,2.7665115E1,3.8026485E0,1.019946E1,1.4855609E2,5.1130386E1,4.9745113E1,5.0542862E1,1.2921461E1,2.1035876E0,4.417177E1,1.0033574E0],"tree_param":{"num_deleted":"0","num_feature":"113","num_nodes":"61","size_leaf_vector":"1"}},{"base_weights":[6.0671046E-3,-6.1939234E-1,3.3317212E-2,1.2171822E-2,-6.46619E-1,-3.509518E-1,7.9097465E-2,-6.996151E-1,-2.4768269E-1,-4.2105755E-1,1.8680249E-1,9.1484584E-2,-2.1193065E-2,3.5584674E-3,-2.1991933E-2,1.7975237E-2,-1.8653298E-2,-9.706876E-2,-5.0462055E-1,-4.201595E-1,6.016755E-1,1.0839179E-1,-5.1370895E-1,1.6553385E-2,-1.296193E-2,1.0619634E-2,-1.640429E-2,1.2171822E-2,-1.8760076E-2,-1.5057494E-2,2.8573388E-2,1.3479172E-3,6.4106598E-3,9.642311E-3,-1.8196173E-2],"categories":[],"categories_nodes":[],"categories_segments":[],"categories_sizes":[],"default_left":[0,0,0,0,0,0,0,0,0,0,0,0,0,0,0,0,0,0,0,0,0,0,0,0,0,0,0,0,0,0,0,0,0,0,0],"id":1,"left_children":[1,3,5,-1,7,9,11,13,15,17,19,21,-1,-1,-1,-1,-1,23,25,27,29,31,33,-1,-1,-1,-1,-1,-1,-1,-1,-1,-1,-1,-1],"loss_changes":[2.1915424E1,1.7606697E0,2.1699846E1,0E0,9.4046974E-1,5.0296593E0,1.0783792E1,1.344677E0,2.8200324E0,3.1047707E0,4.2412443E0,1.11615305E1,0E0,0E0,0E0,0E0,0E0,5.699083E0,3.539425E0,1.4431986E0,4.2792172E0,7.0516624E0,2.4952884E0,0E0,0E0,0E0,0E0,0E0,0E0,0E0,0E0,0E0,0E0,0E0,0E0],"parents":[2147483647,0,0,1,1,2,2,4,4,5,5,6,6,7,7,8,8,9,9,10,10,11,11,17,17,18,18,19,19,20,20,21,21,22,22],"right_children":[2,4,6,-1,8,10,12,14,16,18,20,22,-1,-1,-1,-1,-1,24,26,28,30,32,34,-1,-1,-1,-1,-1,-1,-1,-1,-1,-1,-1,-1],"split_conditions":[-1.6925681E0,-1.1972805E0,-8.6577904E-1,1.2171822E-2,-1.0856973E0,-7.221114E-2,2.2575114E0,-2.6810646E-1,-7.044791E-1,-1.2640104E0,-4.9237195E-1,1.5277437E0,-2.1193065E-2,3.5584674E-3,-2.1991933E-2,1.7975237E-2,-1.8653298E-2,1.2521156E0,-5.8328253E-1,-1.5625174E0,-6.8286335E-1,8.279857E-1,-1.4257319E0,1.6553385E-2,-1.296193E-2,1.0619634E-2,-1.640429E-2,1.2171822E-2,-1.8760076E-2,-1.5057494E-2,2.8573388E-2,1.3479172E-3,6.4106598E-3,9.642311E-3,-1.8196173E-2],"split_indices":[3,55,82,0,87,32,20,11,87,66,80,3,0,0,0,0,0,56,14,80,44,90,80,0,0,0,0,0,0,0,0,0,0,0,0],"split_type":[0,0,0,0,0,0,0,0,0,0,0,0,0,0,0,0,0,0,0,0,0,0,0,0,0,0,0,0,0,0,0,0,0,0,0],"sum_hessian":[1.2836161E3,5.2682747E1,1.2309333E3,1.003354E0,5.1679394E1,1.3032756E2,1.1006057E3,4.4953865E1,6.7255297E0,1.15488594E2,1.4838968E1,1.0843895E3,1.6216269E1,1.6655425E0,4.3288322E1,1.876323E0,4.8492064E0,2.4122593E1,9.1366E1,6.019564E0,8.819405E0,1.0557169E3,2.8672518E1,7.9933186E0,1.6129274E1,3.93302E0,8.7432976E1,1.003354E0,5.01621E0,2.0231843E0,6.7962203E0,6.5960645E2,3.9611053E2,2.6220133E0,2.6050505E1],"tree_param":{"num_deleted":"0","num_feature":"113","num_nodes":"35","size_leaf_vector":"1"}},{"base_weights":[-1.2288331E-2,5.0539523E-1,-3.4642747E-1,1.2614824E0,3.9651328E-1,-2.2114243E-1,-5.603496E-1,-3.2976419E-3,1.3047864E0,1.160726E0,3.6137828E-1,-3.1375647E-1,3.1466817E-3,3.9210618E-1,-5.732073E-1,-1.1268833E-2,1.3386085E0,4.0975217E-2,2.5744168E-3,4.6358603E-1,1.868223E-1,-3.3793256E-1,4.0524003E-1,2.8008115E-1,-1.589296E-1,2.4747567E-2,-1.2413074E-2,-3.9075986E-1,-6.2446666E-1,4.084822E-2,2.8286376E-3,1.6123308E-2,-1.39078135E-2,7.890414E-3,1.6986262E-2,2.1510979E-3,1.4430582E-2,-2.7636616E-3,-1.1790268E-2,2.691112E-2,-7.5980094E-3,2.966237E-3,2.2584343E-2,-1.3664419E-2,-1.0168334E-4,-1.8914985E-2,-7.2770417E-3,-1.0237275E-2,-1.9746952E-2],"categories":[],"categories_nodes":[],"categories_segments":[],"categories_sizes":[],"default_left":[0,0,0,0,0,0,0,0,0,0,0,0,0,0,0,0,0,0,0,0,0,0,0,0,0,0,0,0,0,0,0,0,0,0,0,0,0,0,0,0,0,0,0,0,0,0,0,0,0],"id":2,"left_children":[1,3,5,7,9,11,13,-1,15,17,19,21,23,25,27,-1,29,-1,31,33,35,37,39,41,43,-1,-1,45,47,-1,-1,-1,-1,-1,-1,-1,-1,-1,-1,-1,-1,-1,-1,-1,-1,-1,-1,-1,-1],"loss_changes":[2.252295E2,4.154802E1,2.1083687E1,3.934494E0,1.1607658E1,1.0401333E1,3.7959137E0,0E0,4.024315E0,4.5661526E0,7.5794907E0,6.2967796E0,6.656594E0,1.9032041E0,2.4506226E0,0E0,1.6160812E0,0E0,1.2206191E0,5.415409E0,5.396467E0,4.612694E0,4.107808E0,4.615369E0,4.314213E0,0E0,0E0,2.1871958E0,1.9104767E0,0E0,0E0,0E0,0E0,0E0,0E0,0E0,0E0,0E0,0E0,0E0,0E0,0E0,0E0,0E0,0E0,0E0,0E0,0E0,0E0],"parents":[2147483647,0,0,1,1,2,2,3,3,4,4,5,5,6,6,8,8,9,9,10,10,11,11,12,12,13,13,14,14,16,16,18,18,19,19,20,20,21,21,22,22,23,23,24,24,27,27,28,28],"right_children":[2,4,6,8,10,12,14,-1,16,18,20,22,24,26,28,-1,30,-1,32,34,36,38,40,42,44,-1,-1,46,48,-1,-1,-1,-1,-1,-1,-1,-1,-1,-1,-1,-1,-1,-1,-1,-1,-1,-1,-1,-1],"split_conditions":[-5.070698E-1,-1.667068E0,7.6374346E-1,-2.6810646E-1,-2.1395614E0,1.7946949E0,-1.3773785E0,-3.2976419E-3,-1.1972805E0,1.0609888E0,-8.7082696E-1,1.4290423E0,-2.7988565E-1,1.1885183E0,3.4879908E-1,-1.1268833E-2,4.6128246E-1,4.0975217E-2,-2.4352455E0,-6.8286335E-1,1.7946949E0,-2.1108182E-1,-1.8319137E-1,9.16774E-1,-5.900443E-2,2.4747567E-2,-1.2413074E-2,-8.308589E-2,-2.6920724E-1,4.084822E-2,2.8286376E-3,1.6123308E-2,-1.39078135E-2,7.890414E-3,1.6986262E-2,2.1510979E-3,1.4430582E-2,-2.7636616E-3,-1.1790268E-2,2.691112E-2,-7.5980094E-3,2.966237E-3,2.2584343E-2,-1.3664419E-2,-1.0168334E-4,-1.8914985E-2,-7.2770417E-3,-1.0237275E-2,-1.9746952E-2],"split_indices":[3,2,3,11,46,4,12,0,55,81,3,89,38,20,88,0,14,0,32,44,4,2,97,1,44,0,0,97,14,0,0,0,0,0,0,0,0,0,0,0,0,0,0,0,0,0,0,0,0],"split_type":[0,0,0,0,0,0,0,0,0,0,0,0,0,0,0,0,0,0,0,0,0,0,0,0,0,0,0,0,0,0,0,0,0,0,0,0,0,0,0,0,0,0,0,0,0,0,0,0,0],"sum_hessian":[1.3000554E3,5.0976352E2,7.902919E2,6.283629E1,4.4692722E2,4.996828E2,2.906091E2,1.8763247E0,6.0959965E1,1.8236362E1,4.2869086E2,3.533696E2,1.4631319E2,3.4779494E0,2.8713113E2,1.0033548E0,5.995661E1,1.5340206E1,2.8961558E0,2.6933273E2,1.5935814E2,3.4238693E2,1.0982688E1,5.3747868E1,9.256532E1,2.2473373E0,1.230612E0,6.486837E1,2.2226277E2,5.8775986E1,1.1806228E0,1.2774951E0,1.6186608E0,9.2367256E1,1.7696547E2,1.1543303E2,4.3925102E1,6.3162056E1,2.7922485E2,6.0798225E0,4.9028654E0,3.9728374E1,1.4019493E1,3.1183275E1,6.1382046E1,2.3536768E1,4.13316E1,2.485804E1,1.9740472E2],"tree_param":{"num_deleted":"0","num_feature":"113","num_nodes":"49","size_leaf_vector":"1"}},{"base_weights":[6.138658E-3,-3.6929423E-1,5.018289E-1,-5.2441585E-1,-1.7965274E-1,4.3330166E-1,1.233083E0,3.0943576E-1,-5.341474E-1,-4.3584492E-2,-3.104297E-1,8.4634274E-1,3.7964293E-1,1.2820323E0,1.3957542E-1,2.381123E-2,-1.4013016E-2,5.6279097E-2,-5.472307E-1,1.9461693E-1,-1.401735E-1,1.2503402E-1,-3.8462433E-1,1.0008112E0,1.4479615E-1,4.6753043E-1,9.994996E-2,1.3139358E0,-1.3550781E-3,7.5104926E-3,-1.3616947E-3,1.6021058E-2,-1.7443035E-2,-1.762307E-2,-1.1652075E-2,-2.9909492E-3,1.460429E-2,-6.2177884E-3,1.6348602E-2,1.1317725E-2,-1.911211E-2,-1.2021718E-2,2.4619358E-2,9.297184E-3,3.292397E-2,2.4937313E-2,-5.6059915E-3,1.89002E-2,1.0506922E-2,-5.0294316E-6,1.5493446E-2,4.039126E-2,4.7256905E-3],"categories":[],"categories_nodes":[],"categories_segments":[],"categories_sizes":[],"default_left":[0,0,0,0,0,0,0,0,0,0,0,0,0,0,0,0,0,0,0,0,0,0,0,0,0,0,0,0,0,0,0,0,0,0,0,0,0,0,0,0,0,0,0,0,0,0,0,0,0,0,0,0,0],"id":3,"left_children":[1,3,5,7,9,11,13,15,17,19,21,23,25,27,29,-1,-1,31,33,35,37,39,41,43,45,47,49,51,-1,-1,-1,-1,-1,-1,-1,-1,-1,-1,-1,-1,-1,-1,-1,-1,-1,-1,-1,-1,-1,-1,-1,-1,-1],"loss_changes":[2.4034059E2,2.1524338E1,2.7356735E1,3.441269E0,5.897375E0,1.0991699E1,2.3447266E0,2.3602161E0,3.1162338E0,3.799545E0,5.515335E0,6.1267242E0,1.1102585E1,1.965004E0,7.574626E-2,0E0,0E0,3.2249134E0,2.2677383E0,4.1524086E0,5.501397E0,5.120593E0,3.1391544E0,2.815979E0,2.799157E0,6.3515854E0,4.5752E0,1.437851E0,0E0,0E0,0E0,0E0,0E0,0E0,0E0,0E0,0E0,0E0,0E0,0E0,0E0,0E0,0E0,0E0,0E0,0E0,0E0,0E0,0E0,0E0,0E0,0E0,0E0],"parents":[2147483647,0,0,1,1,2,2,3,3,4,4,5,5,6,6,7,7,8,8,9,9,10,10,11,11,12,12,13,13,14,14,17,17,18,18,19,19,20,20,21,21,22,22,23,23,24,24,25,25,26,26,27,27],"right_children":[2,4,6,8,10,12,14,16,18,20,22,24,26,28,30,-1,-1,32,34,36,38,40,42,44,46,48,50,52,-1,-1,-1,-1,-1,-1,-1,-1,-1,-1,-1,-1,-1,-1,-1,-1,-1,-1,-1,-1,-1,-1,-1,-1,-1],"split_conditions":[7.9806656E-2,-7.224853E-1,1.5709018E0,-1.4120277E0,-1.1472144E-1,-1.1211718E0,1.8595364E0,2.992444E0,-7.978041E-1,-4.7541893E-1,-6.8286335E-1,1.2923363E0,1.7946949E0,2.632539E0,4.1231588E-1,2.381123E-2,-1.4013016E-2,1.8517063E0,-6.737818E-4,-4.167428E-1,8.7271136E-1,6.354351E-1,1.691849E0,-5.373834E-1,-2.9351182E0,-1.2584038E-1,1.0494803E0,4.2696464E-1,-1.3550781E-3,7.5104926E-3,-1.3616947E-3,1.6021058E-2,-1.7443035E-2,-1.762307E-2,-1.1652075E-2,-2.9909492E-3,1.460429E-2,-6.2177884E-3,1.6348602E-2,1.1317725E-2,-1.911211E-2,-1.2021718E-2,2.4619358E-2,9.297184E-3,3.292397E-2,2.4937313E-2,-5.6059915E-3,1.89002E-2,1.0506922E-2,-5.0294316E-6,1.5493446E-2,4.039126E-2,4.7256905E-3],"split_indices":[3,3,3,13,94,57,46,20,70,93,44,70,4,67,13,0,0,13,10,38,81,70,97,91,32,95,3,94,0,0,0,0,0,0,0,0,0,0,0,0,0,0,0,0,0,0,0,0,0,0,0,0,0],"split_type":[0,0,0,0,0,0,0,0,0,0,0,0,0,0,0,0,0,0,0,0,0,0,0,0,0,0,0,0,0,0,0,0,0,0,0,0,0,0,0,0,0,0,0,0,0,0,0,0,0,0,0,0,0],"sum_hessian":[1.2894746E3,7.338875E2,5.555871E2,4.027134E2,3.3117413E2,5.0943915E2,4.6147976E1,4.290386E0,3.98423E2,1.6295705E2,1.6821707E2,5.6874184E1,4.5256494E2,4.4005722E1,2.1422553E0,2.628845E0,1.6615413E0,8.565732E0,3.898573E2,4.672126E1,1.1623579E2,2.4388815E1,1.4382826E2,4.62616E1,1.0612586E1,3.4384686E2,1.0871809E2,4.2982494E1,1.0232263E0,1.1187487E0,1.0235068E0,4.989971E0,3.5757608E0,3.0895206E2,8.090522E1,2.3604296E1,2.3116966E1,1.0650458E2,9.731207E0,1.8703686E1,5.6851296E0,1.425911E2,1.2371635E0,6.1937585E0,4.006784E1,2.9664922E0,7.646094E0,1.4232968E2,2.0151718E2,8.845493E1,2.026315E1,4.1649868E1,1.3326257E0],"tree_param":{"num_deleted":"0","num_feature":"113","num_nodes":"53","size_leaf_vector":"1"}},{"base_weights":[-8.36486E-3,-3.357834E-1,4.31201E-2,3.2036433E-1,-4.0227872E-1,-6.0613054E-1,7.39878E-2,-1.7547121E-2,6.110503E-1,-2.7535054E-1,-6.6942304E-1,1.191329E-2,-6.3433975E-1,8.738316E-2,-2.1121308E-2,-1.470702E-2,8.3834964E-1,-5.9582155E-2,-4.8396957E-1,-6.990578E-1,1.2171316E-2,-6.6377044E-1,9.670215E-3,1.7298923E-1,-1.831541E-2,3.4862943E-2,-3.8188563E-3,1.0555584E-2,-7.3728366E-3,-1.5993578E-2,2.0569257E-2,-3.0053838E-3,-2.1882681E-2,9.5626945E-3,-2.0837126E-2,7.2512677E-4,7.696876E-3,-3.2617631E-3,3.499177E-3],"categories":[],"categories_nodes":[],"categories_segments":[],"categories_sizes":[],"default_left":[0,0,0,0,0,0,0,0,0,0,0,0,0,0,0,0,0,0,0,0,0,0,0,0,0,0,0,0,0,0,0,0,0,0,0,0,0,0,0],"id":4,"left_children":[1,3,5,7,9,11,13,-1,15,17,19,-1,21,23,-1,-1,25,27,29,31,-1,33,-1,35,37,-1,-1,-1,-1,-1,-1,-1,-1,-1,-1,-1,-1,-1,-1],"loss_changes":[2.1910961E1,7.834633E0,2.25574E1,4.780422E0,5.2682686E0,1.6978416E0,1.1246843E1,0E0,3.7181768E0,4.954571E0,1.9115849E0,0E0,1.623991E0,9.557995E0,0E0,0E0,3.6869988E0,4.342598E0,3.5931911E0,8.3784676E-1,0E0,1.7015877E0,0E0,7.251318E0,5.789159E0,0E0,0E0,0E0,0E0,0E0,0E0,0E0,0E0,0E0,0E0,0E0,0E0,0E0,0E0],"parents":[2147483647,0,0,1,1,2,2,3,3,4,4,5,5,6,6,8,8,9,9,10,10,12,12,13,13,16,16,17,17,18,18,19,19,21,21,23,23,24,24],"right_children":[2,4,6,8,10,12,14,-1,16,18,20,-1,22,24,-1,-1,26,28,30,32,-1,34,-1,36,38,-1,-1,-1,-1,-1,-1,-1,-1,-1,-1,-1,-1,-1,-1],"split_conditions":[-1.0042776E0,-1.0239514E0,-1.6925681E0,-7.091416E-1,7.6502866E-1,-1.1972805E0,2.190699E0,-1.7547121E-2,-4.14141E-1,-1.2416245E-1,1.1634722E0,1.191329E-2,1.5092937E0,1.2958176E-1,-2.1121308E-2,-1.470702E-2,1.0056137E0,-1.6232E0,2.3094797E0,-1.1911228E0,1.2171316E-2,-6.009074E-1,9.670215E-3,-4.1017565E-1,9.131395E-2,3.4862943E-2,-3.8188563E-3,1.0555584E-2,-7.3728366E-3,-1.5993578E-2,2.0569257E-2,-3.0053838E-3,-2.1882681E-2,9.5626945E-3,-2.0837126E-2,7.2512677E-4,7.696876E-3,-3.2617631E-3,3.499177E-3],"split_indices":[1,5,3,67,89,55,20,0,31,84,27,0,97,69,0,0,63,0,96,47,0,96,0,75,97,0,0,0,0,0,0,0,0,0,0,0,0,0,0],"split_type":[0,0,0,0,0,0,0,0,0,0,0,0,0,0,0,0,0,0,0,0,0,0,0,0,0,0,0,0,0,0,0,0,0,0,0,0,0,0,0],"sum_hessian":[1.297945E3,1.7561292E2,1.122332E3,1.5808043E1,1.5980487E2,5.009208E1,1.0722399E3,3.596256E0,1.2211786E1,1.09709404E2,5.009547E1,1.0123224E0,4.9079758E1,1.0549642E3,1.7275625E1,1.8913345E0,1.0320452E1,5.456258E1,5.5146824E1,4.90921E1,1.0033712E0,4.7912E1,1.1677587E0,5.8253125E2,4.7243304E2,7.57677E0,2.7436814E0,1.6721054E1,3.7841522E1,5.344513E1,1.7016962E0,2.576464E0,4.6515636E1,1.1721354E0,4.6739864E1,2.0995506E2,3.7257617E2,2.8302246E2,1.894106E2],"tree_param":{"num_deleted":"0","num_feature":"113","num_nodes":"39","size_leaf_vector":"1"}},{"base_weights":[2.746039E-3,4.4631672E-1,-3.6432618E-1,8.475108E-1,2.3922986E-1,-1.9565831E-1,-5.387232E-1,1.2105548E0,6.914253E-1,1.8040998E-1,7.2560656E-1,-3.128268E-1,8.9278705E-2,4.4244853E-1,-5.629827E-1,-1.1223405E-2,1.2450327E0,9.9417317E-1,4.844014E-1,1.4412852E-1,8.021683E-1,9.776506E-1,8.2944654E-2,-3.5795313E-1,6.7194775E-2,1.048595E0,2.589187E-2,7.0807374E-1,-1.3857595E-2,-5.711345E-1,2.4385683E-1,3.872384E-2,1.2126145E-2,3.2407075E-2,2.9240735E-3,9.404433E-3,3.0687306E-2,-1.1194278E-2,5.440107E-3,2.876063E-2,-1.4285944E-2,3.2520395E-2,9.434864E-5,2.3788963E-2,-1.5208597E-2,-1.1866321E-2,3.92382E-3,2.2098262E-2,-3.8138316E-3,3.6412522E-2,3.7952028E-3,-9.855429E-3,4.820123E-3,3.0231291E-2,-1.2442114E-2,-1.0698071E-2,-1.8200483E-2,-1.382684E-2,2.6891148E-2],"categories":[],"categories_nodes":[],"categories_segments":[],"categories_sizes":[],"default_left":[0,0,0,0,0,0,0,0,0,0,0,0,0,0,0,0,0,0,0,0,0,0,0,0,0,0,0,0,0,0,0,0,0,0,0,0,0,0,0,0,0,0,0,0,0,0,0,0,0,0,0,0,0,0,0,0,0,0,0],"id":5,"left_children":[1,3,5,7,9,11,13,15,17,19,21,23,25,27,29,-1,31,33,35,37,39,41,43,45,47,49,51,53,-1,55,57,-1,-1,-1,-1,-1,-1,-1,-1,-1,-1,-1,-1,-1,-1,-1,-1,-1,-1,-1,-1,-1,-1,-1,-1,-1,-1,-1,-1],"loss_changes":[2.0828688E2,4.7922653E1,2.0484528E1,1.031546E1,1.083881E1,1.1960064E1,8.427071E0,3.6260834E0,8.291061E0,7.630987E0,6.566139E0,4.3710194E0,6.352875E0,2.4530072E0,2.347412E0,0E0,1.6654282E0,4.2080727E0,7.50988E0,6.3361387E0,4.201144E0,3.0423088E0,5.701676E0,4.217417E0,3.7030659E0,8.3292055E-1,4.8028316E0,2.8521907E0,0E0,2.320633E0,2.2796254E0,0E0,0E0,0E0,0E0,0E0,0E0,0E0,0E0,0E0,0E0,0E0,0E0,0E0,0E0,0E0,0E0,0E0,0E0,0E0,0E0,0E0,0E0,0E0,0E0,0E0,0E0,0E0,0E0],"parents":[2147483647,0,0,1,1,2,2,3,3,4,4,5,5,6,6,7,7,8,8,9,9,10,10,11,11,12,12,13,13,14,14,16,16,17,17,18,18,19,19,20,20,21,21,22,22,23,23,24,24,25,25,26,26,27,27,29,29,30,30],"right_children":[2,4,6,8,10,12,14,16,18,20,22,24,26,28,30,-1,32,34,36,38,40,42,44,46,48,50,52,54,-1,56,58,-1,-1,-1,-1,-1,-1,-1,-1,-1,-1,-1,-1,-1,-1,-1,-1,-1,-1,-1,-1,-1,-1,-1,-1,-1,-1,-1,-1],"split_conditions":[-2.2235495E-1,-1.2025807E0,5.022281E-1,-1.6925681E0,1.2236124E0,1.7946949E0,-1.3773785E0,-1.1972805E0,3.9976305E-1,1.3738205E0,-6.452897E-2,1.2659079E0,-2.2179751E0,1.5893908E0,9.2971075E-1,-1.1223405E-2,-3.2295528E-1,4.6459115E-1,8.65613E-2,-4.8546973E-1,3.8252108E-2,-3.2516962E-1,-7.489621E-1,1.2322975E0,-9.03337E-1,-5.6451327E-1,-4.9237195E-1,1.2319326E0,-1.3857595E-2,-5.474142E-2,1.5245904E-1,3.872384E-2,1.2126145E-2,3.2407075E-2,2.9240735E-3,9.404433E-3,3.0687306E-2,-1.1194278E-2,5.440107E-3,2.876063E-2,-1.4285944E-2,3.2520395E-2,9.434864E-5,2.3788963E-2,-1.5208597E-2,-1.1866321E-2,3.92382E-3,2.2098262E-2,-3.8138316E-3,3.6412522E-2,3.7952028E-3,-9.855429E-3,4.820123E-3,3.0231291E-2,-1.2442114E-2,-1.0698071E-2,-1.8200483E-2,-1.382684E-2,2.6891148E-2],"split_indices":[2,3,2,3,45,4,12,55,13,82,14,13,46,20,11,0,63,95,95,82,70,2,52,89,54,63,80,64,0,89,37,0,0,0,0,0,0,0,0,0,0,0,0,0,0,0,0,0,0,0,0,0,0,0,0,0,0,0,0],"split_type":[0,0,0,0,0,0,0,0,0,0,0,0,0,0,0,0,0,0,0,0,0,0,0,0,0,0,0,0,0,0,0,0,0,0,0,0,0,0,0,0,0,0,0,0,0,0,0,0,0,0,0,0,0,0,0,0,0,0,0],"sum_hessian":[1.2772281E3,5.7825183E2,6.989764E2,1.9581073E2,3.824411E2,3.5640326E2,3.4257312E2,5.6842743E1,1.3896797E2,3.4240353E2,4.0037582E1,2.5248247E2,1.03920784E2,7.8498335E0,3.347233E2,1.0006406E0,5.5842102E1,5.489231E1,8.407567E1,3.2468875E2,1.771476E1,2.8384344E1,1.1653238E1,2.2573521E2,2.6747248E1,5.4776416E0,9.8443146E1,6.23545E0,1.6143839E0,3.3166446E2,3.058821E0,5.2452248E1,3.3898551E0,4.989854E1,4.9937696E0,6.502056E1,1.9055107E1,2.1182413E1,3.0350635E2,1.60052E1,1.7095608E0,2.5489872E1,2.8944712E0,5.1319776E0,6.5212607E0,2.0979034E2,1.5944875E1,5.3897295E0,2.135752E1,4.377312E0,1.1003294E0,2.6726742E1,7.17164E1,5.00288E0,1.2325695E0,4.871333E1,2.8295114E2,1.6117294E0,1.4470916E0],"tree_param":{"num_deleted":"0","num_feature":"113","num_nodes":"59","size_leaf_vector":"1"}},{"base_weights":[-9.558066E-3,-3.7210658E-1,4.6321857E-1,-5.343602E-1,-2.198646E-1,3.1507063E-1,8.3462757E-1,3.2247955E-1,-5.4256755E-1,7.520743E-2,-2.710531E-1,4.9722838E-1,1.6475664E-1,7.306991E-1,4.012816E-2,-6.50567E-3,2.5303503E-2,-4.9775863E-1,-6.614668E-1,-2.7197033E-1,3.1251153E-1,9.503927E-1,-2.891054E-1,2.1834636E-1,6.779477E-1,8.6445653E-1,1.3285287E-1,8.1159484E-1,2.482905E-1,-6.8875356E-3,-1.6094767E-2,-2.0258829E-2,8.751604E-4,-1.1102497E-2,2.473561E-2,-5.7909875E-3,1.8909441E-2,7.7203084E-3,3.256415E-2,-5.6699733E-3,-1.1069819E-2,1.2431531E-2,-5.9770728E-3,3.3380862E-2,1.630142E-2,3.416838E-2,-6.8529905E-3,7.3796804E-3,-5.1490054E-4,3.0765424E-2,1.780524E-2,2.7692819E-2,-4.4107783E-4],"categories":[],"categories_nodes":[],"categories_segments":[],"categories_sizes":[],"default_left":[0,0,0,0,0,0,0,0,0,0,0,0,0,0,0,0,0,0,0,0,0,0,0,0,0,0,0,0,0,0,0,0,0,0,0,0,0,0,0,0,0,0,0,0,0,0,0,0,0,0,0,0,0],"id":6,"left_children":[1,3,5,7,9,11,13,15,17,19,21,23,25,27,-1,-1,-1,29,31,33,35,37,39,41,43,45,47,49,51,-1,-1,-1,-1,-1,-1,-1,-1,-1,-1,-1,-1,-1,-1,-1,-1,-1,-1,-1,-1,-1,-1,-1,-1],"loss_changes":[2.1972578E2,1.7804222E1,3.0351334E1,2.639923E0,5.6997223E0,1.0852436E1,7.284111E0,1.2935615E0,1.5224609E0,4.729047E0,7.344822E0,8.92646E0,4.8027363E0,4.995941E0,0E0,0E0,0E0,2.5408707E0,8.9915466E-1,2.824759E0,5.575888E0,1.7967033E-1,2.4633102E0,5.99897E0,5.7592316E0,3.0875106E0,3.6000862E0,4.691887E0,3.6635919E0,0E0,0E0,0E0,0E0,0E0,0E0,0E0,0E0,0E0,0E0,0E0,0E0,0E0,0E0,0E0,0E0,0E0,0E0,0E0,0E0,0E0,0E0,0E0,0E0],"parents":[2147483647,0,0,1,1,2,2,3,3,4,4,5,5,6,6,7,7,8,8,9,9,10,10,11,11,12,12,13,13,17,17,18,18,19,19,20,20,21,21,22,22,23,23,24,24,25,25,26,26,27,27,28,28],"right_children":[2,4,6,8,10,12,14,16,18,20,22,24,26,28,-1,-1,-1,30,32,34,36,38,40,42,44,46,48,50,52,-1,-1,-1,-1,-1,-1,-1,-1,-1,-1,-1,-1,-1,-1,-1,-1,-1,-1,-1,-1,-1,-1,-1,-1],"split_conditions":[5.6957603E-2,-6.561388E-1,1.1427418E0,-8.6577904E-1,-9.1681045E-1,-1.21335715E-1,1.7387891E0,-1.3443623E0,1.1121243E0,-7.091416E-1,-1.7719483E0,-3.86893E-1,-1.5507501E0,1.5654893E0,4.012816E-2,-6.50567E-3,2.5303503E-2,-1.0430896E0,1.5374696E-1,-8.139729E-2,-4.4672465E-1,-1.8187802E0,-1.2672016E-1,5.6755084E-1,-2.7802825E-1,4.131261E-1,1.8218079E-1,-4.263461E-2,-1.2038469E-1,-6.8875356E-3,-1.6094767E-2,-2.0258829E-2,8.751604E-4,-1.1102497E-2,2.473561E-2,-5.7909875E-3,1.8909441E-2,7.7203084E-3,3.256415E-2,-5.6699733E-3,-1.1069819E-2,1.2431531E-2,-5.9770728E-3,3.3380862E-2,1.630142E-2,3.416838E-2,-6.8529905E-3,7.3796804E-3,-5.1490054E-4,3.0765424E-2,1.780524E-2,2.7692819E-2,-4.4107783E-4],"split_indices":[2,2,3,82,44,95,3,12,68,67,82,12,67,69,0,0,0,12,12,63,2,1,94,36,82,97,13,95,23,0,0,0,0,0,0,0,0,0,0,0,0,0,0,0,0,0,0,0,0,0,0,0,0],"split_type":[0,0,0,0,0,0,0,0,0,0,0,0,0,0,0,0,0,0,0,0,0,0,0,0,0,0,0,0,0,0,0,0,0,0,0,0,0,0,0,0,0,0,0,0,0,0,0,0,0,0,0,0,0],"sum_hessian":[1.2799082E3,7.245219E2,5.553863E2,3.495138E2,3.7500812E2,3.9834314E2,1.5704317E2,2.95282E0,3.4656097E2,5.536895E1,3.1963916E2,1.790517E2,2.1929144E2,1.3218336E2,2.4859808E1,1.7376565E0,1.2151636E0,2.5546973E2,9.109125E1,2.2420906E1,3.2948044E1,3.9030933E0,3.1573608E2,7.1272995E1,1.077787E2,8.424878E0,2.1086658E2,1.12616234E2,1.9567127E1,3.311611E1,2.223536E2,8.932506E1,1.766194E0,2.118755E1,1.233357E0,1.2869124E1,2.0078918E1,1.1105145E0,2.792579E0,1.4162961E2,1.7410646E2,4.8508064E1,2.276493E1,2.3757198E1,8.40215E1,6.699975E0,1.7249037E0,1.19844604E2,9.1021965E1,5.4982296E1,5.7633938E1,4.7834663E0,1.4783661E1],"tree_param":{"num_deleted":"0","num_feature":"113","num_nodes":"53","size_leaf_vector":"1"}},{"base_weights":[6.5766415E-4,3.773451E-2,-4.9260345E-1,8.450478E-2,-3.516851E-1,-6.621153E-1,-2.9042596E-1,-4.914187E-1,1.1091111E-1,-2.0147295E-1,-6.477126E-1,5.572569E-3,-6.927842E-1,4.1931696E-2,-5.2633965E-1,-5.727125E-1,1.7050058E-1,-3.7015474E-1,1.3218564E-1,-5.7300115E-1,-7.117398E-2,-2.154537E-2,1.6639559E-2,-3.8209903E-1,-2.1724537E-2,3.5240692E-1,-4.4756782E-1,-6.333439E-1,8.551352E-2,-1.8172015E-2,9.505883E-3,3.0536605E-2,-1.6463088E-2,-1.5205684E-2,7.3367422E-3,5.2846503E-3,-1.0506221E-3,2.083948E-2,-2.1278286E-2,4.245454E-3,-1.0364426E-2,-1.5697174E-2,2.0962141E-2,1.1900895E-2,-1.8031567E-2,1.9895978E-2,-1.6087903E-2,1.2197741E-2,-1.9050106E-2,1.0965158E-3,-2.1056805E-2,-1.5548224E-2,2.6012272E-2],"categories":[],"categories_nodes":[],"categories_segments":[],"categories_sizes":[],"default_left":[0,0,0,0,0,0,0,0,0,0,0,0,0,0,0,0,0,0,0,0,0,0,0,0,0,0,0,0,0,0,0,0,0,0,0,0,0,0,0,0,0,0,0,0,0,0,0,0,0,0,0,0,0],"id":7,"left_children":[1,3,5,7,9,11,13,15,17,19,21,-1,23,25,27,29,31,33,35,37,39,-1,41,43,-1,45,47,49,51,-1,-1,-1,-1,-1,-1,-1,-1,-1,-1,-1,-1,-1,-1,-1,-1,-1,-1,-1,-1,-1,-1,-1,-1],"loss_changes":[2.3683344E1,2.1966322E1,2.9104538E0,1.6419731E1,5.620779E0,1.3889103E0,3.3991158E0,2.6461039E0,1.0587671E1,4.183074E0,2.0290031E0,0E0,1.8117332E-1,3.0158963E0,1.7082005E0,1.437707E0,4.1856785E0,3.8107061E0,7.261511E0,4.381822E0,3.8842463E0,0E0,2.2470536E0,1.3341291E0,0E0,3.68848E0,1.497274E0,1.0185652E0,2.6397595E0,0E0,0E0,0E0,0E0,0E0,0E0,0E0,0E0,0E0,0E0,0E0,0E0,0E0,0E0,0E0,0E0,0E0,0E0,0E0,0E0,0E0,0E0,0E0,0E0],"parents":[2147483647,0,0,1,1,2,2,3,3,4,4,5,5,6,6,7,7,8,8,9,9,10,10,12,12,13,13,14,14,15,15,16,16,17,17,18,18,19,19,20,20,22,22,23,23,25,25,26,26,27,27,28,28],"right_children":[2,4,6,8,10,12,14,16,18,20,22,-1,24,26,28,30,32,34,36,38,40,-1,42,44,-1,46,48,50,52,-1,-1,-1,-1,-1,-1,-1,-1,-1,-1,-1,-1,-1,-1,-1,-1,-1,-1,-1,-1,-1,-1,-1,-1],"split_conditions":[1.4479795E0,1.0372244E0,-1.1710273E0,-1.6531359E0,1.5823243E0,3.8677362E-1,-2.4387082E-1,2.6999244E-1,-1.1193187E0,-4.4094357E-1,9.419209E-1,5.572569E-3,-2.9919891E0,-1.7926217E0,1.352796E0,1.3539855E0,4.2869648E-1,1.2587906E0,8.5986245E-1,-1.7653779E0,7.793209E-1,-2.154537E-2,4.0770322E-2,-9.597586E-2,-2.1724537E-2,5.1603068E-2,-8.907599E-1,-1.3199737E0,1.1121243E0,-1.8172015E-2,9.505883E-3,3.0536605E-2,-1.6463088E-2,-1.5205684E-2,7.3367422E-3,5.2846503E-3,-1.0506221E-3,2.083948E-2,-2.1278286E-2,4.245454E-3,-1.0364426E-2,-1.5697174E-2,2.0962141E-2,1.1900895E-2,-1.8031567E-2,1.9895978E-2,-1.6087903E-2,1.2197741E-2,-1.9050106E-2,1.0965158E-3,-2.1056805E-2,-1.5548224E-2,2.6012272E-2],"split_indices":[45,2,12,3,2,20,86,9,82,95,84,0,88,72,90,97,9,92,30,11,64,0,90,30,0,95,53,13,68,0,0,0,0,0,0,0,0,0,0,0,0,0,0,0,0,0,0,0,0,0,0,0,0],"split_type":[0,0,0,0,0,0,0,0,0,0,0,0,0,0,0,0,0,0,0,0,0,0,0,0,0,0,0,0,0,0,0,0,0,0,0,0,0,0,0,0,0,0,0,0,0,0,0,0,0,0,0,0,0],"sum_hessian":[1.2929646E3,1.2034302E3,8.953446E1,1.0750919E3,1.2833824E2,4.7464146E1,4.2070316E1,4.636033E1,1.0287316E3,8.62522E1,4.208605E1,1.4804068E0,4.5983738E1,1.780654E1,2.4263777E1,4.1409393E1,4.950935E0,4.2873135E1,9.858584E2,2.1513123E1,6.4739075E1,3.79769E1,4.1091495E0,5.4256096E0,4.055813E1,1.10670805E1,6.739459E0,2.062214E1,3.641636E0,4.0234936E1,1.1744583E0,2.082424E0,2.8685107E0,3.521696E1,7.656176E0,7.805483E2,2.0531013E2,1.6904938E0,1.982263E1,3.673781E1,2.8001265E1,2.4236984E0,1.685451E0,1.0124907E0,4.413119E0,8.387469E0,2.679611E0,1.0023664E0,5.7370925E0,1.957684E0,1.8664457E1,2.2445257E0,1.3971103E0],"tree_param":{"num_deleted":"0","num_feature":"113","num_nodes":"53","size_leaf_vector":"1"}},{"base_weights":[4.0123696E-3,4.6332315E-1,-3.3897E-1,1.2181603E0,3.7227193E-1,-1.6202746E-1,-4.8107752E-1,1.2731272E0,3.1851512E-1,5.341837E-1,2.0721021E-1,-1.840482E-1,3.568056E-2,-5.00445E-1,4.8356414E-1,2.4811246E-3,1.297977E0,2.3623304E-2,-1.3537711E-2,4.7385702E-1,1.0163347E0,1.4291391E-1,7.5109416E-1,-2.4677587E-1,1.916408E-1,-3.654332E-1,-5.7655156E-1,-1.3779644E-2,7.681262E-1,9.81368E-3,3.9698325E-2,-7.0819757E-3,1.5123148E-2,-1.144268E-2,3.258801E-2,1.9446713E-3,1.3358864E-2,-4.2543183E-3,2.7274832E-2,-9.802843E-3,2.7302403E-3,2.9365007E-2,1.3436885E-3,-1.1500781E-2,2.1472534E-2,-1.01774465E-2,-1.8228209E-2,2.8779522E-2,3.445287E-4],"categories":[],"categories_nodes":[],"categories_segments":[],"categories_sizes":[],"default_left":[0,0,0,0,0,0,0,0,0,0,0,0,0,0,0,0,0,0,0,0,0,0,0,0,0,0,0,0,0,0,0,0,0,0,0,0,0,0,0,0,0,0,0,0,0,0,0,0,0],"id":8,"left_children":[1,3,5,7,9,11,13,15,17,19,21,23,-1,25,27,-1,29,-1,-1,31,33,35,37,39,41,43,45,-1,47,-1,-1,-1,-1,-1,-1,-1,-1,-1,-1,-1,-1,-1,-1,-1,-1,-1,-1,-1,-1],"loss_changes":[2.0292877E2,3.7394257E1,1.846556E1,2.5039291E0,1.3060867E1,1.0038618E1,7.873604E0,1.5230179E0,2.0596156E0,6.7366257E0,8.484134E0,7.7193966E0,0E0,3.90905E0,2.6464553E0,0E0,8.915405E-1,0E0,0E0,4.895611E0,3.0265274E0,5.1884017E0,3.7616186E0,7.578905E0,5.405878E0,3.1286259E0,1.6706772E0,0E0,9.93073E-1,0E0,0E0,0E0,0E0,0E0,0E0,0E0,0E0,0E0,0E0,0E0,0E0,0E0,0E0,0E0,0E0,0E0,0E0,0E0,0E0],"parents":[2147483647,0,0,1,1,2,2,3,3,4,4,5,5,6,6,7,7,8,8,9,9,10,10,11,11,13,13,14,14,16,16,19,19,20,20,21,21,22,22,23,23,24,24,25,25,26,26,28,28],"right_children":[2,4,6,8,10,12,14,16,18,20,22,24,-1,26,28,-1,30,-1,-1,32,34,36,38,40,42,44,46,-1,48,-1,-1,-1,-1,-1,-1,-1,-1,-1,-1,-1,-1,-1,-1,-1,-1,-1,-1,-1,-1],"split_conditions":[-3.6815348E-1,-1.6925681E0,4.376879E-1,-3.2295528E-1,-9.6370983E-1,2.992444E0,1.2326181E0,-9.7017133E-1,2.0173748E-1,1.2923363E0,1.0366399E0,1.0452328E0,3.568056E-2,3.8288876E-1,-9.005256E-1,2.4811246E-3,-2.6810646E-1,2.3623304E-2,-1.3537711E-2,-1.5665535E0,-1.9238173E0,8.1877476E-1,-9.114736E-1,6.049722E-1,-5.159529E-1,1.3060768E0,-2.6920724E-1,-1.3779644E-2,-1.3599607E0,9.81368E-3,3.9698325E-2,-7.0819757E-3,1.5123148E-2,-1.144268E-2,3.258801E-2,1.9446713E-3,1.3358864E-2,-4.2543183E-3,2.7274832E-2,-9.802843E-3,2.7302403E-3,2.9365007E-2,1.3436885E-3,-1.1500781E-2,2.1472534E-2,-1.01774465E-2,-1.8228209E-2,2.8779522E-2,3.445287E-4],"split_indices":[3,3,3,63,3,20,70,55,96,70,45,69,0,88,69,0,11,0,0,0,89,99,14,30,55,89,14,0,71,0,0,0,0,0,0,0,0,0,0,0,0,0,0,0,0,0,0,0,0],"split_type":[0,0,0,0,0,0,0,0,0,0,0,0,0,0,0,0,0,0,0,0,0,0,0,0,0,0,0,0,0,0,0,0,0,0,0,0,0,0,0,0,0,0,0,0,0,0,0,0,0],"sum_hessian":[1.2861494E3,5.496821E2,7.364672E2,5.7835186E1,4.9184695E2,3.289818E2,4.074854E2,5.411378E1,3.721405E0,2.4716374E2,2.4468321E2,3.2455695E2,4.42485E0,3.9993692E2,7.5484815E0,1.1950191E0,5.2918762E1,2.2983463E0,1.4230587E0,2.2144002E2,2.5723732E1,2.1994478E2,2.4738436E1,2.7841412E2,4.614283E1,1.4626561E2,2.5367133E2,1.6076056E0,5.940876E0,1.6978297E0,5.1220932E1,8.771329E0,2.1266869E2,1.0134488E0,2.4710283E1,1.7576657E2,4.4178215E1,3.736148E0,2.1002289E1,2.251357E2,5.3278416E1,6.363883E0,3.9778946E1,1.4451495E2,1.7506545E0,3.07356E1,2.2293573E2,4.5286875E0,1.4121884E0],"tree_param":{"num_deleted":"0","num_feature":"113","num_nodes":"49","size_leaf_vector":"1"}},{"base_weights":[1.1786855E-2,-3.4098512E-1,4.5909223E-1,-5.190773E-1,-1.775254E-1,3.177128E-1,7.9975843E-1,3.9656463E-1,-5.2915716E-1,5.761143E-1,-1.9754583E-1,4.128289E-1,7.0299506E-2,6.4352006E-1,1.153399E0,2.7209856E-2,-6.605685E-3,-5.379485E-1,-3.781029E-2,1.0722314E0,-2.7181292E-1,-1.2483887E-1,-3.6727932E-1,5.640162E-1,2.8058276E-1,4.5572641E-1,-6.024641E-2,1.0741855E0,5.451132E-1,1.199494E0,-4.9747975E-4,-1.889175E-2,-1.4708707E-2,-1.4217739E-2,2.791172E-2,3.5651695E-2,7.959152E-3,7.936353E-3,-1.5792964E-2,2.401E-3,-6.5064584E-3,-1.21880965E-2,8.1791105E-3,1.7880557E-2,-1.3561369E-2,1.3214408E-3,1.1575651E-2,-8.814291E-4,2.1018798E-2,-7.076823E-3,8.911117E-3,-1.4683753E-3,3.4070108E-2,2.171133E-2,8.911495E-3,3.6876787E-2,-1.8264474E-3],"categories":[],"categories_nodes":[],"categories_segments":[],"categories_sizes":[],"default_left":[0,0,0,0,0,0,0,0,0,0,0,0,0,0,0,0,0,0,0,0,0,0,0,0,0,0,0,0,0,0,0,0,0,0,0,0,0,0,0,0,0,0,0,0,0,0,0,0,0,0,0,0,0,0,0,0,0],"id":9,"left_children":[1,3,5,7,9,11,13,15,17,19,21,23,25,27,29,-1,-1,31,33,35,37,39,41,43,45,47,49,51,53,55,-1,-1,-1,-1,-1,-1,-1,-1,-1,-1,-1,-1,-1,-1,-1,-1,-1,-1,-1,-1,-1,-1,-1,-1,-1,-1,-1],"loss_changes":[2.0144312E2,2.0685364E1,2.6855492E1,3.357689E0,5.751917E0,9.371094E0,8.342621E0,1.5487714E0,1.4386978E0,4.4666843E0,4.4554777E0,5.606369E0,5.66917E0,4.3434486E0,2.6690292E0,0E0,0E0,1.1423492E0,3.4021087E0,2.9057455E-1,7.485416E-1,4.86134E0,2.8272142E0,4.611519E0,3.8620872E0,3.4047623E0,5.3817534E0,1.4782696E0,4.069248E0,1.846344E0,0E0,0E0,0E0,0E0,0E0,0E0,0E0,0E0,0E0,0E0,0E0,0E0,0E0,0E0,0E0,0E0,0E0,0E0,0E0,0E0,0E0,0E0,0E0,0E0,0E0,0E0,0E0],"parents":[2147483647,0,0,1,1,2,2,3,3,4,4,5,5,6,6,7,7,8,8,9,9,10,10,11,11,12,12,13,13,14,14,17,17,18,18,19,19,20,20,21,21,22,22,23,23,24,24,25,25,26,26,27,27,28,28,29,29],"right_children":[2,4,6,8,10,12,14,16,18,20,22,24,26,28,30,-1,-1,32,34,36,38,40,42,44,46,48,50,52,54,56,-1,-1,-1,-1,-1,-1,-1,-1,-1,-1,-1,-1,-1,-1,-1,-1,-1,-1,-1,-1,-1,-1,-1,-1,-1,-1,-1],"split_conditions":[5.6957603E-2,-6.561388E-1,9.7534436E-1,-1.077062E0,-5.1060814E-1,1.7946949E0,1.5823243E0,1.7875636E0,7.9696846E-1,2.190699E0,1.7946949E0,-1.21335715E-1,-5.813822E-1,-1.1133354E0,1.6679009E0,2.7209856E-2,-6.605685E-3,-8.2692844E-1,-8.36806E-1,-4.8403993E-1,-6.210287E-1,-3.2363704E-1,7.4479705E-1,1.7453145E0,-8.107969E-1,-5.0112677E-1,6.397291E-1,-5.868115E-1,8.183996E-1,1.942986E0,-4.9747975E-4,-1.889175E-2,-1.4708707E-2,-1.4217739E-2,2.791172E-2,3.5651695E-2,7.959152E-3,7.936353E-3,-1.5792964E-2,2.401E-3,-6.5064584E-3,-1.21880965E-2,8.1791105E-3,1.7880557E-2,-1.3561369E-2,1.3214408E-3,1.1575651E-2,-8.814291E-4,2.1018798E-2,-7.076823E-3,8.911117E-3,-1.4683753E-3,3.4070108E-2,2.171133E-2,8.911495E-3,3.6876787E-2,-1.8264474E-3],"split_indices":[2,2,2,82,76,4,2,56,62,20,4,95,86,78,71,0,0,47,2,90,0,96,97,61,53,98,80,14,5,67,0,0,0,0,0,0,0,0,0,0,0,0,0,0,0,0,0,0,0,0,0,0,0,0,0,0,0],"split_type":[0,0,0,0,0,0,0,0,0,0,0,0,0,0,0,0,0,0,0,0,0,0,0,0,0,0,0,0,0,0,0,0,0,0,0,0,0,0,0,0,0,0,0,0,0,0,0,0,0,0,0,0,0,0,0,0,0],"sum_hessian":[1.2746062E3,7.1273676E2,5.6186945E2,3.4005997E2,3.7267676E2,3.9844427E2,1.6342517E2,3.285315E0,3.3677466E2,8.9251795E0,3.637516E2,2.8731842E2,1.1112585E2,1.15303696E2,4.8121475E1,1.540112E0,1.745203E0,3.3076175E2,6.012905E0,5.463806E0,3.4613729E0,2.558789E2,1.0787269E2,1.3253545E2,1.5478299E2,2.7485643E1,8.36402E1,1.9602036E1,9.570166E1,4.627318E1,1.8483002E0,1.0887851E2,2.2188324E2,4.497549E0,1.5153561E0,4.3630075E0,1.1007987E0,1.1016829E0,2.35969E0,7.936235E1,1.7651656E2,1.0202156E2,5.851126E0,1.2888928E2,3.6461582E0,4.8108086E1,1.06674904E2,9.516008E0,1.7969635E1,5.6301186E1,2.7339018E1,1.0279856E0,1.857405E1,5.45267E1,4.117496E1,4.5230896E1,1.0422808E0],"tree_param":{"num_deleted":"0","num_feature":"113","num_nodes":"57","size_leaf_vector":"1"}},{"base_weights":[1.3274856E-2,-1.8841387E-1,9.57556E-2,-1.2650801E-1,-5.143838E-1,-4.6110794E-1,1.2634839E-1,-7.4100174E-2,-5.398685E-1,2.5816515E-1,-6.057609E-1,5.468782E-1,-5.453523E-1,7.538941E-2,3.1569853E-1,3.954928E-1,-1.5492335E-1,-6.2214184E-1,2.060599E-2,7.511173E-1,-1.5537633E-2,2.624594E-1,-6.888917E-1,2.969009E-2,-1.1433114E-2,-1.8700984E-1,-2.129685E-2,-5.962595E-1,9.138719E-2,-1.9323173E-1,4.100129E-1,1.469313E-2,-1.6964901E-2,-5.944027E-3,1.3809322E-2,-1.987842E-2,-2.981871E-3,3.064411E-2,4.2905286E-3,-1.2937642E-2,1.8334419E-2,-9.58967E-4,-2.1594679E-2,7.215342E-3,-1.9194715E-2,1.2199086E-2,-2.0695588E-2,3.3242037E-3,-1.1171048E-2,5.8695036E-3,-2.0736616E-2,1.4363947E-2,-2.5221095E-3],"categories":[],"categories_nodes":[],"categories_segments":[],"categories_sizes":[],"default_left":[0,0,0,0,0,0,0,0,0,0,0,0,0,0,0,0,0,0,0,0,0,0,0,0,0,0,0,0,0,0,0,0,0,0,0,0,0,0,0,0,0,0,0,0,0,0,0,0,0,0,0,0,0],"id":10,"left_children":[1,3,5,7,9,11,13,15,17,19,21,23,25,27,29,31,33,35,-1,37,-1,39,41,-1,-1,43,-1,45,47,49,51,-1,-1,-1,-1,-1,-1,-1,-1,-1,-1,-1,-1,-1,-1,-1,-1,-1,-1,-1,-1,-1,-1],"loss_changes":[2.1459852E1,7.4911118E0,1.5654288E1,6.8058853E0,4.35223E0,4.3649197E0,8.357249E0,1.0749662E1,4.000003E0,3.06236E0,4.03854E0,2.1001143E0,2.5026884E0,7.422364E0,8.905113E0,4.0489974E0,6.4976306E0,6.470804E-1,0E0,6.235633E-1,0E0,1.5684581E0,9.7374344E-1,0E0,0E0,3.13958E0,0E0,1.7903876E0,6.080863E0,5.834152E0,5.3232346E0,0E0,0E0,0E0,0E0,0E0,0E0,0E0,0E0,0E0,0E0,0E0,0E0,0E0,0E0,0E0,0E0,0E0,0E0,0E0,0E0,0E0,0E0],"parents":[2147483647,0,0,1,1,2,2,3,3,4,4,5,5,6,6,7,7,8,8,9,9,10,10,11,11,12,12,13,13,14,14,15,15,16,16,17,17,19,19,21,21,22,22,25,25,27,27,28,28,29,29,30,30],"right_children":[2,4,6,8,10,12,14,16,18,20,22,24,26,28,30,32,34,36,-1,38,-1,40,42,-1,-1,44,-1,46,48,50,52,-1,-1,-1,-1,-1,-1,-1,-1,-1,-1,-1,-1,-1,-1,-1,-1,-1,-1,-1,-1,-1,-1],"split_conditions":[-7.2162247E-1,1.1350197E0,-1.3554245E0,1.809895E0,-9.005256E-1,-9.764436E-1,8.2081735E-2,-1.2640104E0,-3.624908E-1,-2.7294236E-1,-1.0239514E0,-3.6847606E-1,-2.11141E-1,-1.1303598E0,-1.0667467E0,1.3808306E-1,1.2714504E0,8.820913E-1,2.060599E-2,-5.9235585E-1,-1.5537633E-2,-8.5788983E-1,-6.3921567E-3,2.969009E-2,-1.1433114E-2,1.8399359E0,-2.129685E-2,-1.6484573E0,1.9023911E0,-9.597586E-2,7.728154E-1,1.469313E-2,-1.6964901E-2,-5.944027E-3,1.3809322E-2,-1.987842E-2,-2.981871E-3,3.064411E-2,4.2905286E-3,-1.2937642E-2,1.8334419E-2,-9.58967E-4,-2.1594679E-2,7.215342E-3,-1.9194715E-2,1.2199086E-2,-2.0695588E-2,3.3242037E-3,-1.1171048E-2,5.8695036E-3,-2.0736616E-2,1.4363947E-2,-2.5221095E-3],"split_indices":[13,63,46,70,69,34,10,66,66,9,5,10,13,71,14,1,97,32,0,93,0,52,39,0,0,20,0,38,1,30,92,0,0,0,0,0,0,0,0,0,0,0,0,0,0,0,0,0,0,0,0,0,0],"split_type":[0,0,0,0,0,0,0,0,0,0,0,0,0,0,0,0,0,0,0,0,0,0,0,0,0,0,0,0,0,0,0,0,0,0,0,0,0,0,0,0,0,0,0,0,0,0,0,0,0,0,0,0,0],"sum_hessian":[1.2879238E3,3.7344965E2,9.1447424E2,3.150128E2,5.8436863E1,4.688996E1,8.675843E2,2.806144E2,3.4398388E1,5.987786E0,5.2449078E1,3.1930814E0,4.369688E1,6.8470953E2,1.8287476E2,4.063376E1,2.3998064E2,3.269826E1,1.7001251E0,3.681533E0,2.3062525E0,4.3945985E0,4.8054478E1,2.1166403E0,1.076441E0,1.4422967E1,2.9273914E1,1.5085611E1,6.696239E2,2.8427607E1,1.5444716E2,3.7450054E1,3.1837034E0,2.248652E2,1.5115431E1,3.0100271E1,2.5979912E0,2.0779362E0,1.6035969E0,1.3908035E0,3.003795E0,2.2523093E0,4.580217E1,7.6598363E0,6.76313E0,1.0021735E0,1.4083438E1,6.434411E2,2.6182814E1,1.6303356E1,1.212425E1,1.3560008E2,1.8847067E1],"tree_param":{"num_deleted":"0","num_feature":"113","num_nodes":"53","size_leaf_vector":"1"}},{"base_weights":[8.7527145E-4,4.7524524E-1,-3.0356562E-1,1.1246744E0,3.856694E-1,-1.2220344E-1,-4.724807E-1,-1.1250989E-2,1.1564515E0,5.4817224E-1,2.1510722E-1,-2.4035355E-1,1.2389353E-1,3.078185E-1,-4.9523264E-1,1.1971682E0,3.8409027E-1,1.214503E0,4.9037948E-1,5.5067897E-1,8.9590944E-2,-5.894387E-2,-3.4471875E-1,2.2128491E-1,-5.611179E-1,9.595743E-1,-2.1278064E-1,-3.3692104E-1,-5.7931083E-1,3.7007093E-2,5.189246E-3,2.768429E-2,-1.3428314E-2,3.8556226E-2,3.1672958E-3,1.5470829E-2,-1.8368766E-2,-1.1550159E-2,1.874214E-2,-1.2579585E-2,4.6527185E-3,-2.0647008E-2,1.1447258E-3,-3.3022526E-3,-1.3991524E-2,1.4615256E-2,2.7157468E-4,4.840062E-3,-2.0773217E-2,3.946047E-3,3.4025513E-2,-1.8094508E-2,1.6046997E-2,-1.0665972E-2,2.1150647E-2,-1.7711671E-2,7.7063707E-3],"categories":[],"categories_nodes":[],"categories_segments":[],"categories_sizes":[],"default_left":[0,0,0,0,0,0,0,0,0,0,0,0,0,0,0,0,0,0,0,0,0,0,0,0,0,0,0,0,0,0,0,0,0,0,0,0,0,0,0,0,0,0,0,0,0,0,0,0,0,0,0,0,0,0,0,0,0],"id":11,"left_children":[1,3,5,7,9,11,13,-1,15,17,19,21,23,25,27,29,31,33,35,37,39,41,43,45,47,49,51,53,55,-1,-1,-1,-1,-1,-1,-1,-1,-1,-1,-1,-1,-1,-1,-1,-1,-1,-1,-1,-1,-1,-1,-1,-1,-1,-1,-1,-1],"loss_changes":[1.8478194E2,2.8662186E1,2.3817108E1,3.2980042E0,1.2106812E1,1.0996542E1,7.30999E0,0E0,1.3987885E0,8.077415E0,9.0838375E0,4.810753E0,8.33015E0,4.289106E0,5.024254E0,1.8620911E0,2.398837E0,1.2205563E0,6.147587E0,4.3174076E0,5.3652353E0,5.794203E0,4.567011E0,6.113125E0,1.5911679E0,6.500206E-1,2.5150244E0,2.934661E0,2.5112534E0,0E0,0E0,0E0,0E0,0E0,0E0,0E0,0E0,0E0,0E0,0E0,0E0,0E0,0E0,0E0,0E0,0E0,0E0,0E0,0E0,0E0,0E0,0E0,0E0,0E0,0E0,0E0,0E0],"parents":[2147483647,0,0,1,1,2,2,3,3,4,4,5,5,6,6,8,8,9,9,10,10,11,11,12,12,13,13,14,14,15,15,16,16,17,17,18,18,19,19,20,20,21,21,22,22,23,23,24,24,25,25,26,26,27,27,28,28],"right_children":[2,4,6,8,10,12,14,-1,16,18,20,22,24,26,28,30,32,34,36,38,40,42,44,46,48,50,52,54,56,-1,-1,-1,-1,-1,-1,-1,-1,-1,-1,-1,-1,-1,-1,-1,-1,-1,-1,-1,-1,-1,-1,-1,-1,-1,-1,-1,-1],"split_conditions":[-5.070698E-1,-1.6925681E0,3.4815723E-1,-1.1972805E0,-8.4667444E-1,1.7946949E0,-1.3773785E0,-1.1250989E-2,-4.0347463E-1,-1.8622125E0,-2.5363004E-1,-1.19670294E-1,8.312284E-1,1.1659052E0,3.8288876E-1,1.9322388E-1,2.0173748E-1,-1.7039704E-1,8.084913E-1,-1.4478718E0,-1.0239514E0,-1.0426131E0,-9.8539755E-2,-3.314123E-1,-3.153964E-1,5.1933384E-1,-1.0279069E-1,1.3060768E0,9.2971075E-1,3.7007093E-2,5.189246E-3,2.768429E-2,-1.3428314E-2,3.8556226E-2,3.1672958E-3,1.5470829E-2,-1.8368766E-2,-1.1550159E-2,1.874214E-2,-1.2579585E-2,4.6527185E-3,-2.0647008E-2,1.1447258E-3,-3.3022526E-3,-1.3991524E-2,1.4615256E-2,2.7157468E-4,4.840062E-3,-2.0773217E-2,3.946047E-3,3.4025513E-2,-1.8094508E-2,1.6046997E-2,-1.0665972E-2,2.1150647E-2,-1.7711671E-2,7.7063707E-3],"split_indices":[3,3,2,55,2,4,12,0,63,71,95,2,98,31,88,21,96,14,10,14,5,19,47,9,2,2,19,89,11,0,0,0,0,0,0,0,0,0,0,0,0,0,0,0,0,0,0,0,0,0,0,0,0,0,0,0,0],"split_type":[0,0,0,0,0,0,0,0,0,0,0,0,0,0,0,0,0,0,0,0,0,0,0,0,0,0,0,0,0,0,0,0,0,0,0,0,0,0,0,0,0,0,0,0,0,0,0,0,0,0,0,0,0,0,0,0,0],"sum_hessian":[1.2774983E3,4.991609E2,7.783374E2,5.9103313E1,4.4005756E2,3.7617075E2,4.021667E2,1.0022119E0,5.81011E1,2.242192E2,2.1583838E2,2.5416875E2,1.2200201E2,1.1039154E1,3.9112753E2,5.466909E1,3.4320123E0,1.6297686E1,2.079215E2,5.783292E1,1.5800546E2,9.3394066E1,1.6077467E2,1.0740822E2,1.4593784E1,4.5276384E0,6.5115156E0,1.3740797E2,2.5371954E2,5.2595325E1,2.0737643E0,2.0163877E0,1.4156246E0,1.51714E1,1.1262851E0,2.0377559E2,4.145904E0,3.933778E0,5.3899143E1,1.7401302E1,1.4060416E2,1.1670795E1,8.1723274E1,5.554857E1,1.05226105E2,4.7102055E1,6.0306164E1,2.2095757E0,1.2384209E1,1.0938158E0,3.4338226E0,4.4049582E0,2.1065571E0,1.3564386E2,1.7641155E0,2.5069221E2,3.0273335E0],"tree_param":{"num_deleted":"0","num_feature":"113","num_nodes":"57","size_leaf_vector":"1"}},{"base_weights":[-6.4186566E-4,-3.5134137E-1,4.3497956E-1,-4.9380386E-1,-1.371125E-1,3.6261827E-1,1.0308594E0,-5.311344E-1,-2.7258942E-1,8.4056236E-2,-2.3926261E-1,1.22837484E-1,4.4933677E-1,-7.5005684E-3,1.0722842E0,6.849004E-2,-5.381432E-1,-5.190303E-1,-9.687204E-2,-6.0393784E-2,7.9446083E-1,-2.561184E-1,6.2445456E-1,4.7632873E-1,-1.6665513E-2,3.0948722E-1,5.7947516E-1,1.1664696E0,4.4805336E-1,1.9014768E-2,-1.5095252E-2,-1.8824166E-2,-1.4420657E-2,-1.769514E-2,1.37457E-2,-9.131502E-3,6.786586E-3,4.8434366E-3,-7.567495E-3,3.021449E-2,-1.7158922E-3,-1.7379965E-3,-9.426883E-3,2.9584922E-2,-3.1623698E-3,2.0757254E-2,-2.1092885E-3,-4.231624E-3,8.4875645E-3,1.1319942E-2,-8.297095E-3,1.878823E-2,3.445E-4,3.625761E-2,7.0637697E-3,-5.122328E-3,2.5717752E-2],"categories":[],"categories_nodes":[],"categories_segments":[],"categories_sizes":[],"default_left":[0,0,0,0,0,0,0,0,0,0,0,0,0,0,0,0,0,0,0,0,0,0,0,0,0,0,0,0,0,0,0,0,0,0,0,0,0,0,0,0,0,0,0,0,0,0,0,0,0,0,0,0,0,0,0,0,0],"id":12,"left_children":[1,3,5,7,9,11,13,15,17,19,21,23,25,-1,27,29,31,33,35,37,39,41,43,45,47,49,51,53,55,-1,-1,-1,-1,-1,-1,-1,-1,-1,-1,-1,-1,-1,-1,-1,-1,-1,-1,-1,-1,-1,-1,-1,-1,-1,-1,-1,-1],"loss_changes":[1.9904997E2,2.19618E1,2.4682579E1,3.432106E0,6.564626E0,1.0751572E1,3.5781403E0,1.5899277E0,2.746891E0,9.515661E0,3.048602E0,6.8828974E0,6.7603607E0,0E0,3.0412827E0,1.9854702E0,1.5736847E0,2.1147718E0,2.6794004E0,3.3435447E0,2.8943405E0,2.2313309E0,1.1834238E0,4.7016125E0,3.8010688E0,7.497511E0,5.2124786E0,1.756279E0,2.5698237E0,0E0,0E0,0E0,0E0,0E0,0E0,0E0,0E0,0E0,0E0,0E0,0E0,0E0,0E0,0E0,0E0,0E0,0E0,0E0,0E0,0E0,0E0,0E0,0E0,0E0,0E0,0E0,0E0],"parents":[2147483647,0,0,1,1,2,2,3,3,4,4,5,5,6,6,7,7,8,8,9,9,10,10,11,11,12,12,14,14,15,15,16,16,17,17,18,18,19,19,20,20,21,21,22,22,23,23,24,24,25,25,26,26,27,27,28,28],"right_children":[2,4,6,8,10,12,14,16,18,20,22,24,26,-1,28,30,32,34,36,38,40,42,44,46,48,50,52,54,56,-1,-1,-1,-1,-1,-1,-1,-1,-1,-1,-1,-1,-1,-1,-1,-1,-1,-1,-1,-1,-1,-1,-1,-1,-1,-1,-1,-1],"split_conditions":[4.3189626E-2,-5.0734794E-1,1.5050517E0,-1.6254607E-1,-5.132903E-1,5.5719763E-1,-2.8918965E0,-1.4120277E0,-1.0270995E0,4.557216E-1,2.6440942E0,-5.813822E-1,5.632244E-1,-7.5005684E-3,1.352796E0,1.3634111E0,-7.091416E-1,6.939502E-1,1.064761E-1,2.771252E-1,5.5191773E-1,-5.403839E-1,-1.606908E-2,9.842475E-2,9.96986E-1,5.1933384E-1,2.086626E0,1.6679009E0,4.8271582E-1,1.9014768E-2,-1.5095252E-2,-1.8824166E-2,-1.4420657E-2,-1.769514E-2,1.37457E-2,-9.131502E-3,6.786586E-3,4.8434366E-3,-7.567495E-3,3.021449E-2,-1.7158922E-3,-1.7379965E-3,-9.426883E-3,2.9584922E-2,-3.1623698E-3,2.0757254E-2,-2.1092885E-3,-4.231624E-3,8.4875645E-3,1.1319942E-2,-8.297095E-3,1.878823E-2,3.445E-4,3.625761E-2,7.0637697E-3,-5.122328E-3,2.5717752E-2],"split_indices":[2,2,3,88,96,7,11,13,3,38,30,86,2,0,90,31,67,93,96,70,92,93,42,0,46,2,47,71,64,0,0,0,0,0,0,0,0,0,0,0,0,0,0,0,0,0,0,0,0,0,0,0,0,0,0,0,0],"split_type":[0,0,0,0,0,0,0,0,0,0,0,0,0,0,0,0,0,0,0,0,0,0,0,0,0,0,0,0,0,0,0,0,0,0,0,0,0,0,0,0,0,0,0,0,0,0,0,0,0,0,0,0,0,0,0,0,0],"sum_hessian":[1.3009196E3,7.20816E2,5.801036E2,4.321384E2,2.886776E2,5.187207E2,6.138285E1,3.685445E2,6.3593895E1,9.126144E1,1.9741617E2,1.384145E2,3.803062E2,1.7652425E0,5.9617607E1,4.1566668E0,3.6438782E2,2.5656824E1,3.7937073E1,7.660081E1,1.4660628E1,1.9432727E2,3.0889044E0,3.8484047E1,9.993046E1,1.8494183E2,1.9536438E2,5.1046886E1,8.570722E0,2.0352328E0,2.1214342E0,1.3874667E2,2.2564114E2,2.4293005E1,1.363819E0,2.3135674E1,1.4801398E1,3.5597816E1,4.100299E1,1.1584894E1,3.075734E0,4.451337E1,1.498139E2,1.830556E0,1.2583482E0,2.7408932E1,1.1075114E1,7.098596E1,2.8944494E1,1.6607277E2,1.8869062E1,1.8039804E2,1.4966337E1,4.8552307E1,2.494578E0,3.6436126E0,4.927109E0],"tree_param":{"num_deleted":"0","num_feature":"113","num_nodes":"57","size_leaf_vector":"1"}},{"base_weights":[-2.0237613E-2,1.2896433E-2,-4.7485545E-1,5.6335755E-2,-3.3548698E-1,-5.6683826E-1,-7.654067E-2,-5.4412717E-1,7.861608E-2,-5.25119E-1,-1.19809344E-1,-6.0650873E-1,1.2784772E-2,4.700233E-1,-5.101656E-1,1.011012E-2,-5.8025235E-1,3.0690414E-1,4.004074E-2,1.3833497E-1,-6.2011623E-1,2.7517042E-1,-3.01281E-1,-2.9105347E-1,-6.623402E-1,8.6177707E-1,-1.6429657E-1,1.2247312E-2,-1.9581782E-2,-1.9571533E-2,-3.954717E-3,1.43274665E-2,3.9304106E-4,7.980587E-4,2.668449E-2,2.0449262E-2,-1.7539047E-2,-2.0641793E-2,-5.8298367E-3,2.6907714E-2,-1.4340664E-3,-1.3115941E-2,1.5340438E-2,-1.9162074E-2,9.057003E-3,-2.0615947E-2,-2.0340534E-3,5.4529035E-3,3.236087E-2,-1.4662599E-2,1.2188437E-2],"categories":[],"categories_nodes":[],"categories_segments":[],"categories_sizes":[],"default_left":[0,0,0,0,0,0,0,0,0,0,0,0,0,0,0,0,0,0,0,0,0,0,0,0,0,0,0,0,0,0,0,0,0,0,0,0,0,0,0,0,0,0,0,0,0,0,0,0,0,0,0],"id":13,"left_children":[1,3,5,7,9,11,13,15,17,19,21,23,-1,25,27,-1,29,31,33,35,37,39,41,43,45,47,49,-1,-1,-1,-1,-1,-1,-1,-1,-1,-1,-1,-1,-1,-1,-1,-1,-1,-1,-1,-1,-1,-1,-1,-1],"loss_changes":[1.9473383E1,1.8263014E1,3.1741505E0,1.4394516E1,5.409251E0,3.0627441E0,4.4185333E0,1.4212532E0,9.104328E0,4.554428E0,4.662717E0,1.0201092E0,0E0,2.209204E0,1.6164877E0,0E0,1.1223698E0,7.49026E0,1.0098944E1,4.207875E0,1.6657982E0,4.1870165E0,5.111796E0,2.695498E0,8.0654526E-1,5.862911E-1,9.4216126E-1,0E0,0E0,0E0,0E0,0E0,0E0,0E0,0E0,0E0,0E0,0E0,0E0,0E0,0E0,0E0,0E0,0E0,0E0,0E0,0E0,0E0,0E0,0E0,0E0],"parents":[2147483647,0,0,1,1,2,2,3,3,4,4,5,5,6,6,7,7,8,8,9,9,10,10,11,11,13,13,14,14,16,16,17,17,18,18,19,19,20,20,21,21,22,22,23,23,24,24,25,25,26,26],"right_children":[2,4,6,8,10,12,14,16,18,20,22,24,-1,26,28,-1,30,32,34,36,38,40,42,44,46,48,50,-1,-1,-1,-1,-1,-1,-1,-1,-1,-1,-1,-1,-1,-1,-1,-1,-1,-1,-1,-1,-1,-1,-1,-1],"split_conditions":[1.4479795E0,1.0372244E0,3.6316428E-1,-1.6925681E0,-7.2162247E-1,-8.8494253E-1,-2.0432311E-1,-8.471507E-1,-1.0239514E0,-1.0239514E0,2.7889714E-1,-1.3724315E0,1.2784772E-2,7.7089375E-1,-5.308637E-1,1.011012E-2,1.9242242E-1,5.866301E-1,2.6183403E0,-6.5449613E-1,2.160943E-2,-7.634462E-1,9.419209E-1,-1.1710273E0,1.4770653E0,-8.607206E-1,2.992444E0,1.2247312E-2,-1.9581782E-2,-1.9571533E-2,-3.954717E-3,1.43274665E-2,3.9304106E-4,7.980587E-4,2.668449E-2,2.0449262E-2,-1.7539047E-2,-2.0641793E-2,-5.8298367E-3,2.6907714E-2,-1.4340664E-3,-1.3115941E-2,1.5340438E-2,-1.9162074E-2,9.057003E-3,-2.0615947E-2,-2.0340534E-3,5.4529035E-3,3.236087E-2,-1.4662599E-2,1.2188437E-2],"split_indices":[45,2,97,3,13,46,52,13,5,5,39,99,0,31,1,0,10,0,58,82,82,18,84,12,28,50,20,0,0,0,0,0,0,0,0,0,0,0,0,0,0,0,0,0,0,0,0,0,0,0,0],"split_type":[0,0,0,0,0,0,0,0,0,0,0,0,0,0,0,0,0,0,0,0,0,0,0,0,0,0,0,0,0,0,0,0,0,0,0,0,0,0,0,0,0,0,0,0,0,0,0,0,0,0,0],"sum_hessian":[1.2913611E3,1.2045417E3,8.6819336E1,1.0717458E3,1.3279584E2,7.018778E1,1.6631552E1,3.750663E1,1.0342393E3,6.9901245E1,6.28946E1,6.7865746E1,2.3220367E0,7.320483E0,9.311069E0,1.1491399E0,3.635749E1,1.484947E2,8.8574457E2,8.698103E0,6.120314E1,1.9637194E1,4.3257404E1,1.1139452E1,5.6726295E1,4.3038535E0,3.0166295E0,1.0006949E0,8.310373E0,3.0927769E1,5.429723E0,9.353319E1,5.4961517E1,8.7296497E2,1.2779612E1,4.998744E0,3.699359E0,5.2249645E1,8.953497E0,6.1058173E0,1.3531376E1,3.7454853E1,5.802552E0,6.973363E0,4.166089E0,5.4300125E1,2.426172E0,1.4853604E0,2.8184931E0,2.0144992E0,1.0021304E0],"tree_param":{"num_deleted":"0","num_feature":"113","num_nodes":"51","size_leaf_vector":"1"}},{"base_weights":[-4.761223E-3,4.693456E-1,-3.121845E-1,9.25628E-1,3.3009785E-1,-1.3546732E-1,-5.013684E-1,9.913481E-1,1.3699466E-1,2.4399097E-1,5.68873E-1,-2.4103986E-1,1.0811848E-1,-5.175504E-1,4.427499E-1,1.0212169E0,-4.3256503E-2,-3.5169974E-1,2.6696013E-2,3.3776632E-1,-4.3194953E-2,9.180666E-1,3.6959353E-1,-1.68927E-1,-4.725221E-1,-2.0575307E-1,2.4005628E-1,-3.0069533E-1,-5.608914E-1,-1.4517697E-2,8.823075E-1,-1.542203E-3,3.1123048E-2,-1.552555E-2,2.107767E-2,-1.9239075E-2,2.050299E-2,1.3409274E-2,3.3173498E-3,-4.166586E-3,1.5476076E-2,4.962117E-3,3.2474354E-2,-3.7560228E-3,1.690913E-2,-5.710882E-3,2.9189669E-2,9.430587E-3,-1.5738618E-2,-1.1823014E-2,1.4119869E-2,1.3071402E-3,1.4106027E-2,1.7698392E-2,-1.0163026E-2,-1.7899226E-2,-6.8074646E-3,3.4622448E-3,3.20375E-2],"categories":[],"categories_nodes":[],"categories_segments":[],"categories_sizes":[],"default_left":[0,0,0,0,0,0,0,0,0,0,0,0,0,0,0,0,0,0,0,0,0,0,0,0,0,0,0,0,0,0,0,0,0,0,0,0,0,0,0,0,0,0,0,0,0,0,0,0,0,0,0,0,0,0,0,0,0,0,0],"id":14,"left_children":[1,3,5,7,9,11,13,15,17,19,21,23,25,27,29,31,33,35,-1,37,39,41,43,45,47,49,51,53,55,-1,57,-1,-1,-1,-1,-1,-1,-1,-1,-1,-1,-1,-1,-1,-1,-1,-1,-1,-1,-1,-1,-1,-1,-1,-1,-1,-1,-1,-1],"loss_changes":[1.90554E2,3.2369896E1,2.6447182E1,6.067894E0,7.994488E0,1.0606476E1,6.075493E0,3.4535522E0,4.1275234E0,7.891615E0,6.9043503E0,4.7167187E0,5.2296677E0,3.3716888E0,3.2730927E0,1.9194336E0,1.7980046E0,2.537817E0,0E0,5.424034E0,3.970776E0,4.417835E0,6.5943317E0,5.5861344E0,2.940095E0,4.9706454E0,3.982964E0,2.4005308E0,3.599083E0,0E0,6.0178113E-1,0E0,0E0,0E0,0E0,0E0,0E0,0E0,0E0,0E0,0E0,0E0,0E0,0E0,0E0,0E0,0E0,0E0,0E0,0E0,0E0,0E0,0E0,0E0,0E0,0E0,0E0,0E0,0E0],"parents":[2147483647,0,0,1,1,2,2,3,3,4,4,5,5,6,6,7,7,8,8,9,9,10,10,11,11,12,12,13,13,14,14,15,15,16,16,17,17,19,19,20,20,21,21,22,22,23,23,24,24,25,25,26,26,27,27,28,28,30,30],"right_children":[2,4,6,8,10,12,14,16,18,20,22,24,26,28,30,32,34,36,-1,38,40,42,44,46,48,50,52,54,56,-1,58,-1,-1,-1,-1,-1,-1,-1,-1,-1,-1,-1,-1,-1,-1,-1,-1,-1,-1,-1,-1,-1,-1,-1,-1,-1,-1,-1,-1],"split_conditions":[-3.9272714E-1,-1.4509454E0,3.911046E-1,6.905479E-1,1.7946949E0,1.7946949E0,1.2326181E0,6.939502E-1,-7.335629E-1,-5.696883E-1,-4.9187347E-1,6.905479E-1,-4.14971E-1,1.7835069E-1,-1.1544406E-1,-1.0832833E0,1.2054055E0,-2.1663517E-1,2.6696013E-2,1.4739491E-1,8.370318E-1,-5.684076E-1,-1.0080568E-1,1.2777172E0,-1.0277588E-1,1.3469814E0,-5.771055E-2,-1.4683316E0,1.467468E0,-1.4517697E-2,-1.4698117E0,-1.542203E-3,3.1123048E-2,-1.552555E-2,2.107767E-2,-1.9239075E-2,2.050299E-2,1.3409274E-2,3.3173498E-3,-4.166586E-3,1.5476076E-2,4.962117E-3,3.2474354E-2,-3.7560228E-3,1.690913E-2,-5.710882E-3,2.9189669E-2,9.430587E-3,-1.5738618E-2,-1.1823014E-2,1.4119869E-2,1.3071402E-3,1.4106027E-2,1.7698392E-2,-1.0163026E-2,-1.7899226E-2,-6.8074646E-3,3.4622448E-3,3.20375E-2],"split_indices":[2,3,2,47,4,4,70,93,12,2,21,47,20,88,17,81,33,31,0,97,19,56,46,1,5,69,69,37,46,0,55,0,0,0,0,0,0,0,0,0,0,0,0,0,0,0,0,0,0,0,0,0,0,0,0,0,0,0,0],"split_type":[0,0,0,0,0,0,0,0,0,0,0,0,0,0,0,0,0,0,0,0,0,0,0,0,0,0,0,0,0,0,0,0,0,0,0,0,0,0,0,0,0,0,0,0,0,0,0,0,0,0,0,0,0,0,0,0,0,0,0],"sum_hessian":[1.3053845E3,5.132799E2,7.921047E2,1.1869539E2,3.945845E2,4.104336E2,3.8167108E2,1.09327614E2,9.367771E0,2.914896E2,1.030949E2,2.8634097E2,1.2409262E2,3.7568375E2,5.987332E0,1.062725E2,3.055121E0,6.003631E0,3.3641398E0,2.1960535E2,7.1884254E1,3.6147457E1,6.694744E1,2.1964539E2,6.6695595E1,3.6559776E1,8.7532845E1,6.390005E1,3.117837E2,1.8938322E0,4.0934997E0,1.55059E0,1.0472191E2,2.0547173E0,1.0004038E0,4.9884562E0,1.0151746E0,1.4765839E2,7.194695E1,6.2020237E1,9.864013E0,6.840108E0,2.9307348E1,1.8958874E1,4.798857E1,2.1641617E2,3.2292087E0,3.8290632E0,6.286653E1,2.8923435E1,7.6363425E0,4.7861027E1,3.9671814E1,2.025318E0,6.1874733E1,2.8092627E2,3.0857405E1,1.1137E0,2.9797997E0],"tree_param":{"num_deleted":"0","num_feature":"113","num_nodes":"59","size_leaf_vector":"1"}},{"base_weights":[1.0887572E-2,-3.6291277E-1,3.987667E-1,-5.1348734E-1,-1.9964968E-1,2.6583192E-1,7.459815E-1,2.3529467E-1,-5.247496E-1,7.988719E-2,-2.4386668E-1,3.7707943E-1,1.2604831E-1,6.018995E-1,1.0640467E0,2.385787E-2,-1.4885226E-2,-5.3516364E-1,-4.8234254E-2,-6.060037E-1,2.9516724E-1,4.1128832E-1,-2.57576E-1,-2.361699E-1,4.1980466E-1,1.2486168E-2,3.92431E-1,8.6670744E-1,4.602753E-1,1.137067E0,9.421523E-2,-8.514414E-3,-1.6756352E-2,1.1189366E-2,-1.644273E-2,-3.2236178E-3,-1.9820677E-2,-2.5118724E-3,2.3602052E-2,-9.845001E-3,3.0498454E-2,-1.2230852E-2,-5.9372033E-3,1.2669001E-2,-1.1403305E-2,1.7102413E-2,6.705256E-3,2.2584068E-2,-6.6147366E-4,2.7312303E-3,2.5709797E-2,3.7177012E-4,2.8961288E-2,1.943427E-2,5.7205297E-3,3.49496E-2,-2.110889E-3,-1.6072923E-2,2.4498243E-2],"categories":[],"categories_nodes":[],"categories_segments":[],"categories_sizes":[],"default_left":[0,0,0,0,0,0,0,0,0,0,0,0,0,0,0,0,0,0,0,0,0,0,0,0,0,0,0,0,0,0,0,0,0,0,0,0,0,0,0,0,0,0,0,0,0,0,0,0,0,0,0,0,0,0,0,0,0,0,0],"id":15,"left_children":[1,3,5,7,9,11,13,15,17,19,21,23,25,27,29,-1,-1,31,33,35,37,39,41,43,45,47,49,51,53,55,57,-1,-1,-1,-1,-1,-1,-1,-1,-1,-1,-1,-1,-1,-1,-1,-1,-1,-1,-1,-1,-1,-1,-1,-1,-1,-1,-1,-1],"loss_changes":[1.8615614E2,1.5971161E1,2.8884506E1,2.9865036E0,3.9171972E0,7.062088E0,7.328621E0,2.7379663E0,1.6355362E0,6.6494727E0,2.5536385E0,6.7563515E0,6.169712E0,4.1757584E0,3.639923E0,0E0,0E0,1.7663116E0,1.9433546E0,2.2334194E-1,6.403207E0,3.0062127E0,2.3158875E0,1.7896845E0,6.8900337E0,3.701783E0,8.459306E0,3.4755154E0,4.0023785E0,1.7377357E0,2.6197674E0,0E0,0E0,0E0,0E0,0E0,0E0,0E0,0E0,0E0,0E0,0E0,0E0,0E0,0E0,0E0,0E0,0E0,0E0,0E0,0E0,0E0,0E0,0E0,0E0,0E0,0E0,0E0,0E0],"parents":[2147483647,0,0,1,1,2,2,3,3,4,4,5,5,6,6,7,7,8,8,9,9,10,10,11,11,12,12,13,13,14,14,17,17,18,18,19,19,20,20,21,21,22,22,23,23,24,24,25,25,26,26,27,27,28,28,29,29,30,30],"right_children":[2,4,6,8,10,12,14,16,18,20,22,24,26,28,30,-1,-1,32,34,36,38,40,42,44,46,48,50,52,54,56,58,-1,-1,-1,-1,-1,-1,-1,-1,-1,-1,-1,-1,-1,-1,-1,-1,-1,-1,-1,-1,-1,-1,-1,-1,-1,-1,-1,-1],"split_conditions":[-5.2680276E-2,-6.7396814E-1,9.648849E-1,-8.6577904E-1,-9.1681045E-1,5.6755084E-1,1.5823243E0,-5.373834E-1,2.448004E0,-1.3067223E0,-5.1060814E-1,-6.249028E-1,5.219769E-1,-1.4850916E-1,4.1231588E-1,2.385787E-2,-1.4885226E-2,-5.7132316E-1,2.1396123E-1,-1.7680608E0,-4.9056552E-2,-1.792654E0,-4.633934E-1,-8.7895316E-1,4.068912E-1,-1.0162796E0,6.42837E-1,-1.7653779E0,8.183996E-1,2.632539E0,1.0616919E0,-8.514414E-3,-1.6756352E-2,1.1189366E-2,-1.644273E-2,-3.2236178E-3,-1.9820677E-2,-2.5118724E-3,2.3602052E-2,-9.845001E-3,3.0498454E-2,-1.2230852E-2,-5.9372033E-3,1.2669001E-2,-1.1403305E-2,1.7102413E-2,6.705256E-3,2.2584068E-2,-6.6147366E-4,2.7312303E-3,2.5709797E-2,3.7177012E-4,2.8961288E-2,1.943427E-2,5.7205297E-3,3.49496E-2,-2.110889E-3,-1.6072923E-2,2.4498243E-2],"split_indices":[2,2,2,82,44,36,2,91,93,44,76,63,91,97,13,0,0,45,45,89,67,89,72,37,66,20,44,11,5,67,12,0,0,0,0,0,0,0,0,0,0,0,0,0,0,0,0,0,0,0,0,0,0,0,0,0,0,0,0],"split_type":[0,0,0,0,0,0,0,0,0,0,0,0,0,0,0,0,0,0,0,0,0,0,0,0,0,0,0,0,0,0,0,0,0,0,0,0,0,0,0,0,0,0,0,0,0,0,0,0,0,0,0,0,0,0,0,0,0,0,0],"sum_hessian":[1.2819316E3,6.528461E2,6.290855E2,3.3850446E2,3.143417E2,4.5619293E2,1.728926E2,4.7211514E0,3.337833E2,4.2821354E1,2.7152032E2,2.5308015E2,2.0311276E2,1.209811E2,5.1911488E1,2.62466E0,2.0964913E0,3.2652417E2,7.2591276E0,9.795987E0,3.3025364E1,4.970782E0,2.6654956E2,1.6188837E1,2.3689133E2,1.4313812E2,5.9974632E1,4.037272E1,8.060838E1,4.811629E1,3.7951963E0,2.8907497E1,2.9761667E2,4.077217E0,3.1819105E0,1.2613767E0,8.534611E0,1.9118587E1,1.3906777E1,2.4435992E0,2.5271826E0,7.415465E1,1.9239491E2,2.5571287E0,1.3631708E1,1.330952E2,1.0379612E2,5.4527235E0,1.3768541E2,3.710095E1,2.2873684E1,4.296598E0,3.607612E1,4.671171E1,3.389667E1,4.7063187E1,1.0531045E0,2.1652706E0,1.6299257E0],"tree_param":{"num_deleted":"0","num_feature":"113","num_nodes":"59","size_leaf_vector":"1"}},{"base_weights":[1.2847752E-2,-5.619316E-1,4.2233545E-2,-6.0704154E-1,1.8174898E-2,-3.7526423E-1,8.490874E-2,-6.30238E-1,9.60759E-3,-5.103527E-1,2.489526E-1,1.0090175E-1,-4.634302E-1,-6.7615306E-1,-2.324165E-1,-5.8446217E-1,-1.0666912E-1,6.069263E-1,-3.0866817E-1,1.1266489E-1,-5.983063E-1,-5.8058935E-1,5.42889E-2,-2.1127814E-2,-6.157248E-3,2.6449984E-2,-1.830396E-2,-9.603946E-3,-1.9343352E-2,-1.8786782E-2,7.885963E-3,-1.4350942E-2,2.475989E-2,-1.9019783E-2,1.6666418E-2,4.69312E-3,-1.5303565E-3,-2.040155E-2,9.866568E-3,-2.0817392E-2,3.843215E-3,-1.6211346E-2,1.8443264E-2],"categories":[],"categories_nodes":[],"categories_segments":[],"categories_sizes":[],"default_left":[0,0,0,0,0,0,0,0,0,0,0,0,0,0,0,0,0,0,0,0,0,0,0,0,0,0,0,0,0,0,0,0,0,0,0,0,0,0,0,0,0,0,0],"id":16,"left_children":[1,3,5,7,-1,9,11,13,-1,15,17,19,21,23,25,27,29,31,33,35,37,39,41,-1,-1,-1,-1,-1,-1,-1,-1,-1,-1,-1,-1,-1,-1,-1,-1,-1,-1,-1,-1],"loss_changes":[2.208768E1,3.7184258E0,2.2190586E1,1.5298691E0,0E0,9.868366E0,9.949177E0,9.4923973E-1,0E0,2.7886372E0,4.424072E0,9.0983095E0,1.9833746E0,5.6728745E-1,3.8165448E0,1.0737247E0,3.237402E0,3.5386724E0,2.8716521E0,7.75049E0,1.6125798E0,2.2032356E0,2.61627E0,0E0,0E0,0E0,0E0,0E0,0E0,0E0,0E0,0E0,0E0,0E0,0E0,0E0,0E0,0E0,0E0,0E0,0E0,0E0,0E0],"parents":[2147483647,0,0,1,1,2,2,3,3,5,5,6,6,7,7,9,9,10,10,11,11,12,12,13,13,14,14,15,15,16,16,17,17,18,18,19,19,20,20,21,21,22,22],"right_children":[2,4,6,8,-1,10,12,14,-1,16,18,20,22,24,26,28,30,32,34,36,38,40,42,-1,-1,-1,-1,-1,-1,-1,-1,-1,-1,-1,-1,-1,-1,-1,-1,-1,-1,-1,-1],"split_conditions":[-1.6699816E0,5.036297E-1,-9.8999435E-1,3E0,1.8174898E-2,-2.613523E-1,1.5277437E0,2.0161748E-1,9.60759E-3,2.6806495E-1,6.909817E-1,2.44689E0,2.0967922E0,1.6882118E0,4.383281E-1,-9.005256E-1,4.0440017E-1,-1.1791907E-1,9.141633E-1,8.5986245E-1,1.7584227E0,4.131261E-1,1.2483094E-1,-2.1127814E-2,-6.157248E-3,2.6449984E-2,-1.830396E-2,-9.603946E-3,-1.9343352E-2,-1.8786782E-2,7.885963E-3,-1.4350942E-2,2.475989E-2,-1.9019783E-2,1.6666418E-2,4.69312E-3,-1.5303565E-3,-2.040155E-2,9.866568E-3,-2.0817392E-2,3.843215E-3,-1.6211346E-2,1.8443264E-2],"split_indices":[3,14,57,97,0,13,3,10,0,35,39,70,41,57,45,69,38,34,43,30,31,97,81,0,0,0,0,0,0,0,0,0,0,0,0,0,0,0,0,0,0,0,0],"split_type":[0,0,0,0,0,0,0,0,0,0,0,0,0,0,0,0,0,0,0,0,0,0,0,0,0,0,0,0,0,0,0,0,0,0,0,0,0,0,0,0,0,0,0],"sum_hessian":[1.3053053E3,6.2606857E1,1.2426984E3,6.0740646E1,1.866209E0,1.14521736E2,1.1281766E3,5.9570824E1,1.1698254E0,9.4297066E1,2.0224672E1,1.0969973E3,3.1179352E1,5.277956E1,6.7912617E0,7.929248E1,1.5004588E1,1.2263498E1,7.961174E0,1.0796722E3,1.7325026E1,2.532655E1,5.852802E0,4.933912E1,3.4404423E0,1.3816979E0,5.4095635E0,1.5903659E1,6.338882E1,5.947669E0,9.056919E0,1.8550572E0,1.0408442E1,5.97743E0,1.9837441E0,8.518929E2,2.2777937E2,1.616628E1,1.1587448E0,2.1853016E1,3.4735336E0,2.8572173E0,2.9955845E0],"tree_param":{"num_deleted":"0","num_feature":"113","num_nodes":"43","size_leaf_vector":"1"}},{"base_weights":[-9.024761E-3,3.4261414E-1,-3.8571E-1,6.8947816E-1,1.8638001E-1,-2.603685E-1,-5.3146243E-1,1.0742787E0,5.325181E-1,7.566448E-2,4.6479535E-1,-2.8560734E-1,5.6730986E-1,4.692357E-1,-5.473148E-1,-1.13814315E-2,1.1057893E0,3.9076233E-1,8.780183E-1,2.3548691E-1,-7.218757E-2,7.30485E-1,1.6208054E-1,-3.255643E-1,6.524521E-2,-1.4505254E-2,8.4861994E-1,2.8069431E-2,-4.223057E-3,-3.6307928E-1,-6.020043E-1,3.3853237E-2,1.1134173E-3,2.4438689E-2,6.2129875E-3,2.9754952E-2,-1.713027E-3,1.7554436E-2,3.4947027E-3,-1.6532224E-2,-2.443287E-4,8.972282E-3,2.4979992E-2,-4.9854442E-3,1.89038E-2,-1.0825802E-2,2.2422362E-3,2.0154966E-2,-6.5672994E-3,-2.9315266E-3,3.3451665E-2,-9.697086E-4,-1.6131788E-2,-1.8325353E-2,7.715908E-3],"categories":[],"categories_nodes":[],"categories_segments":[],"categories_sizes":[],"default_left":[0,0,0,0,0,0,0,0,0,0,0,0,0,0,0,0,0,0,0,0,0,0,0,0,0,0,0,0,0,0,0,0,0,0,0,0,0,0,0,0,0,0,0,0,0,0,0,0,0,0,0,0,0,0,0],"id":17,"left_children":[1,3,5,7,9,11,13,15,17,19,21,23,25,27,29,-1,31,33,35,37,39,41,43,45,47,-1,49,-1,-1,51,53,-1,-1,-1,-1,-1,-1,-1,-1,-1,-1,-1,-1,-1,-1,-1,-1,-1,-1,-1,-1,-1,-1,-1,-1],"loss_changes":[1.7284312E2,3.6445656E1,1.1371002E1,1.2064186E1,1.4350327E1,7.2786503E0,4.8623505E0,3.1509857E0,7.032009E0,7.935379E0,1.0545294E1,4.6651974E0,3.4893162E0,1.572995E0,2.66568E0,0E0,1.3771896E0,8.283743E0,4.633831E0,6.6418247E0,5.357541E0,2.8510933E0,9.824118E0,4.231224E0,6.1284323E0,0E0,2.272129E0,0E0,0E0,3.9131775E0,1.822258E0,0E0,0E0,0E0,0E0,0E0,0E0,0E0,0E0,0E0,0E0,0E0,0E0,0E0,0E0,0E0,0E0,0E0,0E0,0E0,0E0,0E0,0E0,0E0,0E0],"parents":[2147483647,0,0,1,1,2,2,3,3,4,4,5,5,6,6,7,7,8,8,9,9,10,10,11,11,12,12,13,13,14,14,16,16,17,17,18,18,19,19,20,20,21,21,22,22,23,23,24,24,26,26,29,29,30,30],"right_children":[2,4,6,8,10,12,14,16,18,20,22,24,26,28,30,-1,32,34,36,38,40,42,44,46,48,-1,50,-1,-1,52,54,-1,-1,-1,-1,-1,-1,-1,-1,-1,-1,-1,-1,-1,-1,-1,-1,-1,-1,-1,-1,-1,-1,-1,-1],"split_conditions":[-8.712343E-2,-1.2122672E0,5.9197927E-1,-1.6925681E0,1.7946949E0,2.0649886E0,-1.3773785E0,-1.1972805E0,8.078064E-2,-5.647919E-1,5.764728E-1,1.1147528E0,-1.2433512E0,1.1163722E0,3.4879908E-1,-1.13814315E-2,5.036297E-1,3.1740558E-1,4.6459115E-1,-7.671636E-1,-1.0426131E0,-8.0906713E-1,5.978124E-1,1.2322975E0,4.89265E-1,-1.4505254E-2,-1.3724315E0,2.8069431E-2,-4.223057E-3,-8.471507E-1,9.2971075E-1,3.3853237E-2,1.1134173E-3,2.4438689E-2,6.2129875E-3,2.9754952E-2,-1.713027E-3,1.7554436E-2,3.4947027E-3,-1.6532224E-2,-2.443287E-4,8.972282E-3,2.4979992E-2,-4.9854442E-3,1.89038E-2,-1.0825802E-2,2.2422362E-3,2.0154966E-2,-6.5672994E-3,-2.9315266E-3,3.3451665E-2,-9.697086E-4,-1.6131788E-2,-1.8325353E-2,7.715908E-3],"split_indices":[2,3,2,3,4,45,12,55,95,2,25,30,80,64,88,0,14,82,95,39,19,98,69,89,80,0,99,0,0,13,11,0,0,0,0,0,0,0,0,0,0,0,0,0,0,0,0,0,0,0,0,0,0,0,0],"split_type":[0,0,0,0,0,0,0,0,0,0,0,0,0,0,0,0,0,0,0,0,0,0,0,0,0,0,0,0,0,0,0,0,0,0,0,0,0,0,0,0,0,0,0,0,0,0,0,0,0,0,0,0,0,0,0],"sum_hessian":[1.3029004E3,6.7389966E2,6.290007E2,2.0821559E2,4.6568408E2,3.396775E2,2.8932318E2,5.863146E1,1.4958414E2,3.3409753E2,1.3158653E2,3.302616E2,9.415904E0,4.065791E0,2.852574E2,1.0097442E0,5.762171E1,1.07577156E2,4.2006977E1,1.6026474E2,1.738328E2,6.932638E1,6.226016E1,2.9655984E2,3.3701748E1,1.8366021E0,7.579302E0,2.001555E0,2.0642362E0,6.704337E1,2.1821402E2,5.637094E1,1.2507721E0,3.1483488E1,7.6093666E1,3.7394985E1,4.611992E0,3.9698147E1,1.205666E2,1.9608042E1,1.5422475E2,1.4027845E1,5.5298534E1,3.697374E1,2.5286419E1,2.7262082E2,2.3939003E1,1.0315948E1,2.3385801E1,1.804224E0,5.7750773E0,2.3577036E1,4.346634E1,2.1627768E2,1.9363478E0],"tree_param":{"num_deleted":"0","num_feature":"113","num_nodes":"55","size_leaf_vector":"1"}},{"base_weights":[-5.0211563E-3,-3.4164387E-1,4.060224E-1,-5.044332E-1,-1.0080181E-1,2.7699068E-1,7.32216E-1,-5.5540115E-1,-3.997632E-1,1.4016919E-1,-2.0256886E-1,1.7516427E-1,4.9104673E-1,9.51568E-1,5.302333E-1,-5.916783E-1,-4.1755626E-1,-1.9717602E-1,-4.852012E-1,-1.9442309E-2,6.302622E-1,3.7935372E-2,-2.5446472E-1,3.413986E-1,2.4091106E-2,6.3171494E-1,2.2940342E-1,5.156589E-1,1.0811583E0,5.910163E-2,6.6172516E-1,-1.852369E-2,-1.1155871E-2,-1.3638353E-2,1.802803E-2,-8.16599E-3,3.0518077E-2,-1.8050537E-2,-9.779451E-3,-3.7122394E-3,1.78706E-2,2.132695E-2,-1.2197876E-2,2.4893846E-2,-3.463621E-3,-8.565756E-3,4.907443E-3,2.0278448E-2,6.63346E-3,-1.2095635E-2,2.7743108E-3,-3.4961957E-3,2.1107897E-2,1.3369853E-2,-6.0407505E-3,3.3336304E-2,3.3359167E-3,8.343021E-3,3.41316E-2,2.4429377E-2,-6.3877366E-3,2.1835567E-2,1.0963371E-3],"categories":[],"categories_nodes":[],"categories_segments":[],"categories_sizes":[],"default_left":[0,0,0,0,0,0,0,0,0,0,0,0,0,0,0,0,0,0,0,0,0,0,0,0,0,0,0,0,0,0,0,0,0,0,0,0,0,0,0,0,0,0,0,0,0,0,0,0,0,0,0,0,0,0,0,0,0,0,0,0,0,0,0],"id":18,"left_children":[1,3,5,7,9,11,13,15,17,19,21,23,25,27,29,31,33,35,37,39,41,43,45,47,49,51,53,55,57,59,61,-1,-1,-1,-1,-1,-1,-1,-1,-1,-1,-1,-1,-1,-1,-1,-1,-1,-1,-1,-1,-1,-1,-1,-1,-1,-1,-1,-1,-1,-1,-1,-1],"loss_changes":[1.8095772E2,2.813813E1,2.4580399E1,2.0653305E0,7.170095E0,9.145542E0,6.8630295E0,1.1820374E0,2.3963966E0,6.8226995E0,2.5703259E0,7.2385216E0,4.859577E0,3.8746338E0,5.464014E0,1.0387802E0,2.6485548E0,4.321676E0,1.6693516E0,4.3494377E0,2.0798092E0,4.624308E0,2.2395658E0,5.375988E0,4.4859915E0,4.8076286E0,4.6649337E0,4.6679053E0,2.3893204E0,4.3809586E0,2.840458E0,0E0,0E0,0E0,0E0,0E0,0E0,0E0,0E0,0E0,0E0,0E0,0E0,0E0,0E0,0E0,0E0,0E0,0E0,0E0,0E0,0E0,0E0,0E0,0E0,0E0,0E0,0E0,0E0,0E0,0E0,0E0,0E0],"parents":[2147483647,0,0,1,1,2,2,3,3,4,4,5,5,6,6,7,7,8,8,9,9,10,10,11,11,12,12,13,13,14,14,15,15,16,16,17,17,18,18,19,19,20,20,21,21,22,22,23,23,24,24,25,25,26,26,27,27,28,28,29,29,30,30],"right_children":[2,4,6,8,10,12,14,16,18,20,22,24,26,28,30,32,34,36,38,40,42,44,46,48,50,52,54,56,58,60,62,-1,-1,-1,-1,-1,-1,-1,-1,-1,-1,-1,-1,-1,-1,-1,-1,-1,-1,-1,-1,-1,-1,-1,-1,-1,-1,-1,-1,-1,-1,-1,-1],"split_conditions":[4.833102E-2,-5.0734794E-1,1.1427418E0,-8.0895084E-1,-6.009074E-1,5.7242256E-1,-9.3055494E-2,1.7811117E-1,-4.948096E-2,2.6754302E-1,-4.7681084E-1,4.068912E-1,8.5121375E-1,-1.0088502E0,3.3392602E-1,8.1088716E-1,1.120281E0,7.4536335E-1,-2.625658E-1,-2.1950954E-1,1.1523602E0,-7.037659E-1,1.1538132E0,-3.0642796E-1,-1.2159175E-1,-4.6061277E-1,3.4612605E-1,-5.752726E-1,-1.0239514E0,-1.6221686E-1,9.419209E-1,-1.852369E-2,-1.1155871E-2,-1.3638353E-2,1.802803E-2,-8.16599E-3,3.0518077E-2,-1.8050537E-2,-9.779451E-3,-3.7122394E-3,1.78706E-2,2.132695E-2,-1.2197876E-2,2.4893846E-2,-3.463621E-3,-8.565756E-3,4.907443E-3,2.0278448E-2,6.63346E-3,-1.2095635E-2,2.7743108E-3,-3.4961957E-3,2.1107897E-2,1.3369853E-2,-6.0407505E-3,3.3336304E-2,3.3359167E-3,8.343021E-3,3.41316E-2,2.4429377E-2,-6.3877366E-3,2.1835567E-2,1.0963371E-3],"split_indices":[2,2,3,2,96,91,96,9,98,38,0,66,12,90,89,93,82,96,63,13,21,39,46,92,72,11,67,78,5,97,84,0,0,0,0,0,0,0,0,0,0,0,0,0,0,0,0,0,0,0,0,0,0,0,0,0,0,0,0,0,0,0,0],"split_type":[0,0,0,0,0,0,0,0,0,0,0,0,0,0,0,0,0,0,0,0,0,0,0,0,0,0,0,0,0,0,0,0,0,0,0,0,0,0,0,0,0,0,0,0,0,0,0,0,0,0,0,0,0,0,0,0,0,0,0,0,0,0,0],"sum_hessian":[1.305811E3,7.1798694E2,5.8782416E2,4.277612E2,2.902257E2,4.2253287E2,1.6529126E2,2.8478302E2,1.429782E2,8.606285E1,2.0416287E2,2.875593E2,1.3497357E2,7.7459526E1,8.783173E1,2.2284398E2,6.1939026E1,4.3393387E1,9.958481E1,6.564439E1,2.0418467E1,3.6283043E1,1.6787982E2,1.3630995E2,1.5124936E2,8.686021E1,4.8113365E1,1.8891712E1,5.8567818E1,1.9481064E1,6.835067E1,1.9783476E2,2.5009216E1,6.029883E1,1.6401973E0,4.1599403E1,1.7939819E0,5.5905766E1,4.3679043E1,5.681062E1,8.833764E0,1.92368E1,1.1816679E0,5.172213E0,3.1110828E1,1.5656422E2,1.1315601E1,3.4826283E1,1.01483665E2,2.0192122E1,1.3105724E2,7.558498E0,7.930171E1,3.200905E1,1.6104315E1,6.9341364E0,1.1957577E1,4.2430015E0,5.4324814E1,4.6309395E0,1.4850125E1,6.1664055E1,6.6866107E0],"tree_param":{"num_deleted":"0","num_feature":"113","num_nodes":"63","size_leaf_vector":"1"}},{"base_weights":[-2.2493645E-3,2.9087035E-2,-5.2498186E-1,-5.8779484E-1,5.855268E-2,-5.752002E-1,3.329787E-2,-6.37685E-1,1.10375635E-1,-1.4841525E-2,1.867399E-1,-5.9550166E-1,8.79841E-3,-3.2698083E-1,2.5437858E-2,2.061213E-2,-2.0852596E-2,-1.4821873E-2,2.5696198E-2,9.6938955E-3,-5.176019E-1,5.20232E-1,1.3860661E-1,7.578188E-3,-6.166309E-1,-1.7333146E-2,1.2202059E-2,-1.48353595E-2,1.8067403E-2,-1.6038332E-2,7.789326E-4,-1.7782079E-2,2.266446E-3,2.6085395E-3,2.4814261E-2,6.181692E-3,-3.5816412E-3,-4.023696E-3,-1.9102762E-2],"categories":[],"categories_nodes":[],"categories_segments":[],"categories_sizes":[],"default_left":[0,0,0,0,0,0,0,0,0,0,0,0,0,0,0,0,0,0,0,0,0,0,0,0,0,0,0,0,0,0,0,0,0,0,0,0,0,0,0],"id":19,"left_children":[1,3,5,7,9,11,13,15,17,19,21,23,-1,25,-1,27,-1,-1,-1,29,31,33,35,-1,37,-1,-1,-1,-1,-1,-1,-1,-1,-1,-1,-1,-1,-1,-1],"loss_changes":[2.1149027E1,2.2176561E1,2.066351E0,2.0078602E0,1.0949488E1,1.356823E0,2.3233654E0,1.9815884E0,2.4807558E0,9.143402E0,6.729245E0,1.3357449E0,0E0,1.2572566E0,0E0,1.8398458E0,0E0,0E0,0E0,6.2781243E0,1.5818281E0,6.986232E0,6.491552E0,0E0,5.413742E-1,0E0,0E0,0E0,0E0,0E0,0E0,0E0,0E0,0E0,0E0,0E0,0E0,0E0,0E0],"parents":[2147483647,0,0,1,1,2,2,3,3,4,4,5,5,6,6,7,7,8,8,9,9,10,10,11,11,13,13,15,15,19,19,20,20,21,21,22,22,24,24],"right_children":[2,4,6,8,10,12,14,16,18,20,22,24,-1,26,-1,28,-1,-1,-1,30,32,34,36,-1,38,-1,-1,-1,-1,-1,-1,-1,-1,-1,-1,-1,-1,-1,-1],"split_conditions":[1.4662948E0,-1.6925681E0,-1.0665145E0,-4.0347463E-1,8.279857E-1,2.1569784E0,2.2192698E0,-3.5697636E-1,2.0173748E-1,1.5277437E0,-1.0239514E0,-1.6208727E0,8.79841E-3,1.6681525E-1,2.5437858E-2,-3.3540305E-1,-2.0852596E-2,-1.4821873E-2,2.5696198E-2,-1.862068E0,2.188618E0,-2.0664258E-2,9.9303275E-1,7.578188E-3,-2.958224E0,-1.7333146E-2,1.2202059E-2,-1.48353595E-2,1.8067403E-2,-1.6038332E-2,7.789326E-4,-1.7782079E-2,2.266446E-3,2.6085395E-3,2.4814261E-2,6.181692E-3,-3.5816412E-3,-4.023696E-3,-1.9102762E-2],"split_indices":[56,3,57,63,90,96,31,55,96,3,5,12,0,11,0,81,0,0,0,21,66,93,0,0,21,0,0,0,0,0,0,0,0,0,0,0,0,0,0],"split_type":[0,0,0,0,0,0,0,0,0,0,0,0,0,0,0,0,0,0,0,0,0,0,0,0,0,0,0,0,0,0,0,0,0,0,0,0,0,0,0],"sum_hessian":[1.2891735E3,1.2171528E3,7.202066E1,5.4623646E1,1.1625292E3,6.604911E1,5.9715505E0,5.1061504E1,3.5621407E0,7.398238E2,4.2270535E2,6.4847565E1,1.201549E0,4.5554647E0,1.4160857E0,4.1467137E0,4.691479E1,2.1546268E0,1.4075139E0,7.063344E2,3.3489403E1,5.2077526E1,3.7062784E2,1.3100048E0,6.3537556E1,3.5534163E0,1.0020484E0,2.2785275E0,1.8681862E0,1.9576471E1,6.8675793E2,2.9724863E1,3.7645385E0,2.2125347E1,2.995218E1,2.9397318E2,7.665466E1,2.8512185E0,6.068634E1],"tree_param":{"num_deleted":"0","num_feature":"113","num_nodes":"39","size_leaf_vector":"1"}},{"base_weights":[6.803901E-3,4.883275E-1,-2.6719669E-1,1.1054318E0,3.9509928E-1,-8.9077316E-2,-4.8423287E-1,1.1265006E0,8.069319E-3,3.6001828E-1,1.123041E0,-2.2420387E-1,1.985246E-1,6.829811E-1,-5.017762E-1,1.1591496E0,5.119938E-1,4.4014007E-1,1.3236603E-1,3.5738524E-2,8.90438E-3,-6.373547E-1,-1.7829818E-1,2.6283306E-1,-4.4167817E-1,2.7224047E-2,1.4305862E-5,-3.3868757E-1,-5.7745993E-1,1.2316306E-2,3.5544306E-2,-1.2890486E-2,2.7381433E-2,8.371839E-3,1.5868511E-2,-5.283032E-3,1.029209E-2,-2.1254335E-2,8.058184E-3,-5.727088E-4,-9.926111E-3,1.4013032E-2,2.6520456E-3,1.1597998E-2,-1.7599624E-2,-1.3221396E-2,-2.724595E-4,-1.8027378E-2,6.1339093E-3],"categories":[],"categories_nodes":[],"categories_segments":[],"categories_sizes":[],"default_left":[0,0,0,0,0,0,0,0,0,0,0,0,0,0,0,0,0,0,0,0,0,0,0,0,0,0,0,0,0,0,0,0,0,0,0,0,0,0,0,0,0,0,0,0,0,0,0,0,0],"id":20,"left_children":[1,3,5,7,9,11,13,15,-1,17,19,21,23,25,27,29,31,33,35,-1,-1,37,39,41,43,-1,-1,45,47,-1,-1,-1,-1,-1,-1,-1,-1,-1,-1,-1,-1,-1,-1,-1,-1,-1,-1,-1,-1],"loss_changes":[1.656884E2,2.5764832E1,3.0898575E1,7.4059296E-1,9.739269E0,1.7176447E1,7.725746E0,5.5911255E-1,0E0,6.8806E0,6.495228E-1,5.5835295E0,5.939405E0,8.8245463E-1,4.1960373E0,5.462799E-1,2.1617296E0,3.8716316E0,6.590092E0,0E0,0E0,2.1008272E0,6.5943956E0,4.560775E0,1.8219755E0,0E0,0E0,3.8697805E0,4.55336E0,0E0,0E0,0E0,0E0,0E0,0E0,0E0,0E0,0E0,0E0,0E0,0E0,0E0,0E0,0E0,0E0,0E0,0E0,0E0,0E0],"parents":[2147483647,0,0,1,1,2,2,3,3,4,4,5,5,6,6,7,7,9,9,10,10,11,11,12,12,13,13,14,14,15,15,16,16,17,17,18,18,21,21,22,22,23,23,24,24,27,27,28,28],"right_children":[2,4,6,8,10,12,14,16,-1,18,20,22,24,26,28,30,32,34,36,-1,-1,38,40,42,44,-1,-1,46,48,-1,-1,-1,-1,-1,-1,-1,-1,-1,-1,-1,-1,-1,-1,-1,-1,-1,-1,-1,-1],"split_conditions":[-4.9010417E-1,-1.6925681E0,3.911046E-1,-1.952324E-1,2.2575114E0,1.7946949E0,-1.3599607E0,1.9322388E-1,8.069319E-3,3.8940704E-1,3E0,-9.173035E-1,1.0231779E0,-5.752726E-1,3.8288876E-1,-9.3502045E-1,3.3416178E-2,-5.6552005E-1,-7.256343E-2,3.5738524E-2,8.90438E-3,1.9344571E0,-2.875228E-1,-3.314123E-1,-6.5511024E-1,2.7224047E-2,1.4305862E-5,1.7946949E0,2.9043257E0,1.2316306E-2,3.5544306E-2,-1.2890486E-2,2.7381433E-2,8.371839E-3,1.5868511E-2,-5.283032E-3,1.029209E-2,-2.1254335E-2,8.058184E-3,-5.727088E-4,-9.926111E-3,1.4013032E-2,2.6520456E-3,1.1597998E-2,-1.7599624E-2,-1.3221396E-2,-2.724595E-4,-1.8027378E-2,6.1339093E-3],"split_indices":[2,3,2,62,20,4,71,21,0,96,68,19,98,78,88,13,96,81,99,0,0,91,22,9,25,0,0,4,44,0,0,0,0,0,0,0,0,0,0,0,0,0,0,0,0,0,0,0,0],"split_type":[0,0,0,0,0,0,0,0,0,0,0,0,0,0,0,0,0,0,0,0,0,0,0,0,0,0,0,0,0,0,0,0,0,0,0,0,0,0,0,0,0,0,0,0,0,0,0,0,0],"sum_hessian":[1.2538185E3,4.5442975E2,7.9938873E2,5.821708E1,3.9621268E2,4.3983286E2,3.5955588E2,5.6448483E1,1.768595E0,3.7942212E2,1.679055E1,2.993888E2,1.4044406E2,4.7624655E0,3.547934E2,5.275906E1,3.6894255E0,2.7995804E2,9.946409E1,1.5101401E1,1.6891485E0,2.8650513E1,2.7073828E2,1.2815984E2,1.2284224E1,3.3356864E0,1.4267793E0,1.14194405E2,2.40599E2,2.3119075E0,5.044715E1,1.0797601E0,2.6096654E0,1.0096895E2,1.7898907E2,4.0433804E1,5.903028E1,2.676712E1,1.8833927E0,1.3303865E2,1.3769963E2,5.8258446E1,6.990139E1,1.5815942E0,1.0702629E1,8.69446E1,2.7249804E1,2.3381747E2,6.781534E0],"tree_param":{"num_deleted":"0","num_feature":"113","num_nodes":"49","size_leaf_vector":"1"}},{"base_weights":[1.3089233E-2,-3.625908E-1,3.721122E-1,-5.3665674E-1,-2.3152675E-1,2.6942986E-1,7.5207156E-1,-5.632838E-1,-2.8100517E-1,-4.2426318E-1,-1.5836436E-1,1.3992608E-1,4.0799975E-1,6.27929E-1,1.0365067E0,-5.7074076E-1,8.118164E-3,-4.3945354E-1,4.420213E-1,1.2842716E-2,-4.4109282E-1,7.563749E-1,-1.7726858E-1,2.3284481E-1,-1.08728416E-1,3.330597E-1,7.6219046E-1,4.1903698E-1,9.105333E-1,-5.063837E-3,1.0823758E0,-1.7508054E-2,-1.00448495E-2,-1.6192839E-2,6.5076174E-3,2.746787E-2,-1.3048855E-2,-9.766966E-3,-1.7398583E-2,2.0542622E-3,3.0649798E-2,-8.9564435E-3,-2.1978288E-3,-2.9337695E-3,9.422494E-3,-5.7132207E-3,2.4123956E-2,1.3707948E-2,3.7343828E-3,3.0752663E-2,9.76491E-3,2.099807E-2,4.2155324E-3,2.8699212E-2,-1.0549057E-3,3.426753E-2,7.6693543E-3],"categories":[],"categories_nodes":[],"categories_segments":[],"categories_sizes":[],"default_left":[0,0,0,0,0,0,0,0,0,0,0,0,0,0,0,0,0,0,0,0,0,0,0,0,0,0,0,0,0,0,0,0,0,0,0,0,0,0,0,0,0,0,0,0,0,0,0,0,0,0,0,0,0,0,0,0,0],"id":21,"left_children":[1,3,5,7,9,11,13,15,17,19,21,23,25,27,29,31,-1,33,35,-1,37,39,41,43,45,47,49,51,53,-1,55,-1,-1,-1,-1,-1,-1,-1,-1,-1,-1,-1,-1,-1,-1,-1,-1,-1,-1,-1,-1,-1,-1,-1,-1,-1,-1],"loss_changes":[1.7228511E2,1.4116318E1,2.5279442E1,1.6617203E0,4.9788494E0,9.197975E0,4.2359924E0,1.6539536E0,3.3121006E0,1.5927067E0,4.6470814E0,6.219939E0,6.3454285E0,5.4558716E0,2.4225388E0,5.307312E-1,0E0,1.6198521E0,2.6370554E0,0E0,1.3586807E0,9.290185E-1,3.2137098E0,5.281786E0,5.644331E0,5.291008E0,4.561882E0,4.4947767E0,1.8289528E0,0E0,1.6465988E0,0E0,0E0,0E0,0E0,0E0,0E0,0E0,0E0,0E0,0E0,0E0,0E0,0E0,0E0,0E0,0E0,0E0,0E0,0E0,0E0,0E0,0E0,0E0,0E0,0E0,0E0],"parents":[2147483647,0,0,1,1,2,2,3,3,4,4,5,5,6,6,7,7,8,8,9,9,10,10,11,11,12,12,13,13,14,14,15,15,17,17,18,18,20,20,21,21,22,22,23,23,24,24,25,25,26,26,27,27,28,28,30,30],"right_children":[2,4,6,8,10,12,14,16,18,20,22,24,26,28,30,32,-1,34,36,-1,38,40,42,44,46,48,50,52,54,-1,56,-1,-1,-1,-1,-1,-1,-1,-1,-1,-1,-1,-1,-1,-1,-1,-1,-1,-1,-1,-1,-1,-1,-1,-1,-1,-1],"split_conditions":[-1.1116332E-1,-1.0122511E0,1.2327813E0,8.1088716E-1,-6.249028E-1,-1.9129455E-2,8.7271136E-1,1.0742211E0,-4.011738E-1,-2.6748857E0,-1.7954242E0,1.7946949E0,1.0216223E0,1.0894331E0,-1.4186486E0,1.4738604E0,8.118164E-3,1.4424626E0,5.872098E-1,1.2842716E-2,-1.6544546E-1,-1.7419885E0,-4.9056552E-2,7.9806656E-2,1.4037116E0,5.6755084E-1,-9.872831E-3,1.2483094E-1,2.0502553E0,-5.063837E-3,1.4723252E0,-1.7508054E-2,-1.00448495E-2,-1.6192839E-2,6.5076174E-3,2.746787E-2,-1.3048855E-2,-9.766966E-3,-1.7398583E-2,2.0542622E-3,3.0649798E-2,-8.9564435E-3,-2.1978288E-3,-2.9337695E-3,9.422494E-3,-5.7132207E-3,2.4123956E-2,1.3707948E-2,3.7343828E-3,3.0752663E-2,9.76491E-3,2.099807E-2,4.2155324E-3,2.8699212E-2,-1.0549057E-3,3.426753E-2,7.6693543E-3],"split_indices":[3,3,3,93,63,31,81,79,88,38,82,4,3,14,12,53,0,78,20,0,19,1,67,3,1,36,95,81,35,0,42,0,0,0,0,0,0,0,0,0,0,0,0,0,0,0,0,0,0,0,0,0,0,0,0,0,0],"split_type":[0,0,0,0,0,0,0,0,0,0,0,0,0,0,0,0,0,0,0,0,0,0,0,0,0,0,0,0,0,0,0,0,0,0,0,0,0,0,0,0,0,0,0,0,0,0,0,0,0,0,0,0,0,0,0,0,0],"sum_hessian":[1.2753422E3,6.232091E2,6.521331E2,2.6636093E2,3.5684818E2,5.147368E2,1.3739629E2,2.4014558E2,2.6215332E1,9.686679E1,2.5998138E2,2.6711136E2,2.4762546E2,9.788271E1,3.951358E1,2.3832991E2,1.8156822E0,2.1824732E1,4.3906E0,1.4024352E0,9.5464355E1,4.474162E0,2.5550723E2,1.9449489E2,7.261647E1,2.0598355E2,4.1641903E1,5.770891E1,4.01738E1,1.3503573E0,3.8163223E1,2.2461118E2,1.37187395E1,1.90857E1,2.7390327E0,2.8224418E0,1.5681585E0,5.3935883E1,4.152847E1,1.5953771E0,2.8787851E0,1.1709568E2,1.3841154E2,3.8321983E1,1.5617291E2,6.737679E1,5.239676E0,1.284869E2,7.749666E1,2.5152315E1,1.6489588E1,2.7978415E1,2.97305E1,3.8295162E1,1.8786385E0,3.5230064E1,2.9331586E0],"tree_param":{"num_deleted":"0","num_feature":"113","num_nodes":"57","size_leaf_vector":"1"}},{"base_weights":[-9.3954E-3,-4.2244288E-1,2.9217206E-2,-5.2880245E-1,1.11896135E-1,-4.6043062E-1,6.24946E-2,-2.3090851E-1,-6.0476387E-1,-1.7066874E-2,3.064707E-1,1.8281959E-2,-4.9586427E-1,7.876589E-2,-4.6507344E-1,-4.9688E-1,8.499771E-1,6.3122176E-3,-6.2414384E-1,2.858389E-2,6.807708E-2,-5.317534E-1,1.2503377E-2,2.8367057E-1,4.335356E-2,-5.411351E-1,2.4402976E-1,-1.7316913E-2,8.205445E-3,3.0622404E-2,7.6149404E-3,-1.9306613E-2,2.6333677E-3,-1.8185321E-2,1.4650648E-2,1.1259958E-2,-1.6515305E-2,2.0261884E-2,4.7993707E-3,-2.0930856E-3,3.7586358E-3,-4.5814083E-4,-2.0621981E-2,2.5082048E-2,-1.3006219E-2],"categories":[],"categories_nodes":[],"categories_segments":[],"categories_sizes":[],"default_left":[0,0,0,0,0,0,0,0,0,0,0,0,0,0,0,0,0,0,0,0,0,0,0,0,0,0,0,0,0,0,0,0,0,0,0,0,0,0,0,0,0,0,0,0,0],"id":22,"left_children":[1,3,5,7,9,11,13,15,17,-1,19,-1,21,23,25,27,29,-1,31,-1,33,35,-1,37,39,41,43,-1,-1,-1,-1,-1,-1,-1,-1,-1,-1,-1,-1,-1,-1,-1,-1,-1,-1],"loss_changes":[2.0579325E1,6.3282986E0,1.9260008E1,1.9460735E0,2.7093787E0,3.1538858E0,9.5309725E0,6.2713823E0,1.2818413E0,0E0,2.3285303E0,0E0,2.6246777E0,7.7792625E0,1.9246702E0,1.2076645E0,1.8748236E-1,0E0,1.0429516E0,0E0,3.8169014E0,1.4151306E0,0E0,7.5499372E0,8.50567E0,2.322135E0,1.9305217E0,0E0,0E0,0E0,0E0,0E0,0E0,0E0,0E0,0E0,0E0,0E0,0E0,0E0,0E0,0E0,0E0,0E0,0E0],"parents":[2147483647,0,0,1,1,2,2,3,3,4,4,5,5,6,6,7,7,8,8,10,10,12,12,13,13,14,14,15,15,16,16,18,18,20,20,21,21,23,23,24,24,25,25,26,26],"right_children":[2,4,6,8,10,12,14,16,18,-1,20,-1,22,24,26,28,30,-1,32,-1,34,36,-1,38,40,42,44,-1,-1,-1,-1,-1,-1,-1,-1,-1,-1,-1,-1,-1,-1,-1,-1,-1,-1],"split_conditions":[-9.8999435E-1,-2.613523E-1,-1.5567942E0,-9.005256E-1,-1.1791907E-1,-4.2496347E-1,1.4596964E0,7.793209E-1,-1.1010287E0,-1.7066874E-2,-3.5485402E-1,1.8281959E-2,8.748922E-1,-1.0239514E0,9.419209E-1,8.1244424E-2,6.092072E-1,6.3122176E-3,2.7406962E0,2.858389E-2,5.108999E-1,-1.1972805E0,1.2503377E-2,-5.9235585E-1,-2.9355958E-1,-9.2436904E-1,1.7543866E-1,-1.7316913E-2,8.205445E-3,3.0622404E-2,7.6149404E-3,-1.9306613E-2,2.6333677E-3,-1.8185321E-2,1.4650648E-2,1.1259958E-2,-1.6515305E-2,2.0261884E-2,4.7993707E-3,-2.0930856E-3,3.7586358E-3,-4.5814083E-4,-2.0621981E-2,2.5082048E-2,-1.3006219E-2],"split_indices":[57,13,2,69,34,11,2,64,38,0,21,0,50,5,84,97,2,0,11,0,89,55,0,93,33,30,14,0,0,0,0,0,0,0,0,0,0,0,0,0,0,0,0,0,0],"split_type":[0,0,0,0,0,0,0,0,0,0,0,0,0,0,0,0,0,0,0,0,0,0,0,0,0,0,0,0,0,0,0,0,0,0,0,0,0,0,0,0,0,0,0,0,0],"sum_hessian":[1.2885598E3,1.0930969E2,1.1792501E3,9.117231E1,1.813738E1,7.422709E1,1.1050231E3,1.9345587E1,7.182672E1,3.6039207E0,1.453346E1,1.860347E0,7.236674E1,1.0727867E3,3.223628E1,1.595891E1,3.3866763E0,1.4390635E0,7.038766E1,3.1086483E0,1.1424811E1,7.00302E1,2.3365462E0,1.5704933E2,9.157375E2,2.9327364E1,2.9089139E0,1.467869E1,1.28022E0,2.0789142E0,1.3077619E0,6.861302E1,1.7746375E0,4.2170486E0,7.207763E0,1.0336142E0,6.899658E1,3.661882E1,1.2043051E2,3.8472E2,5.3101746E2,6.622372E0,2.2704992E1,1.4276018E0,1.481312E0],"tree_param":{"num_deleted":"0","num_feature":"113","num_nodes":"45","size_leaf_vector":"1"}},{"base_weights":[4.656604E-3,3.801844E-1,-3.2753223E-1,6.779018E-1,2.0026001E-1,-3.6655435E-1,2.7137202E-1,1.0020533E0,5.245638E-1,1.24265246E-1,3.93972E-1,-2.524023E-1,-5.2249086E-1,4.41154E-1,-4.130195E-1,-1.1596848E-2,1.0275818E0,6.1405987E-1,-2.8672244E-2,2.5214198E-1,-6.8016246E-2,5.216388E-1,-4.1256554E-2,-3.2917196E-1,-5.5314977E-2,4.606397E-1,-5.328167E-1,7.936038E-1,2.0413097E-2,-1.9215453E-2,2.0599006E-2,3.2096397E-2,3.987478E-3,2.0976862E-2,5.359399E-3,2.6804741E-2,-4.9003703E-3,8.6860275E-3,-1.6055685E-2,-3.9260965E-3,1.8837476E-2,1.8202396E-2,-4.5482377E-3,-8.455785E-3,2.1018887E-2,5.5780015E-3,-1.0525823E-2,-1.5955497E-2,2.7260869E-3,1.6494751E-2,4.259212E-3,-1.6195882E-2,1.2408333E-2,2.9588306E-2,-7.551891E-3,-1.22005185E-2,1.2872448E-2],"categories":[],"categories_nodes":[],"categories_segments":[],"categories_sizes":[],"default_left":[0,0,0,0,0,0,0,0,0,0,0,0,0,0,0,0,0,0,0,0,0,0,0,0,0,0,0,0,0,0,0,0,0,0,0,0,0,0,0,0,0,0,0,0,0,0,0,0,0,0,0,0,0,0,0,0,0],"id":23,"left_children":[1,3,5,7,9,11,13,15,17,19,21,23,25,27,29,-1,31,33,35,37,39,41,43,45,47,49,51,53,55,-1,-1,-1,-1,-1,-1,-1,-1,-1,-1,-1,-1,-1,-1,-1,-1,-1,-1,-1,-1,-1,-1,-1,-1,-1,-1,-1,-1],"loss_changes":[1.6034401E2,3.2182014E1,1.6039215E1,1.0749725E1,5.507847E0,1.1273758E1,5.096826E0,2.9407043E0,7.7463646E0,6.719272E0,5.905712E0,5.6083565E0,2.985138E0,5.08083E0,2.672142E0,0E0,2.5343246E0,4.8593674E0,2.963948E0,4.980645E0,4.8788223E0,4.7878265E0,4.650156E0,3.0529137E0,7.394074E0,1.6902685E-2,2.0073776E0,4.0100775E0,3.0883746E0,0E0,0E0,0E0,0E0,0E0,0E0,0E0,0E0,0E0,0E0,0E0,0E0,0E0,0E0,0E0,0E0,0E0,0E0,0E0,0E0,0E0,0E0,0E0,0E0,0E0,0E0,0E0,0E0],"parents":[2147483647,0,0,1,1,2,2,3,3,4,4,5,5,6,6,7,7,8,8,9,9,10,10,11,11,12,12,13,13,14,14,16,16,17,17,18,18,19,19,20,20,21,21,22,22,23,23,24,24,25,25,26,26,27,27,28,28],"right_children":[2,4,6,8,10,12,14,16,18,20,22,24,26,28,30,-1,32,34,36,38,40,42,44,46,48,50,52,54,56,-1,-1,-1,-1,-1,-1,-1,-1,-1,-1,-1,-1,-1,-1,-1,-1,-1,-1,-1,-1,-1,-1,-1,-1,-1,-1,-1,-1],"split_conditions":[-2.2235495E-1,-1.1685894E0,8.7430835E-1,-1.6531359E0,1.7946949E0,7.6374346E-1,1.4411972E-1,-1.1972805E0,6.939502E-1,-6.774389E-1,4.3017018E-1,1.7946949E0,-1.3773785E0,-1.2288057E0,2.4576542E0,-1.1596848E-2,6.905479E-1,9.807237E-1,-8.0906713E-1,2.2061543E0,6.0620004E-1,1.5646311E0,4.5628008E-1,-1.1352429E0,-1.05160356E-1,1.4878163E-1,9.2971075E-1,2.7459512E0,-1.8122696E0,-1.9215453E-2,2.0599006E-2,3.2096397E-2,3.987478E-3,2.0976862E-2,5.359399E-3,2.6804741E-2,-4.9003703E-3,8.6860275E-3,-1.6055685E-2,-3.9260965E-3,1.8837476E-2,1.8202396E-2,-4.5482377E-3,-8.455785E-3,2.1018887E-2,5.5780015E-3,-1.0525823E-2,-1.5955497E-2,2.7260869E-3,1.6494751E-2,4.259212E-3,-1.6195882E-2,1.2408333E-2,2.9588306E-2,-7.551891E-3,-1.22005185E-2,1.2872448E-2],"split_indices":[2,3,70,3,4,3,95,55,93,3,96,4,12,12,34,0,47,48,98,77,10,48,70,38,82,17,11,31,0,0,0,0,0,0,0,0,0,0,0,0,0,0,0,0,0,0,0,0,0,0,0,0,0,0,0,0,0],"split_type":[0,0,0,0,0,0,0,0,0,0,0,0,0,0,0,0,0,0,0,0,0,0,0,0,0,0,0,0,0,0,0,0,0,0,0,0,0,0,0,0,0,0,0,0,0,0,0,0,0,0,0,0,0,0,0,0,0],"sum_hessian":[1.2833641E3,6.0231915E2,6.8104504E2,2.2584691E2,3.764722E2,6.397496E2,4.129547E1,7.0749626E1,1.5509729E2,2.7157333E2,1.0489889E2,3.7087332E2,2.6887625E2,3.3372036E1,7.9234357E0,1.021897E0,6.972773E1,1.3340642E2,2.1690866E1,1.6291527E2,1.0865805E2,8.095392E1,2.394497E1,2.6642502E2,1.0444831E2,2.3413856E0,2.6653485E2,1.7677551E1,1.5694486E1,6.9111834E0,1.0122524E0,6.639295E1,3.3347733E0,1.1107393E2,2.233249E1,2.046073E0,1.9644794E1,1.5613242E2,6.782855E0,1.0040211E2,8.255942E0,7.19564E1,8.997517E0,1.8549282E1,5.395687E0,1.0458752E1,2.5596626E2,2.3900108E1,8.05482E1,1.2626188E0,1.0787667E0,2.649916E2,1.5432603E0,1.4974066E1,2.703485E0,7.676586E0,8.017899E0],"tree_param":{"num_deleted":"0","num_feature":"113","num_nodes":"57","size_leaf_vector":"1"}},{"base_weights":[-3.800078E-3,-3.3685204E-1,4.1213632E-1,-4.9150586E-1,-1.920544E-1,2.840465E-1,7.180787E-1,4.6314406E-1,-4.9981114E-1,-2.269142E-1,3.2868886E-1,3.545572E-1,8.630302E-2,6.1079794E-1,9.4737405E-1,2.4602849E-2,-2.9696517E-3,-4.5290452E-1,-6.251832E-1,-1.1837774E-1,-3.1915382E-1,5.7364702E-2,3.473773E-2,5.287266E-1,2.2854435E-1,3.1890073E-1,-1.0666077E-1,7.2281855E-1,3.351891E-1,1.0526412E0,2.6797235E-1,-7.5038425E-3,-1.4954816E-2,-1.9407906E-2,7.104024E-3,7.890054E-3,-4.952194E-3,1.2345611E-3,-1.1433779E-2,-5.45722E-3,3.0863488E-2,-3.007797E-4,1.8445093E-2,9.843132E-3,-3.962029E-3,1.1919563E-2,-1.736745E-2,-6.4487117E-3,1.8092303E-2,1.5588596E-2,3.030796E-2,2.6295025E-2,2.2629178E-3,-2.5510308E-3,3.247931E-2,-9.210501E-3,2.1784907E-2],"categories":[],"categories_nodes":[],"categories_segments":[],"categories_sizes":[],"default_left":[0,0,0,0,0,0,0,0,0,0,0,0,0,0,0,0,0,0,0,0,0,0,0,0,0,0,0,0,0,0,0,0,0,0,0,0,0,0,0,0,0,0,0,0,0,0,0,0,0,0,0,0,0,0,0,0,0],"id":24,"left_children":[1,3,5,7,9,11,13,15,17,19,21,23,25,27,29,-1,-1,31,33,35,37,39,-1,41,43,45,47,49,51,53,55,-1,-1,-1,-1,-1,-1,-1,-1,-1,-1,-1,-1,-1,-1,-1,-1,-1,-1,-1,-1,-1,-1,-1,-1,-1,-1],"loss_changes":[1.7757568E2,1.5846573E1,2.213375E1,2.955536E0,6.7782135E0,5.594677E0,3.5432816E0,7.799102E-1,1.7227325E0,3.4332237E0,5.238467E0,6.399338E0,4.853004E0,3.3690414E0,3.4079475E0,0E0,0E0,2.2035217E0,1.8447876E0,2.90833E0,4.187502E0,4.560956E0,0E0,5.7563934E0,6.295061E0,3.67527E0,4.6977806E0,4.2822227E0,4.949142E0,1.6052513E0,2.3999426E0,0E0,0E0,0E0,0E0,0E0,0E0,0E0,0E0,0E0,0E0,0E0,0E0,0E0,0E0,0E0,0E0,0E0,0E0,0E0,0E0,0E0,0E0,0E0,0E0,0E0,0E0],"parents":[2147483647,0,0,1,1,2,2,3,3,4,4,5,5,6,6,7,7,8,8,9,9,10,10,11,11,12,12,13,13,14,14,17,17,18,18,19,19,20,20,21,21,23,23,24,24,25,25,26,26,27,27,28,28,29,29,30,30],"right_children":[2,4,6,8,10,12,14,16,18,20,22,24,26,28,30,-1,-1,32,34,36,38,40,-1,42,44,46,48,50,52,54,56,-1,-1,-1,-1,-1,-1,-1,-1,-1,-1,-1,-1,-1,-1,-1,-1,-1,-1,-1,-1,-1,-1,-1,-1,-1,-1],"split_conditions":[7.9806656E-2,-6.561388E-1,1.1427418E0,-1.077062E0,1.0261226E0,1.7946949E0,1.5823243E0,2.5324197E0,1.1121243E0,-1.2276267E-1,-2.1783455E-1,-6.2538415E-1,9.386675E-2,2.6061583E-1,1.6724297E0,2.4602849E-2,-2.9696517E-3,-9.605491E-1,1.5374696E-1,-1.0426131E0,-6.8286335E-1,-5.2680276E-2,3.473773E-2,-7.2811514E-1,8.244452E-1,1.8615011E0,1.4593959E0,5.065682E-1,3.6204597E-1,-6.943879E-1,1.9344571E0,-7.5038425E-3,-1.4954816E-2,-1.9407906E-2,7.104024E-3,7.890054E-3,-4.952194E-3,1.2345611E-3,-1.1433779E-2,-5.45722E-3,3.0863488E-2,-3.007797E-4,1.8445093E-2,9.843132E-3,-3.962029E-3,1.1919563E-2,-1.736745E-2,-6.4487117E-3,1.8092303E-2,1.5588596E-2,3.030796E-2,2.6295025E-2,2.2629178E-3,-2.5510308E-3,3.247931E-2,-9.210501E-3,2.1784907E-2],"split_indices":[3,2,3,82,81,4,2,45,68,94,21,13,27,97,19,0,0,12,12,19,44,2,0,46,63,59,0,66,71,16,91,0,0,0,0,0,0,0,0,0,0,0,0,0,0,0,0,0,0,0,0,0,0,0,0,0,0],"split_type":[0,0,0,0,0,0,0,0,0,0,0,0,0,0,0,0,0,0,0,0,0,0,0,0,0,0,0,0,0,0,0,0,0,0,0,0,0,0,0,0,0,0,0,0,0,0,0,0,0,0,0,0,0,0,0,0,0],"sum_hessian":[1.2798695E3,7.108567E2,5.690128E2,3.425719E2,3.682848E2,4.024474E2,1.6656541E2,2.4822702E0,3.4008963E2,3.457066E2,2.2578175E1,2.960794E2,1.0636798E2,1.1597014E2,5.0595284E1,1.2375395E0,1.2447306E0,2.5084946E2,8.9240166E1,1.5987195E2,1.8583467E2,1.7817503E1,4.760673E0,1.2294895E2,1.7313046E2,4.7934864E1,5.8433117E1,8.130236E1,3.4667774E1,4.3332016E1,7.263267E0,4.723592E1,2.0361354E2,8.728748E1,1.9526858E0,1.69339E1,1.4293805E2,2.73218E1,1.5851286E2,1.4948297E1,2.8692055E0,1.706488E1,1.0588407E2,1.3574362E2,3.738683E1,4.4597076E1,3.3377874E0,5.1302227E1,7.1308894E0,4.9276257E1,3.2026108E1,1.0471624E1,2.419615E1,1.0662482E0,4.226577E1,3.367408E0,3.8958588E0],"tree_param":{"num_deleted":"0","num_feature":"113","num_nodes":"57","size_leaf_vector":"1"}},{"base_weights":[-1.244684E-3,-5.3602225E-1,2.3024756E-2,3.8081992E-1,-5.858546E-1,-4.4572666E-1,5.1162753E-2,2.689602E-2,-1.1139646E-2,-2.5261483E-1,-2.0861782E-2,-5.2179164E-1,6.3406867E-1,6.9228515E-2,-5.190936E-1,-1.9471852E-2,6.1943334E-1,-1.720643E-1,-5.9097064E-1,3.2318115E-2,-1.2153134E-2,2.94744E-1,3.1064374E-2,-6.370806E-1,3.030791E-1,2.9231265E-2,-1.1340182E-2,8.807131E-3,-1.86917E-2,1.6542699E-4,-1.924646E-2,1.4331037E-2,4.4226585E-4,2.0952681E-2,6.054223E-4,-2.0527817E-2,5.1044725E-4,2.4799623E-2,-1.3754567E-2],"categories":[],"categories_nodes":[],"categories_segments":[],"categories_sizes":[],"default_left":[0,0,0,0,0,0,0,0,0,0,0,0,0,0,0,0,0,0,0,0,0,0,0,0,0,0,0,0,0,0,0,0,0,0,0,0,0,0,0],"id":25,"left_children":[1,3,5,7,9,11,13,-1,-1,15,-1,17,19,21,23,-1,25,27,29,-1,-1,31,33,35,37,-1,-1,-1,-1,-1,-1,-1,-1,-1,-1,-1,-1,-1,-1],"loss_changes":[1.6754412E1,2.783535E0,1.6311047E1,1.6885734E0,1.7788982E0,6.0830927E0,1.204701E1,0E0,0E0,5.524671E0,0E0,1.4944782E0,2.7669773E0,9.724619E0,3.677413E0,0E0,2.1889553E0,2.7671096E0,1.6528263E0,0E0,0E0,8.372611E0,7.0196037E0,9.909439E-1,2.4465852E0,0E0,0E0,0E0,0E0,0E0,0E0,0E0,0E0,0E0,0E0,0E0,0E0,0E0,0E0],"parents":[2147483647,0,0,1,1,2,2,3,3,4,4,5,5,6,6,9,9,11,11,12,12,13,13,14,14,16,16,17,17,18,18,21,21,22,22,23,23,24,24],"right_children":[2,4,6,8,10,12,14,-1,-1,16,-1,18,20,22,24,-1,26,28,30,-1,-1,32,34,36,38,-1,-1,-1,-1,-1,-1,-1,-1,-1,-1,-1,-1,-1,-1],"split_conditions":[-1.5256356E0,-7.634462E-1,-1.4099662E0,-5.561009E-1,-9.005256E-1,1.0918438E0,1.5414135E0,2.689602E-2,-1.1139646E-2,-6.8286335E-1,-2.0861782E-2,-5.0112677E-1,2.4759276E-1,-1.0239514E0,9.419209E-1,-1.9471852E-2,-5.554058E-2,-1.1544406E-1,-1.3422703E0,3.2318115E-2,-1.2153134E-2,5.3864443E-1,-1.2041641E0,1.5609169E0,-2.7553981E-2,2.9231265E-2,-1.1340182E-2,8.807131E-3,-1.86917E-2,1.6542699E-4,-1.924646E-2,1.4331037E-2,4.4226585E-4,2.0952681E-2,6.054223E-4,-2.0527817E-2,5.1044725E-4,2.4799623E-2,-1.3754567E-2],"split_indices":[57,18,63,12,69,50,2,0,0,44,0,98,10,5,84,0,94,17,83,0,0,0,31,31,95,0,0,0,0,0,0,0,0,0,0,0,0,0,0],"split_type":[0,0,0,0,0,0,0,0,0,0,0,0,0,0,0,0,0,0,0,0,0,0,0,0,0,0,0,0,0,0,0,0,0,0,0,0,0,0,0],"sum_hessian":[1.28896E3,5.5041138E1,1.2339188E3,2.4949882E0,5.254615E1,6.903431E1,1.1648845E3,1.3662372E0,1.1287509E0,1.3817219E1,3.872893E1,6.497405E1,4.0602584E0,1.1299657E3,3.4918785E1,9.674666E0,4.1425524E0,1.1305825E1,5.366823E1,2.8206182E0,1.2396401E0,1.6257451E2,9.6739124E2,3.0733463E1,4.1853228E0,3.0723643E0,1.0701883E0,5.7343473E0,5.5714774E0,4.264652E0,4.9403576E1,9.78995E1,6.467501E1,1.45098505E1,9.528814E2,2.8622782E1,2.1106818E0,2.429545E0,1.755778E0],"tree_param":{"num_deleted":"0","num_feature":"113","num_nodes":"39","size_leaf_vector":"1"}},{"base_weights":[-1.2876461E-2,3.904944E-1,-2.9482594E-1,1.0316647E0,2.9637975E-1,-1.3599147E-1,-4.6053684E-1,1.0748495E0,3.444859E-1,7.6404935E-1,2.5016132E-1,-2.556898E-1,1.05279535E-1,3.5392502E-1,-4.855819E-1,1.1167009E0,7.453312E-1,-2.285013E-1,2.5320534E-2,-6.1939567E-2,9.138386E-1,-9.381829E-2,2.9827982E-1,-3.0473337E-1,6.1469316E-2,3.97124E-1,-1.508099E-1,-4.0249732E-1,9.035856E-1,-3.1968457E-1,-5.622975E-1,3.3880938E-2,1.1511195E-2,3.0207938E-2,-1.7710461E-4,9.005856E-4,-1.2055175E-2,-1.3286511E-2,2.4278669E-2,3.7162793E-3,2.9859431E-2,-5.8077723E-3,2.5404222E-2,1.201748E-2,3.7143675E-3,-8.431853E-4,-1.1103969E-2,-1.3961702E-2,8.408045E-3,7.490636E-3,2.9677743E-2,-8.594278E-3,1.2386759E-2,3.8615954E-3,-1.6890533E-2,-1.4893821E-4,3.4229033E-2,-1.2054284E-2,-9.786107E-4,-1.7223602E-2,1.0591936E-2],"categories":[],"categories_nodes":[],"categories_segments":[],"categories_sizes":[],"default_left":[0,0,0,0,0,0,0,0,0,0,0,0,0,0,0,0,0,0,0,0,0,0,0,0,0,0,0,0,0,0,0,0,0,0,0,0,0,0,0,0,0,0,0,0,0,0,0,0,0,0,0,0,0,0,0,0,0,0,0,0,0],"id":26,"left_children":[1,3,5,7,9,11,13,15,17,19,21,23,25,27,29,31,33,35,-1,37,39,41,43,45,47,49,51,53,55,57,59,-1,-1,-1,-1,-1,-1,-1,-1,-1,-1,-1,-1,-1,-1,-1,-1,-1,-1,-1,-1,-1,-1,-1,-1,-1,-1,-1,-1,-1,-1],"loss_changes":[1.4418655E2,3.1169441E1,1.9577324E1,1.5990143E0,9.670475E0,1.1070965E1,7.612465E0,2.2239685E-2,1.7371614E0,5.073227E0,6.9249916E0,3.9991093E0,9.590374E0,5.1286983E0,4.329468E0,5.8387756E-2,1.969233E0,1.5993589E-1,0E0,2.7350028E0,2.0898914E0,5.034525E0,6.4793205E0,4.0020943E0,4.1769805E0,4.980088E0,5.3678765E0,5.4273844E-1,1.5036411E0,2.6827383E0,2.8103104E0,0E0,0E0,0E0,0E0,0E0,0E0,0E0,0E0,0E0,0E0,0E0,0E0,0E0,0E0,0E0,0E0,0E0,0E0,0E0,0E0,0E0,0E0,0E0,0E0,0E0,0E0,0E0,0E0,0E0,0E0],"parents":[2147483647,0,0,1,1,2,2,3,3,4,4,5,5,6,6,7,7,8,8,9,9,10,10,11,11,12,12,13,13,14,14,15,15,16,16,17,17,19,19,20,20,21,21,22,22,23,23,24,24,25,25,26,26,27,27,28,28,29,29,30,30],"right_children":[2,4,6,8,10,12,14,16,18,20,22,24,26,28,30,32,34,36,-1,38,40,42,44,46,48,50,52,54,56,58,60,-1,-1,-1,-1,-1,-1,-1,-1,-1,-1,-1,-1,-1,-1,-1,-1,-1,-1,-1,-1,-1,-1,-1,-1,-1,-1,-1,-1,-1,-1],"split_conditions":[-3.7308064E-1,-1.6699816E0,3.911046E-1,-3.2295528E-1,-1.5106155E0,1.7946949E0,-1.3773785E0,1.7097179E0,-4.9187347E-1,-8.8967633E-1,-8.3940566E-1,1.1947752E0,-3.314123E-1,-1.2991712E0,3.4879908E-1,2.3914778E0,4.8500683E-2,-1.701233E0,2.5320534E-2,-1.5328509E0,-1.3422703E0,3.1687406E-1,-6.9899744E-1,-2.1108182E-1,-1.679137E-1,8.820913E-1,8.484859E-1,-9.764436E-1,5.307055E-1,1.233362E-1,9.0832114E-1,3.3880938E-2,1.1511195E-2,3.0207938E-2,-1.7710461E-4,9.005856E-4,-1.2055175E-2,-1.3286511E-2,2.4278669E-2,3.7162793E-3,2.9859431E-2,-5.8077723E-3,2.5404222E-2,1.201748E-2,3.7143675E-3,-8.431853E-4,-1.1103969E-2,-1.3961702E-2,8.408045E-3,7.490636E-3,2.9677743E-2,-8.594278E-3,1.2386759E-2,3.8615954E-3,-1.6890533E-2,-1.4893821E-4,3.4229033E-2,-1.2054284E-2,-9.786107E-4,-1.7223602E-2,1.0591936E-2],"split_indices":[2,3,2,63,63,4,12,55,21,56,30,13,9,32,88,13,97,0,0,64,83,69,2,2,96,32,99,34,2,94,11,0,0,0,0,0,0,0,0,0,0,0,0,0,0,0,0,0,0,0,0,0,0,0,0,0,0,0,0,0,0],"split_type":[0,0,0,0,0,0,0,0,0,0,0,0,0,0,0,0,0,0,0,0,0,0,0,0,0,0,0,0,0,0,0,0,0,0,0,0,0,0,0,0,0,0,0,0,0,0,0,0,0,0,0,0,0,0,0,0,0,0,0,0,0],"sum_hessian":[1.2657823E3,5.206005E2,7.451818E2,6.53605E1,4.5524005E2,3.8141498E2,3.6376688E2,6.0965088E1,4.3954062E0,3.954683E1,4.156932E2,2.5489688E2,1.26518105E2,1.0460527E1,3.5330634E2,5.1974968E1,8.990118E0,2.2998903E0,2.0955162E0,6.1607633E0,3.3386066E1,5.0897537E1,3.647957E2,2.2079384E2,3.410304E1,5.8873734E1,6.764436E1,4.514953E0,5.9455743E0,1.1335134E2,2.39955E2,5.056069E1,1.414279E0,6.4156485E0,2.574469E0,1.2549857E0,1.0449046E0,4.6285768E0,1.5321863E0,3.3571043E0,3.0028961E1,4.67345E1,4.1630383E0,2.2913899E2,1.356567E2,4.2491447E1,1.783024E2,9.676169E0,2.442687E1,4.827529E1,1.0598444E1,5.491885E1,1.2725517E1,1.0936852E0,3.4212677E0,1.4344572E0,4.5111175E0,8.7825905E1,2.5525434E1,2.3726337E2,2.69164E0],"tree_param":{"num_deleted":"0","num_feature":"113","num_nodes":"61","size_leaf_vector":"1"}},{"base_weights":[-2.5680556E-3,-3.2723534E-1,3.7769535E-1,-5.055881E-1,-1.6075316E-1,2.564415E-1,6.841026E-1,1.07129514E-1,-5.147916E-1,-1.967427E-1,3.470719E-1,3.323827E-1,5.347668E-2,5.423899E-1,8.8757676E-1,2.1879066E-2,-1.5380119E-2,-6.2082225E-1,-4.6845955E-1,-1.2580206E-1,-3.718416E-1,-6.423816E-2,8.4226996E-1,4.7799313E-1,2.1355242E-1,-2.1608155E-2,5.6890684E-1,9.655123E-1,4.211673E-1,9.238136E-1,-8.36565E-3,-1.8811885E-2,-1.6247849E-3,-1.5360059E-2,-8.145895E-3,6.2904325E-3,-5.46387E-3,-1.4890993E-2,-6.3616894E-3,1.948798E-2,-1.20625375E-2,-3.201725E-3,3.3008363E-2,1.7079923E-2,1.8821191E-4,3.4394814E-3,1.5204888E-2,-3.768136E-3,1.0231415E-2,3.183364E-2,3.3651906E-4,3.2212034E-2,-1.3645584E-2,1.527469E-2,-1.4802003E-4,2.8757222E-2,5.409126E-3],"categories":[],"categories_nodes":[],"categories_segments":[],"categories_sizes":[],"default_left":[0,0,0,0,0,0,0,0,0,0,0,0,0,0,0,0,0,0,0,0,0,0,0,0,0,0,0,0,0,0,0,0,0,0,0,0,0,0,0,0,0,0,0,0,0,0,0,0,0,0,0,0,0,0,0,0,0],"id":27,"left_children":[1,3,5,7,9,11,13,15,17,19,21,23,25,27,29,-1,-1,31,33,35,37,39,41,43,45,47,49,51,53,55,-1,-1,-1,-1,-1,-1,-1,-1,-1,-1,-1,-1,-1,-1,-1,-1,-1,-1,-1,-1,-1,-1,-1,-1,-1,-1,-1],"loss_changes":[1.6014774E2,2.0695633E1,2.2021187E1,1.9575424E0,6.70951E0,6.604536E0,4.3856354E0,2.6182537E0,1.342804E0,4.1761675E0,5.025938E0,5.3045616E0,4.5858583E0,4.828562E0,3.120144E0,0E0,0E0,3.127632E-1,1.8802567E0,4.638708E0,1.8349524E0,3.701109E0,2.8466148E0,6.011423E0,4.9850044E0,3.9694805E0,4.1229224E0,3.8633537E0,3.0435352E0,1.5307236E0,0E0,0E0,0E0,0E0,0E0,0E0,0E0,0E0,0E0,0E0,0E0,0E0,0E0,0E0,0E0,0E0,0E0,0E0,0E0,0E0,0E0,0E0,0E0,0E0,0E0,0E0,0E0],"parents":[2147483647,0,0,1,1,2,2,3,3,4,4,5,5,6,6,7,7,8,8,9,9,10,10,11,11,12,12,13,13,14,14,17,17,18,18,19,19,20,20,21,21,22,22,23,23,24,24,25,25,26,26,27,27,28,28,29,29],"right_children":[2,4,6,8,10,12,14,16,18,20,22,24,26,28,30,-1,-1,32,34,36,38,40,42,44,46,48,50,52,54,56,-1,-1,-1,-1,-1,-1,-1,-1,-1,-1,-1,-1,-1,-1,-1,-1,-1,-1,-1,-1,-1,-1,-1,-1,-1,-1,-1],"split_conditions":[6.0917795E-2,-8.2301843E-1,1.1427418E0,-8.6577904E-1,9.7133297E-1,1.7946949E0,1.5050517E0,-9.258155E-1,-5.0266117E-1,1.7946949E0,-2.571068E-2,-1.21335715E-1,8.016978E-1,-2.5441897E-1,1.7463871E0,2.1879066E-2,-1.5380119E-2,2.8989842E0,1.6975832E-1,-9.1681045E-1,2.9029566E-1,-4.051106E-1,-9.258155E-1,4.383281E-1,2.4740234E-1,8.116981E-1,-2.2034453E-1,1.3699954E0,5.003202E-1,5.501643E-1,-8.36565E-3,-1.8811885E-2,-1.6247849E-3,-1.5360059E-2,-8.145895E-3,6.2904325E-3,-5.46387E-3,-1.4890993E-2,-6.3616894E-3,1.948798E-2,-1.20625375E-2,-3.201725E-3,3.3008363E-2,1.7079923E-2,1.8821191E-4,3.4394814E-3,1.5204888E-2,-3.768136E-3,1.0231415E-2,3.183364E-2,3.3651906E-4,3.2212034E-2,-1.3645584E-2,1.527469E-2,-1.4802003E-4,2.8757222E-2,5.409126E-3],"split_indices":[3,3,3,82,81,4,3,91,22,4,14,95,98,97,10,0,0,30,9,44,71,87,91,45,97,3,81,48,1,97,0,0,0,0,0,0,0,0,0,0,0,0,0,0,0,0,0,0,0,0,0,0,0,0,0,0,0],"split_type":[0,0,0,0,0,0,0,0,0,0,0,0,0,0,0,0,0,0,0,0,0,0,0,0,0,0,0,0,0,0,0,0,0,0,0,0,0,0,0,0,0,0,0,0,0,0,0,0,0,0,0,0,0,0,0,0,0],"sum_hessian":[1.2951715E3,6.9873444E2,5.964371E2,3.363572E2,3.6237726E2,4.2864664E2,1.6779044E2,4.820097E0,3.315371E2,3.3896722E2,2.341002E1,3.1146967E2,1.1717696E2,1.01066666E2,6.672377E1,2.317277E0,2.5028203E0,9.704671E1,2.344904E2,2.424557E2,9.651153E1,1.3263597E1,1.0146425E1,1.3860524E2,1.7286443E2,1.03114E2,1.40629635E1,2.0955967E1,8.0110695E1,6.491509E1,1.80868E0,9.5884155E1,1.1625488E0,1.9072086E2,4.3769547E1,3.4464233E1,2.0799147E2,5.3056644E1,4.345488E1,