{"learner":{"attributes":{"best_iteration":"88","best_score":"0.9821347789203645","scikit_learn":"{\"_estimator_type\": \"classifier\"}"},"feature_names":[],"feature_types":[],"gradient_booster":{"model":{"cats":{"enc":[],"feature_segments":[],"sorted_idx":[]},"gbtree_model_param":{"num_parallel_tree":"1","num_trees":"357"},"iteration_indptr":[0,3,6,9,12,15,18,21,24,27,30,33,36,39,42,45,48,51,54,57,60,63,66,69,72,75,78,81,84,87,90,93,96,99,102,105,108,111,114,117,120,123,126,129,132,135,138,141,144,147,150,153,156,159,162,165,168,171,174,177,180,183,186,189,192,195,198,201,204,207,210,213,216,219,222,225,228,231,234,237,240,243,246,249,252,255,258,261,264,267,270,273,276,279,282,285,288,291,294,297,300,303,306,309,312,315,318,321,324,327,330,333,336,339,342,345,348,351,354,357],"tree_info":[0,1,2,0,1,2,0,1,2,0,1,2,0,1,2,0,1,2,0,1,2,0,1,2,0,1,2,0,1,2,0,1,2,0,1,2,0,1,2,0,1,2,0,1,2,0,1,2,0,1,2,0,1,2,0,1,2,0,1,2,0,1,2,0,1,2,0,1,2,0,1,2,0,1,2,0,1,2,0,1,2,0,1,2,0,1,2,0,1,2,0,1,2,0,1,2,0,1,2,0,1,2,0,1,2,0,1,2,0,1,2,0,1,2,0,1,2,0,1,2,0,1,2,0,1,2,0,1,2,0,1,2,0,1,2,0,1,2,0,1,2,0,1,2,0,1,2,0,1,2,0,1,2,0,1,2,0,1,2,0,1,2,0,1,2,0,1,2,0,1,2,0,1,2,0,1,2,0,1,2,0,1,2,0,1,2,0,1,2,0,1,2,0,1,2,0,1,2,0,1,2,0,1,2,0,1,2,0,1,2,0,1,2,0,1,2,0,1,2,0,1,2,0,1,2,0,1,2,0,1,2,0,1,2,0,1,2,0,1,2,0,1,2,0,1,2,0,1,2,0,1,2,0,1,2,0,1,2,0,1,2,0,1,2,0,1,2,0,1,2,0,1,2,0,1,2,0,1,2,0,1,2,0,1,2,0,1,2,0,1,2,0,1,2,0,1,2,0,1,2,0,1,2,0,1,2,0,1,2,0,1,2,0,1,2,0,1,2,0,1,2,0,1,2,0,1,2,0,1,2,0,1,2,0,1,2,0,1,2,0,1,2,0,1,2,0,1,2,0,1,2,0,1,2,0,1,2],"trees":[{"base_weights":[-2.5056459E-3,-3.66749E-1,5.799229E-1,-5.665611E-1,-1.8049009E-1,4.4102308E-1,1.1698756E0,-6.288405E-1,-4.581621E-1,-9.1940425E-2,-3.6786658E-1,3.283984E-1,6.131514E-1,1.2173206E0,5.7332987E-1,-3.6653137E-1,-6.426088E-1,-4.6976635E-1,2.4975793E-2,8.599496E-2,-2.02832E-1,-4.0441072E-1,1.1089422E-1,2.9204285E-1,9.43934E-1,7.500107E-1,4.2133954E-1,1.245215E0,2.590568E-1,-5.0027407E-4,3.707339E-2,2.7415648E-2,-1.5666435E-2,8.180253E-3,-1.9391917E-2,1.0447227E-2,-1.4560375E-2,9.858424E-3,-2.491379E-3,-2.6160208E-4,-7.8724595E-3,-1.2659694E-2,1.43822525E-2,1.5256594E-2,-1.8519808E-2,1.0844486E-2,-4.2976157E-4,-6.706144E-3,3.2078046E-2,1.6561413E-2,3.0566867E-2,3.472176E-2,1.0397711E-2,6.507467E-3,3.8165066E-2,1.9384714E-2,-1.2977376E-2,-8.918722E-3,2.4975793E-2],"categories":[],"categories_nodes":[],"categories_segments":[],"categories_sizes":[],"default_left":[0,0,0,0,0,0,0,0,0,0,0,0,0,0,0,0,0,0,0,0,0,0,0,0,0,0,0,0,0,0,0,0,0,0,0,0,0,0,0,0,0,0,0,0,0,0,0,0,0,0,0,0,0,0,0,0,0,0,0],"id":0,"left_children":[1,3,5,7,9,11,13,15,17,19,21,23,25,27,29,31,33,35,-1,37,39,41,43,45,47,49,51,53,55,57,-1,-1,-1,-1,-1,-1,-1,-1,-1,-1,-1,-1,-1,-1,-1,-1,-1,-1,-1,-1,-1,-1,-1,-1,-1,-1,-1,-1,-1],"loss_changes":[4.0783017E2,4.3915237E1,6.0095795E1,3.5609283E0,1.0147009E1,1.1436264E1,3.274582E0,1.0625153E0,3.5621872E0,8.2655E0,3.4841938E0,7.8930893E0,5.8866653E0,3.129013E0,4.6499634E0,4.5141582E0,1.3557587E0,2.8513718E0,0E0,6.6382546E0,2.979618E0,3.0432625E0,4.578285E0,7.368675E0,3.1522865E0,6.7092514E0,5.1376495E0,3.1944122E0,1.5954559E0,2.1149554E0,0E0,0E0,0E0,0E0,0E0,0E0,0E0,0E0,0E0,0E0,0E0,0E0,0E0,0E0,0E0,0E0,0E0,0E0,0E0,0E0,0E0,0E0,0E0,0E0,0E0,0E0,0E0,0E0,0E0],"parents":[2147483647,0,0,1,1,2,2,3,3,4,4,5,5,6,6,7,7,8,8,9,9,10,10,11,11,12,12,13,13,14,14,15,15,16,16,17,17,19,19,20,20,21,21,22,22,23,23,24,24,25,25,26,26,27,27,28,28,29,29],"right_children":[2,4,6,8,10,12,14,16,18,20,22,24,26,28,30,32,34,36,-1,38,40,42,44,46,48,50,52,54,56,58,-1,-1,-1,-1,-1,-1,-1,-1,-1,-1,-1,-1,-1,-1,-1,-1,-1,-1,-1,-1,-1,-1,-1,-1,-1,-1,-1,-1,-1],"split_conditions":[1.6696975E-1,-7.743142E-1,1.3646764E0,-9.3758774E-1,1.6795616E0,5.893285E-1,1.207628E0,-4.213955E-1,2.066502E0,-1.5888743E-1,6.324772E-1,1.5865431E0,-2.8568155E-1,1.3896539E0,1.473038E0,-1.4805504E-3,-1.3967402E0,-1.1222146E0,2.4975793E-2,-2.8568155E-1,-3.64648E-1,2.5421824E0,1.053381E0,1.106212E0,-1.3609502E0,9.760295E-1,-1.192018E0,-4.729189E-1,3.16925E-1,1.1034228E-1,3.707339E-2,2.7415648E-2,-1.5666435E-2,8.180253E-3,-1.9391917E-2,1.0447227E-2,-1.4560375E-2,9.858424E-3,-2.491379E-3,-2.6160208E-4,-7.8724595E-3,-1.2659694E-2,1.43822525E-2,1.5256594E-2,-1.8519808E-2,1.0844486E-2,-4.2976157E-4,-6.706144E-3,3.2078046E-2,1.6561413E-2,3.0566867E-2,3.472176E-2,1.0397711E-2,6.507467E-3,3.8165066E-2,1.9384714E-2,-1.2977376E-2,-8.918722E-3,2.4975793E-2],"split_indices":[2,3,3,2,4,91,33,95,1,92,88,38,33,84,3,70,77,82,0,33,94,27,44,19,43,3,61,14,32,17,0,0,0,0,0,0,0,0,0,0,0,0,0,0,0,0,0,0,0,0,0,0,0,0,0,0,0,0,0],"split_type":[0,0,0,0,0,0,0,0,0,0,0,0,0,0,0,0,0,0,0,0,0,0,0,0,0,0,0,0,0,0,0,0,0,0,0,0,0,0,0,0,0,0,0,0,0,0,0,0,0,0,0,0,0,0,0,0,0,0,0],"sum_hessian":[1.9204031E3,1.1817328E3,7.386702E2,5.6913873E2,6.125941E2,5.9931396E2,1.393563E2,3.5841452E2,2.107242E2,4.1701395E2,1.9558017E2,3.6403278E2,2.3528119E2,1.2812549E2,1.1230815E1,1.9252033E1,3.3916248E2,2.0947688E2,1.2473185E0,1.601936E2,2.5682034E2,1.818544E2,1.3725771E1,3.451231E2,1.8909666E1,1.3561125E2,9.966993E1,1.2421034E2,3.9151356E0,6.5533705E0,4.6774445E0,1.5591481E0,1.7692884E1,1.1054761E0,3.38057E2,3.5159974E0,2.0596088E2,6.539303E1,9.4800575E1,6.0586514E1,1.9623384E2,1.7882022E2,3.0341806E0,9.07296E0,4.652811E0,2.8120627E2,6.3916832E1,1.7572801E0,1.7152386E1,7.986478E1,5.574648E1,7.8534675E0,9.181646E1,3.4037368E0,1.2080661E2,2.5523636E0,1.3627719E0,5.306052E0,1.2473185E0],"tree_param":{"num_deleted":"0","num_feature":"113","num_nodes":"59","size_leaf_vector":"1"}},{"base_weights":[-2.602198E-3,-5.9575355E-1,3.1459283E-2,-6.223137E-1,1.1918056E-2,7.560145E-2,-5.018275E-1,-6.360536E-1,9.163305E-3,-9.0092495E-2,1.3111605E-1,2.030567E-2,-5.211387E-1,-6.501145E-1,9.163305E-3,-4.447652E-2,-4.283206E-1,2.373983E-1,5.5455863E-2,-5.543776E-1,1.2475859E-2,5.1740995E-3,-1.992708E-2,8.736996E-4,-6.682379E-3,-1.53159015E-2,3.0218048E-2,2.7224742E-2,6.579781E-3,-1.1115699E-2,2.208707E-3,-1.9636491E-2,-9.935689E-3,1.6570747E-2,-1.7754871E-2],"categories":[],"categories_nodes":[],"categories_segments":[],"categories_sizes":[],"default_left":[0,0,0,0,0,0,0,0,0,0,0,0,0,0,0,0,0,0,0,0,0,0,0,0,0,0,0,0,0,0,0,0,0,0,0],"id":1,"left_children":[1,3,5,7,-1,9,11,13,-1,15,17,-1,19,21,-1,23,25,27,29,31,33,-1,-1,-1,-1,-1,-1,-1,-1,-1,-1,-1,-1,-1,-1],"loss_changes":[3.8788517E1,2.9970932E0,4.27801E1,1.4936714E0,0E0,1.544456E1,3.5151253E0,1.5326118E0,0E0,6.4863234E0,1.0095713E1,0E0,2.4414406E0,1.2716255E0,0E0,4.8959E0,6.4142733E0,6.1280365E0,5.720539E0,2.672493E0,3.2718322E0,0E0,0E0,0E0,0E0,0E0,0E0,0E0,0E0,0E0,0E0,0E0,0E0,0E0,0E0],"parents":[2147483647,0,0,1,1,2,2,3,3,5,5,6,6,7,7,9,9,10,10,12,12,13,13,15,15,16,16,17,17,18,18,19,19,20,20],"right_children":[2,4,6,8,-1,10,12,14,-1,16,18,-1,20,22,-1,24,26,28,30,32,34,-1,-1,-1,-1,-1,-1,-1,-1,-1,-1,-1,-1,-1,-1],"split_conditions":[-1.622486E0,5.4908884E-1,1.272193E0,4.5929214E-1,1.1918056E-2,-7.426786E-1,-2.9548714E0,9.5302534E-1,9.163305E-3,1.9629407E0,-3.7781173E-1,2.030567E-2,5.0495505E-1,-1.1558263E0,9.163305E-3,6.7987293E-1,2.2062495E0,-1.9446512E0,-1.5295552E0,2.9620078E-1,-8.9442587E-1,5.1740995E-3,-1.992708E-2,8.736996E-4,-6.682379E-3,-1.53159015E-2,3.0218048E-2,2.7224742E-2,6.579781E-3,-1.1115699E-2,2.208707E-3,-1.9636491E-2,-9.935689E-3,1.6570747E-2,-1.7754871E-2],"split_indices":[2,96,2,14,0,13,11,75,0,56,18,0,77,55,0,91,97,14,63,67,92,0,0,0,0,0,0,0,0,0,0,0,0,0,0],"split_type":[0,0,0,0,0,0,0,0,0,0,0,0,0,0,0,0,0,0,0,0,0,0,0,0,0,0,0,0,0,0,0,0,0,0,0],"sum_hessian":[1.9179526E3,1.0326099E2,1.8146917E3,1.00934616E2,2.3263652E0,1.6767582E3,1.3793341E2,9.977144E1,1.1631826E0,4.206437E2,1.2561145E3,1.6745725E0,1.3625883E2,9.860825E1,1.1631826E0,3.716515E2,4.8992207E1,5.214623E2,7.346523E2,1.2823233E2,8.026508E0,1.4750068E0,9.713325E1,2.6364172E2,1.0800977E2,4.6948086E1,2.0441225E0,1.2401944E1,5.0906033E2,2.9257418E1,7.0539484E2,8.71739E1,4.1058437E1,4.284618E0,3.741891E0],"tree_param":{"num_deleted":"0","num_feature":"113","num_nodes":"35","size_leaf_vector":"1"}},{"base_weights":[5.689406E-3,4.8771825E-1,-3.9627805E-1,1.0027645E0,3.320728E-1,-2.0376323E-1,-5.52209E-1,1.2562494E0,7.298106E-1,4.7241423E-1,1.8262663E-1,8.9957035E-1,-2.2297733E-1,5.202758E-1,-5.747044E-1,1.3734215E0,8.987377E-1,8.3053994E-1,-2.0451516E-2,4.3718204E-1,1.0977653E0,7.018516E-2,4.239257E-1,-1.2488097E-2,3.5688758E-2,-6.636294E-2,-3.0922458E-1,-3.6105952E-1,9.323596E-1,-4.2884016E-1,-6.2532204E-1,4.2246066E-2,1.8925246E-2,2.9146159E-2,-3.1571775E-3,2.5999226E-2,-1.4965964E-2,-1.1072281E-2,3.179971E-2,1.364291E-2,-1.4360306E-2,3.7989266E-2,1.9503861E-3,5.733699E-3,-4.2373124E-3,3.338579E-2,1.0077746E-2,-7.263998E-3,4.908189E-3,-1.0045722E-2,1.1778449E-2,-1.6267516E-2,3.6330037E-3,-2.338896E-3,3.5688758E-2,-1.3810834E-2,7.002811E-4,-1.9048505E-2,-7.904801E-3],"categories":[],"categories_nodes":[],"categories_segments":[],"categories_sizes":[],"default_left":[0,0,0,0,0,0,0,0,0,0,0,0,0,0,0,0,0,0,0,0,0,0,0,0,0,0,0,0,0,0,0,0,0,0,0,0,0,0,0,0,0,0,0,0,0,0,0,0,0,0,0,0,0,0,0,0,0,0,0],"id":2,"left_children":[1,3,5,7,9,11,13,15,17,19,21,23,25,27,29,31,33,35,37,39,41,43,45,-1,-1,47,49,51,53,55,57,-1,-1,-1,-1,-1,-1,-1,-1,-1,-1,-1,-1,-1,-1,-1,-1,-1,-1,-1,-1,-1,-1,-1,-1,-1,-1,-1,-1],"loss_changes":[3.764639E2,7.049092E1,3.1691483E1,1.3234665E1,1.4174629E1,1.0285175E1,1.4406967E1,3.1499634E0,7.640091E0,7.232025E0,8.948867E0,3.6786523E0,6.3058453E0,4.8903456E0,3.9641418E0,1.0986481E0,2.2020073E0,4.7015114E0,5.256146E0,5.580055E0,3.0520077E0,5.8296323E0,5.9913864E0,0E0,0E0,6.8143287E0,5.560116E0,4.7763145E-1,2.3859663E0,2.160946E0,1.3075867E0,0E0,0E0,0E0,0E0,0E0,0E0,0E0,0E0,0E0,0E0,0E0,0E0,0E0,0E0,0E0,0E0,0E0,0E0,0E0,0E0,0E0,0E0,0E0,0E0,0E0,0E0,0E0,0E0],"parents":[2147483647,0,0,1,1,2,2,3,3,4,4,5,5,6,6,7,7,8,8,9,9,10,10,11,11,12,12,13,13,14,14,15,15,16,16,17,17,18,18,19,19,20,20,21,21,22,22,25,25,26,26,27,27,28,28,29,29,30,30],"right_children":[2,4,6,8,10,12,14,16,18,20,22,24,26,28,30,32,34,36,38,40,42,44,46,-1,-1,48,50,52,54,56,58,-1,-1,-1,-1,-1,-1,-1,-1,-1,-1,-1,-1,-1,-1,-1,-1,-1,-1,-1,-1,-1,-1,-1,-1,-1,-1,-1,-1],"split_conditions":[-2.2488816E-1,-1.2710645E0,4.192165E-1,-1.622486E0,-6.5040696E-1,-2.3404036E0,-1.4444091E0,-5.1872045E-1,6.945919E-1,2.089327E0,1.6795616E0,-2.8805456E0,-9.794526E-2,-1.8578252E0,3.4946808E-1,3.808463E-1,3E0,2.9142673E0,4.4262087E-1,2.1429634E0,-2.4494551E-1,-1.1806434E-1,-1.3992921E0,-1.2488097E-2,3.5688758E-2,-3.697774E-1,1.7547203E0,-1.1378086E0,4.7287172E-1,1.6559099E0,8.292835E-1,4.2246066E-2,1.8925246E-2,2.9146159E-2,-3.1571775E-3,2.5999226E-2,-1.4965964E-2,-1.1072281E-2,3.179971E-2,1.364291E-2,-1.4360306E-2,3.7989266E-2,1.9503861E-3,5.733699E-3,-4.2373124E-3,3.338579E-2,1.0077746E-2,-7.263998E-3,4.908189E-3,-1.0045722E-2,1.1778449E-2,-1.6267516E-2,3.6330037E-3,-2.338896E-3,3.5688758E-2,-1.3810834E-2,7.002811E-4,-1.9048505E-2,-7.904801E-3],"split_indices":[2,2,2,2,2,46,12,39,47,45,4,32,47,32,88,95,35,33,50,93,89,10,39,0,0,1,64,1,2,80,57,0,0,0,0,0,0,0,0,0,0,0,0,0,0,0,0,0,0,0,0,0,0,0,0,0,0,0,0],"split_type":[0,0,0,0,0,0,0,0,0,0,0,0,0,0,0,0,0,0,0,0,0,0,0,0,0,0,0,0,0,0,0,0,0,0,0,0,0,0,0,0,0,0,0,0,0,0,0,0,0,0,0,0,0,0,0,0,0,0,0],"sum_hessian":[1.9409427E3,8.8248114E2,1.0584615E3,2.0353177E2,6.7894934E2,4.7469833E2,5.8376324E2,1.0366159E2,9.987018E1,3.49026E2,3.2992337E2,7.340927E0,4.6735742E2,1.1538297E1,5.72225E2,7.593332E1,2.7728271E1,8.79545E1,1.1915675E1,3.3201917E2,1.7006815E1,2.2593307E2,1.03990295E2,1.2473146E0,6.093612E0,1.6660062E2,3.007568E2,3.7155547E0,7.8227425E0,1.4985674E2,4.2236823E2,7.167966E1,4.2536592E0,2.5883688E1,1.8445829E0,8.596808E1,1.9864249E0,9.506598E0,2.4090765E0,3.2625946E2,5.759706E0,1.4426314E1,2.5805004E0,1.4378407E2,8.2149E1,1.0459532E1,9.353077E1,9.439763E1,7.220299E1,2.9066394E2,1.0092851E1,2.6100821E0,1.1054726E0,1.7291299E0,6.093612E0,1.4007428E2,9.782459E0,4.106852E2,1.1683013E1],"tree_param":{"num_deleted":"0","num_feature":"113","num_nodes":"59","size_leaf_vector":"1"}},{"base_weights":[8.305708E-3,-3.4801236E-1,5.694271E-1,-5.213825E-1,-1.2843263E-1,4.2871213E-1,1.1519372E0,-6.1181927E-1,-4.1166824E-1,-1.7635915E-1,1.7121315E-1,6.222167E-1,2.9614025E-1,9.9247164E-1,1.3761241E0,5.793389E-3,-6.1526805E-1,-4.2883608E-1,4.0049922E-1,-9.507955E-2,-3.4965736E-1,4.2224836E-1,-9.864436E-2,1.241069E-1,6.7724043E-1,3.7342653E-1,7.361248E-2,1.0202507E0,-1.3209409E-2,1.4018635E0,-1.0398359E-3,-1.897049E-2,-1.3125728E-2,-1.3130381E-2,1.0238883E-2,-1.4085841E-2,2.3261948E-2,-3.6266646E-3,2.500148E-2,-1.256456E-2,2.9407502E-3,2.5567878E-2,6.2023676E-3,-1.225967E-2,1.2618799E-2,-1.0373869E-2,1.52363805E-2,5.39912E-4,2.1340942E-2,8.926667E-4,1.316765E-2,-6.542169E-4,2.4496015E-2,2.3568941E-2,3.5594303E-2,1.2303722E-2,4.2610012E-2],"categories":[],"categories_nodes":[],"categories_segments":[],"categories_sizes":[],"default_left":[0,0,0,0,0,0,0,0,0,0,0,0,0,0,0,0,0,0,0,0,0,0,0,0,0,0,0,0,0,0,0,0,0,0,0,0,0,0,0,0,0,0,0,0,0,0,0,0,0,0,0,0,0,0,0,0,0],"id":3,"left_children":[1,3,5,7,9,11,13,15,17,19,21,23,25,27,29,-1,31,33,35,37,39,41,43,45,47,49,51,53,-1,55,-1,-1,-1,-1,-1,-1,-1,-1,-1,-1,-1,-1,-1,-1,-1,-1,-1,-1,-1,-1,-1,-1,-1,-1,-1,-1,-1],"loss_changes":[3.8549127E2,4.482527E1,6.088533E1,6.2832336E0,7.52106E0,1.5328712E1,3.8216248E0,1.1153717E0,4.363838E0,6.3078165E0,4.948481E0,6.629509E0,6.1771145E0,3.9667664E0,2.1447372E0,0E0,8.093109E-1,2.157898E0,2.5627594E0,7.477106E0,4.479702E0,3.3187394E0,5.921782E0,4.790613E0,4.9444275E0,6.00856E0,6.698731E0,2.460762E0,0E0,4.5637512E-1,0E0,0E0,0E0,0E0,0E0,0E0,0E0,0E0,0E0,0E0,0E0,0E0,0E0,0E0,0E0,0E0,0E0,0E0,0E0,0E0,0E0,0E0,0E0,0E0,0E0,0E0,0E0],"parents":[2147483647,0,0,1,1,2,2,3,3,4,4,5,5,6,6,7,7,8,8,9,9,10,10,11,11,12,12,13,13,14,14,16,16,17,17,18,18,19,19,20,20,21,21,22,22,23,23,24,24,25,25,26,26,27,27,29,29],"right_children":[2,4,6,8,10,12,14,16,18,20,22,24,26,28,30,-1,32,34,36,38,40,42,44,46,48,50,52,54,-1,56,-1,-1,-1,-1,-1,-1,-1,-1,-1,-1,-1,-1,-1,-1,-1,-1,-1,-1,-1,-1,-1,-1,-1,-1,-1,-1,-1],"split_conditions":[2.3474212E-1,-6.39654E-1,1.3646764E0,-1.1243026E0,4.1749913E-1,-6.640797E-1,1.6172252E0,-1.1931118E0,1.2863456E0,1.6795616E0,-2.7522248E-1,-1.1275436E0,-2.7541326E-2,1.9943926E0,2.6737523E0,5.793389E-3,3.256239E-1,2.144169E0,-8.3885974E-1,1.2403245E0,8.4565896E-1,-6.673811E-1,5.8353925E-1,-3.8637495E-1,-1.4385765E0,1.1789529E-1,9.4037384E-1,7.39547E-1,-1.3209409E-2,-1.0227576E0,-1.0398359E-3,-1.897049E-2,-1.3125728E-2,-1.3130381E-2,1.0238883E-2,-1.4085841E-2,2.3261948E-2,-3.6266646E-3,2.500148E-2,-1.256456E-2,2.9407502E-3,2.5567878E-2,6.2023676E-3,-1.225967E-2,1.2618799E-2,-1.0373869E-2,1.52363805E-2,5.39912E-4,2.1340942E-2,8.926667E-4,1.316765E-2,-6.542169E-4,2.4496015E-2,2.3568941E-2,3.5594303E-2,1.2303722E-2,4.2610012E-2],"split_indices":[3,3,3,3,88,13,3,11,81,4,13,5,92,10,42,0,0,86,90,21,98,27,0,30,71,0,79,79,0,44,0,0,0,0,0,0,0,0,0,0,0,0,0,0,0,0,0,0,0,0,0,0,0,0,0,0,0],"split_type":[0,0,0,0,0,0,0,0,0,0,0,0,0,0,0,0,0,0,0,0,0,0,0,0,0,0,0,0,0,0,0,0,0,0,0,0,0,0,0,0,0,0,0,0,0,0,0,0,0,0,0,0,0,0,0,0,0],"sum_hessian":[1.926066E3,1.1782467E3,7.478194E2,6.576342E2,5.206125E2,6.037174E2,1.4410196E2,3.5797845E2,2.9965573E2,4.4918027E2,7.1432205E1,2.4394987E2,3.5976755E2,8.737706E1,5.6724903E1,1.2926122E0,3.5668582E2,2.9391486E2,5.7408776E0,3.0682373E2,1.4235654E2,3.6714134E1,3.4718067E1,2.4591116E1,2.1935875E2,2.6652313E2,9.3244415E1,8.599765E1,1.3794115E0,5.571473E1,1.0101728E0,3.2307947E2,3.3606377E1,2.9100497E2,2.909877E0,1.6528049E0,4.088073E0,2.993716E2,7.452097E0,1.23362976E2,1.899356E1,1.1270405E1,2.544373E1,2.187277E1,1.2845298E1,1.1099505E1,1.34916115E1,1.08709755E1,2.0848778E2,4.2895126E1,2.2362802E2,8.349154E1,9.752882E0,3.8036884E1,4.7960766E1,1.4429319E0,5.4271797E1],"tree_param":{"num_deleted":"0","num_feature":"113","num_nodes":"57","size_leaf_vector":"1"}},{"base_weights":[-1.0044482E-2,-5.801725E-1,2.342091E-2,-6.0538596E-1,1.182866E-2,6.1550055E-2,-4.8683953E-1,-6.4139456E-1,-1.3321671E-1,8.16407E-2,-4.2227855E-1,-5.1735646E-1,5.968799E-1,-6.56019E-1,9.44627E-3,2.330745E-2,-1.8706141E-2,-7.491615E-2,1.3298073E-1,-2.3660305E-1,-6.267201E-1,1.5955899E-2,-5.385391E-1,3.687149E-3,2.6087083E-2,9.16328E-3,-2.0126997E-2,-1.5829919E-2,-1.116188E-3,1.7457509E-3,6.7946347E-3,1.5016354E-3,-2.0839995E-2,-2.0134266E-2,5.295411E-3,-1.802488E-2,-6.822323E-3],"categories":[],"categories_nodes":[],"categories_segments":[],"categories_sizes":[],"default_left":[0,0,0,0,0,0,0,0,0,0,0,0,0,0,0,0,0,0,0,0,0,0,0,0,0,0,0,0,0,0,0,0,0,0,0,0,0],"id":4,"left_children":[1,3,5,7,-1,9,11,13,15,17,19,21,23,25,-1,-1,-1,27,29,31,33,-1,35,-1,-1,-1,-1,-1,-1,-1,-1,-1,-1,-1,-1,-1,-1],"loss_changes":[3.7193794E1,2.8942108E0,3.585999E1,1.712532E0,0E0,1.6699701E1,4.54722E0,1.5770111E0,4.3915935E0,1.3247453E1,2.4525385E0,3.068676E0,4.068005E-1,1.5904884E0,0E0,0E0,0E0,6.9350877E0,8.662632E0,4.960374E0,1.2603827E0,0E0,2.2510796E0,0E0,0E0,0E0,0E0,0E0,0E0,0E0,0E0,0E0,0E0,0E0,0E0,0E0,0E0],"parents":[2147483647,0,0,1,1,2,2,3,3,5,5,6,6,7,7,8,8,9,9,10,10,11,11,12,12,13,13,17,17,18,18,19,19,20,20,22,22],"right_children":[2,4,6,8,-1,10,12,14,16,18,20,22,24,26,-1,-1,-1,28,30,32,34,-1,36,-1,-1,-1,-1,-1,-1,-1,-1,-1,-1,-1,-1,-1,-1],"split_conditions":[-1.622486E0,5.4908884E-1,1.2923808E0,3E0,1.182866E-2,1.6510432E0,1.9943926E0,4.5916742E-1,1.207628E0,-3.4818637E-1,9.8182136E-1,-1.3781029E0,3.5307032E-1,-1.1558263E0,9.44627E-3,2.330745E-2,-1.8706141E-2,-1.4672581E0,4.7116083E-1,7.0299447E-1,1.0460694E0,1.5955899E-2,9.7662896E-1,3.687149E-3,2.6087083E-2,9.16328E-3,-2.0126997E-2,-1.5829919E-2,-1.116188E-3,1.7457509E-3,6.7946347E-3,1.5016354E-3,-2.0839995E-2,-2.0134266E-2,5.295411E-3,-1.802488E-2,-6.822323E-3],"split_indices":[2,96,2,35,0,56,10,62,33,94,70,70,19,55,0,0,0,63,1,2,53,0,67,0,0,0,0,0,0,0,0,0,0,0,0,0,0],"split_type":[0,0,0,0,0,0,0,0,0,0,0,0,0,0,0,0,0,0,0,0,0,0,0,0,0,0,0,0,0,0,0,0,0,0,0,0,0],"sum_hessian":[1.9476935E3,1.0708139E2,1.840612E3,1.0474981E2,2.3315794E0,1.7134539E3,1.2715824E2,9.6994415E1,7.7553973E0,1.6459386E3,6.75152E1,1.2418391E2,2.9743354E0,9.584265E1,1.1517591E0,2.5106468E0,5.24475E0,4.0635034E2,1.2395883E3,3.6512005E1,3.100319E1,1.9804385E0,1.2220346E2,1.6160733E0,1.3582622E0,1.1631835E0,9.4679474E1,3.0244131E1,3.7610623E2,6.8962964E2,5.499587E2,2.3005695E1,1.350631E1,2.9534273E1,1.468916E0,1.010428E2,2.1160664E1],"tree_param":{"num_deleted":"0","num_feature":"113","num_nodes":"37","size_leaf_vector":"1"}},{"base_weights":[-2.9902632E-4,4.970296E-1,-3.6991337E-1,1.0782461E0,3.3354405E-1,-1.6884229E-1,-5.424533E-1,1.2448982E0,8.1879246E-1,8.502947E-1,2.9024303E-1,-1.840504E-1,3.3584245E-2,2.763238E-1,-5.571527E-1,3.7163053E-2,1.2749557E0,1.0033891E0,3.64093E-1,4.5629793E-1,1.0854528E0,2.0805176E-1,4.9110547E-1,-2.5174475E-1,-4.21799E-2,-4.2358238E-1,8.3036554E-1,-4.623433E-1,-6.224019E-1,-1.31913535E-2,1.5457209E-2,4.1097917E-2,2.7647115E-2,3.2721482E-2,2.9417092E-4,-1.874105E-3,2.6723474E-2,-3.128955E-3,3.0839555E-2,3.799409E-2,3.400893E-3,9.517752E-3,-9.3243207E-4,7.074505E-3,2.0981263E-2,-9.247045E-3,-1.2656009E-3,-3.6349234E-3,1.6586732E-2,-1.74881E-2,3.6216727E-3,-1.2465705E-2,3.588076E-2,-1.4254357E-2,5.596268E-3,-1.9532999E-3,-1.8905297E-2],"categories":[],"categories_nodes":[],"categories_segments":[],"categories_sizes":[],"default_left":[0,0,0,0,0,0,0,0,0,0,0,0,0,0,0,0,0,0,0,0,0,0,0,0,0,0,0,0,0,0,0,0,0,0,0,0,0,0,0,0,0,0,0,0,0,0,0,0,0,0,0,0,0,0,0,0,0],"id":5,"left_children":[1,3,5,7,9,11,13,15,17,19,21,23,-1,25,27,29,31,33,35,37,39,41,43,45,47,49,51,53,55,-1,-1,-1,-1,-1,-1,-1,-1,-1,-1,-1,-1,-1,-1,-1,-1,-1,-1,-1,-1,-1,-1,-1,-1,-1,-1,-1,-1],"loss_changes":[3.5808316E2,7.855679E1,3.8677307E1,6.8447876E0,1.4289497E1,1.0345914E1,7.386856E0,3.9030457E0,5.8505363E0,4.1103783E0,9.8187065E0,4.9098988E0,0E0,4.720892E0,3.3664093E0,1.0638441E0,2.3002014E0,4.5100174E0,5.2123737E0,6.6147203E0,5.206543E0,1.1191551E1,9.073708E0,4.0905914E0,7.902193E0,5.5961335E-1,3.515923E0,2.1212769E0,1.4624786E0,0E0,0E0,0E0,0E0,0E0,0E0,0E0,0E0,0E0,0E0,0E0,0E0,0E0,0E0,0E0,0E0,0E0,0E0,0E0,0E0,0E0,0E0,0E0,0E0,0E0,0E0,0E0,0E0],"parents":[2147483647,0,0,1,1,2,2,3,3,4,4,5,5,6,6,7,7,8,8,9,9,10,10,11,11,13,13,14,14,15,15,16,16,17,17,18,18,19,19,20,20,21,21,22,22,23,23,24,24,25,25,26,26,27,27,28,28],"right_children":[2,4,6,8,10,12,14,16,18,20,22,24,-1,26,28,30,32,34,36,38,40,42,44,46,48,50,52,54,56,-1,-1,-1,-1,-1,-1,-1,-1,-1,-1,-1,-1,-1,-1,-1,-1,-1,-1,-1,-1,-1,-1,-1,-1,-1,-1,-1,-1],"split_conditions":[-3.7438568E-1,-1.3481437E0,3.7912008E-1,-1.622486E0,-1.4049611E0,3E0,-1.4444091E0,-9.288581E-1,-2.90308E-1,-4.6842855E-1,1.6795616E0,1.6795616E0,3.3584245E-2,-1.328832E0,7.7393115E-1,-1.0304664E-1,-7.462234E-1,9.0328085E-1,-4.5035297E-1,5.3558636E-1,-9.7302735E-2,-5.5572486E-1,-2.867394E-3,8.054499E-1,1.1445893E0,-8.6262345E-2,4.6337146E-1,1.7814771E0,-6.6072696E-1,-1.31913535E-2,1.5457209E-2,4.1097917E-2,2.7647115E-2,3.2721482E-2,2.9417092E-4,-1.874105E-3,2.6723474E-2,-3.128955E-3,3.0839555E-2,3.799409E-2,3.400893E-3,9.517752E-3,-9.3243207E-4,7.074505E-3,2.0981263E-2,-9.247045E-3,-1.2656009E-3,-3.6349234E-3,1.6586732E-2,-1.74881E-2,3.6216727E-3,-1.2465705E-2,3.588076E-2,-1.4254357E-2,5.596268E-3,-1.9532999E-3,-1.8905297E-2],"split_indices":[3,2,2,2,63,20,12,55,22,81,4,4,0,32,2,9,41,93,69,13,14,2,20,12,99,19,2,71,14,0,0,0,0,0,0,0,0,0,0,0,0,0,0,0,0,0,0,0,0,0,0,0,0,0,0,0,0],"split_type":[0,0,0,0,0,0,0,0,0,0,0,0,0,0,0,0,0,0,0,0,0,0,0,0,0,0,0,0,0,0,0,0,0,0,0,0,0,0,0,0,0,0,0,0,0,0,0,0,0,0,0,0,0,0,0,0,0],"sum_hessian":[1.9460118E3,8.2951996E2,1.1164918E3,1.808774E2,6.486425E2,5.165287E2,5.999632E2,1.0782265E2,7.3054756E1,4.8709583E1,5.999329E2,5.1134952E2,5.1791544E0,1.02672E1,5.89696E2,2.6725843E0,1.0515006E2,5.1101933E1,2.1952822E1,1.9305119E1,2.9404465E1,4.2717303E2,1.727599E2,3.4564737E2,1.6570213E2,4.640477E0,5.6267233E0,2.4369063E2,3.4600537E2,1.37815E0,1.2944343E0,8.060917E1,2.4540892E1,4.6883533E1,4.2183995E0,1.2616319E1,9.336503E0,1.015989E1,9.145227E0,2.4533201E1,4.871264E0,2.930273E2,1.3414574E2,7.857645E1,9.418346E1,2.7188504E2,7.376233E1,1.4698862E2,1.8713522E1,3.5346696E0,1.1058078E0,1.2457598E0,4.3809633E0,2.3923843E2,4.4522085E0,4.889672E0,3.411157E2],"tree_param":{"num_deleted":"0","num_feature":"113","num_nodes":"57","size_leaf_vector":"1"}},{"base_weights":[-2.3059959E-4,-3.7206787E-1,4.55125E-1,-5.5239904E-1,-1.9271709E-1,3.3284965E-1,1.084302E0,-6.0689527E-1,-4.3438458E-1,6.2683445E-1,-2.0754386E-1,4.2158133E-1,5.856956E-2,1.109079E0,5.5683013E-2,-6.1907864E-1,-1.8676694E-1,-4.586081E-1,2.6760367E-1,-7.3207565E-2,3.588235E-2,-1.307954E-1,-3.6830446E-1,2.3816493E-1,5.7347786E-1,-1.4023988E-1,2.2656201E-1,7.009926E-5,1.1239932E0,1.31628495E-2,-1.3313412E-2,-1.9129386E-2,-1.1499061E-2,-1.3162265E-2,2.0185562E-2,1.6379276E-2,-1.417988E-2,-1.1782848E-2,3.1608038E-2,2.5030153E-2,-1.6743228E-2,-4.2689955E-3,3.2114793E-2,-1.4941777E-2,-6.863233E-3,8.976882E-3,-5.3133303E-3,-1.2570035E-2,1.7800895E-2,-6.0878824E-3,1.7404316E-2,1.3599545E-2,-2.3041111E-3,3.422865E-2,6.1664563E-3],"categories":[],"categories_nodes":[],"categories_segments":[],"categories_sizes":[],"default_left":[0,0,0,0,0,0,0,0,0,0,0,0,0,0,0,0,0,0,0,0,0,0,0,0,0,0,0,0,0,0,0,0,0,0,0,0,0,0,0,0,0,0,0,0,0,0,0,0,0,0,0,0,0,0,0],"id":6,"left_children":[1,3,5,7,9,11,13,15,17,19,21,23,25,27,29,31,33,35,37,39,-1,41,43,45,47,49,51,-1,53,-1,-1,-1,-1,-1,-1,-1,-1,-1,-1,-1,-1,-1,-1,-1,-1,-1,-1,-1,-1,-1,-1,-1,-1,-1,-1],"loss_changes":[3.2572018E2,3.4143417E1,6.6166245E1,3.128952E0,6.6002426E0,1.7631477E1,3.513092E0,1.7186279E0,3.0161934E0,3.95717E0,6.4139824E0,1.5130463E1,5.9931E0,2.257309E0,1.0274161E0,1.2782593E0,2.7928572E0,2.5855904E0,3.6875858E0,2.7968183E0,0E0,5.073127E0,2.9402256E0,6.3913145E0,6.1503754E0,3.8373818E0,6.7161045E0,0E0,1.8700256E0,0E0,0E0,0E0,0E0,0E0,0E0,0E0,0E0,0E0,0E0,0E0,0E0,0E0,0E0,0E0,0E0,0E0,0E0,0E0,0E0,0E0,0E0,0E0,0E0,0E0,0E0],"parents":[2147483647,0,0,1,1,2,2,3,3,4,4,5,5,6,6,7,7,8,8,9,9,10,10,11,11,12,12,13,13,14,14,15,15,16,16,17,17,18,18,19,19,21,21,22,22,23,23,24,24,25,25,26,26,28,28],"right_children":[2,4,6,8,10,12,14,16,18,20,22,24,26,28,30,32,34,36,38,40,-1,42,44,46,48,50,52,-1,54,-1,-1,-1,-1,-1,-1,-1,-1,-1,-1,-1,-1,-1,-1,-1,-1,-1,-1,-1,-1,-1,-1,-1,-1,-1,-1],"split_conditions":[5.3608857E-2,-8.358772E-1,1.3646764E0,-9.3758774E-1,-6.3265616E-1,4.630059E-1,1.3896539E0,9.4037384E-1,7.558908E-1,-8.009593E-1,1.6795616E0,6.681187E-1,1.1582658E0,-1.3833822E0,-2.8568155E-1,1.954219E0,-5.4022938E-2,-1.3619359E0,-1.0071576E-1,-4.8423737E-1,3.588235E-2,1.4976993E0,-2.519265E-1,6.09989E-1,-1.4444091E0,2.1134883E-1,7.504224E-1,7.009926E-5,1.9943926E0,1.31628495E-2,-1.3313412E-2,-1.9129386E-2,-1.1499061E-2,-1.3162265E-2,2.0185562E-2,1.6379276E-2,-1.417988E-2,-1.1782848E-2,3.1608038E-2,2.5030153E-2,-1.6743228E-2,-4.2689955E-3,3.2114793E-2,-1.4941777E-2,-6.863233E-3,8.976882E-3,-5.3133303E-3,-1.2570035E-2,1.7800895E-2,-6.0878824E-3,1.7404316E-2,1.3599545E-2,-2.3041111E-3,3.422865E-2,6.1664563E-3],"split_indices":[3,3,3,2,76,1,84,79,62,38,4,3,0,12,33,1,53,82,67,81,0,62,88,3,12,81,64,0,10,0,0,0,0,0,0,0,0,0,0,0,0,0,0,0,0,0,0,0,0,0,0,0,0,0,0],"split_type":[0,0,0,0,0,0,0,0,0,0,0,0,0,0,0,0,0,0,0,0,0,0,0,0,0,0,0,0,0,0,0,0,0,0,0,0,0,0,0,0,0,0,0,0,0,0,0,0,0,0,0,0,0,0,0],"sum_hessian":[1.9217164E3,1.0579729E3,8.637435E2,5.2650745E2,5.3146545E2,7.244765E2,1.3926701E2,3.5734946E2,1.6915796E2,8.710566E0,5.227549E2,5.4698553E2,1.7749095E2,1.3591492E2,3.3520932E0,3.4681845E2,1.0531014E1,1.6385068E2,5.307291E0,4.2972765E0,4.4132895E0,3.5505994E2,1.6769496E2,2.4894742E2,2.9803815E2,8.136515E1,9.61258E1,1.8225859E0,1.3409233E2,1.965855E0,1.3862383E0,3.199201E2,2.6898342E1,8.522478E0,2.0085366E0,1.7385279E0,1.6211215E2,3.1560228E0,2.1512682E0,1.2455142E0,3.0517626E0,3.5256506E2,2.4948797E0,8.55598E1,8.213516E1,2.1727722E2,3.1670202E1,5.459966E0,2.925782E2,7.55122E1,5.85295E0,5.4725754E1,4.1400043E1,1.3142294E2,2.6693828E0],"tree_param":{"num_deleted":"0","num_feature":"113","num_nodes":"55","size_leaf_vector":"1"}},{"base_weights":[-6.783715E-3,-6.266384E-1,2.8739937E-2,-6.4014405E-1,9.405395E-3,6.700862E-2,-4.7230318E-1,-6.777331E-1,-3.2814237E-1,-1.2533183E-1,1.300142E-1,-3.2020444E-1,-6.47172E-1,-6.938315E-1,9.297174E-3,-5.429287E-1,2.6701406E-2,2.9296628E-1,-1.6947709E-1,1.8014695E-1,-3.998147E-2,-1.22399054E-1,-5.069077E-1,-6.963336E-1,1.0890121E-1,-2.1306755E-2,1.1074926E-7,-1.997466E-2,9.36616E-3,1.8598517E-2,-3.9416266E-4,-8.222257E-3,-1.2525101E-3,5.9133363E-3,-5.5392818E-3,2.9216988E-3,-7.889317E-3,1.3183315E-2,-1.0681283E-2,-1.9679347E-2,-5.1177014E-4,1.1518104E-3,-2.1692097E-2,2.6353953E-2,-1.5048336E-2],"categories":[],"categories_nodes":[],"categories_segments":[],"categories_sizes":[],"default_left":[0,0,0,0,0,0,0,0,0,0,0,0,0,0,0,0,0,0,0,0,0,0,0,0,0,0,0,0,0,0,0,0,0,0,0,0,0,0,0,0,0,0,0,0,0],"id":7,"left_children":[1,3,5,7,-1,9,11,13,15,17,19,21,23,25,-1,27,-1,29,31,33,35,37,39,41,43,-1,-1,-1,-1,-1,-1,-1,-1,-1,-1,-1,-1,-1,-1,-1,-1,-1,-1,-1,-1],"loss_changes":[4.2516773E1,1.5295868E0,3.5051365E1,9.9150467E-1,0E0,2.0589546E1,3.2430325E0,1.6688232E0,3.9024472E0,7.7942805E0,1.0909567E1,2.5732446E0,2.2824078E0,1.0268898E0,0E0,1.4406106E0,0E0,4.052143E0,5.065339E0,6.1511765E0,8.975509E0,4.8778605E0,2.6461163E0,1.1253757E0,2.549769E0,0E0,0E0,0E0,0E0,0E0,0E0,0E0,0E0,0E0,0E0,0E0,0E0,0E0,0E0,0E0,0E0,0E0,0E0,0E0,0E0],"parents":[2147483647,0,0,1,1,2,2,3,3,5,5,6,6,7,7,8,8,9,9,10,10,11,11,12,12,13,13,15,15,17,17,18,18,19,19,20,20,21,21,22,22,23,23,24,24],"right_children":[2,4,6,8,-1,10,12,14,16,18,20,22,24,26,-1,28,-1,30,32,34,36,38,40,42,44,-1,-1,-1,-1,-1,-1,-1,-1,-1,-1,-1,-1,-1,-1,-1,-1,-1,-1,-1,-1],"split_conditions":[-1.622486E0,4.5916742E-1,1.2923808E0,2.0661948E0,9.405395E-3,-7.426786E-1,1.6944085E0,6.798551E-1,1.1445893E0,-1.1275436E0,1.9517976E-1,1.0216149E0,9.629954E-1,1.0701225E0,9.297174E-3,6.5860665E-1,2.6701406E-2,1.5234345E-1,-1.9081603E-1,1.7831419E0,3.16925E-1,-7.5314015E-1,1.454784E0,-1.0215547E0,-3.8637495E-1,-2.1306755E-2,1.1074926E-7,-1.997466E-2,9.36616E-3,1.8598517E-2,-3.9416266E-4,-8.222257E-3,-1.2525101E-3,5.9133363E-3,-5.5392818E-3,2.9216988E-3,-7.889317E-3,1.3183315E-2,-1.0681283E-2,-1.9679347E-2,-5.1177014E-4,1.1518104E-3,-2.1692097E-2,2.6353953E-2,-1.5048336E-2],"split_indices":[2,62,2,13,0,13,2,75,99,5,70,88,84,11,0,93,0,84,97,1,32,18,0,11,30,0,0,0,0,0,0,0,0,0,0,0,0,0,0,0,0,0,0,0,0],"split_type":[0,0,0,0,0,0,0,0,0,0,0,0,0,0,0,0,0,0,0,0,0,0,0,0,0,0,0,0,0,0,0,0,0,0,0,0,0,0,0,0,0,0,0,0,0],"sum_hessian":[1.929051E3,1.03658936E2,1.8253921E3,1.0250551E2,1.1534232E0,1.69667E3,1.2872206E2,9.043764E1,1.2067876E1,4.1840225E2,1.2782678E3,7.035728E1,5.8364784E1,8.927987E1,1.1577646E0,1.0730271E1,1.3376042E0,3.9402992E1,3.7899924E2,9.871049E2,2.911629E2,3.4966793E1,3.539048E1,5.4875652E1,3.4891305E0,8.7196014E1,2.0838544E0,9.575532E0,1.1547393E0,1.8556005E1,2.0846989E1,2.0773492E2,1.7126433E2,9.4367944E2,4.3425446E1,1.8052058E2,1.1064231E2,1.0011447E1,2.4955347E1,2.6873272E1,8.517206E0,1.9114677E0,5.2964184E1,1.3493491E0,2.1397812E0],"tree_param":{"num_deleted":"0","num_feature":"113","num_nodes":"45","size_leaf_vector":"1"}},{"base_weights":[-5.1915506E-3,4.4617078E-1,-3.8490623E-1,1.013489E0,2.8951055E-1,-2.0590402E-1,-5.5568147E-1,1.2587295E0,8.5010815E-1,4.1366985E-1,1.3887227E-1,-3.070154E-1,-7.7480283E-3,-1.2917537E-2,-5.759769E-1,2.9029893E-3,1.2962264E0,9.116099E-1,1.8352832E-1,4.8135167E-1,7.1528904E-2,3.14324E-2,3.7287557E-1,-3.497208E-1,-1.2614334E-2,-6.78131E-2,6.7257756E-1,-3.4298626E-1,8.654337E-1,-5.8150524E-1,4.1586193E-1,3.948431E-2,2.1248776E-3,-1.4467892E-2,2.8164828E-2,-8.022971E-3,3.201564E-2,1.5456809E-2,-1.0789928E-2,-2.5651595E-3,2.666089E-2,8.596433E-3,-3.100534E-3,1.756035E-2,2.9131295E-3,-1.2167858E-2,-4.283929E-3,2.7836671E-2,-4.9415454E-3,-3.885531E-3,1.2729002E-2,7.7297804E-3,3.6495477E-2,-1.7461872E-2,8.9683365E-3,3.3177167E-2,7.3947967E-3,-1.5975729E-2,-2.0252949E-2,2.8694253E-3,1.6144672E-2],"categories":[],"categories_nodes":[],"categories_segments":[],"categories_sizes":[],"default_left":[0,0,0,0,0,0,0,0,0,0,0,0,0,0,0,0,0,0,0,0,0,0,0,0,0,0,0,0,0,0,0,0,0,0,0,0,0,0,0,0,0,0,0,0,0,0,0,0,0,0,0,0,0,0,0,0,0,0,0,0,0],"id":8,"left_children":[1,3,5,7,9,11,13,15,17,19,21,23,25,27,29,-1,31,33,35,37,39,41,43,45,47,49,51,53,55,57,59,-1,-1,-1,-1,-1,-1,-1,-1,-1,-1,-1,-1,-1,-1,-1,-1,-1,-1,-1,-1,-1,-1,-1,-1,-1,-1,-1,-1,-1,-1],"loss_changes":[3.2942722E2,7.775804E1,3.179663E1,6.528076E0,1.2839703E1,1.0241154E1,5.8709106E0,3.0874863E0,4.624771E0,8.707314E0,7.859214E0,4.2513733E0,7.146187E0,6.1699004E0,3.0622864E0,0E0,1.6483383E0,4.503235E0,4.7190747E0,9.159103E0,8.226928E0,7.444778E0,5.709832E0,3.3594933E0,6.435668E0,4.9308815E0,2.8886962E0,2.5437014E0,5.9320116E-1,1.9873962E0,8.301139E-2,0E0,0E0,0E0,0E0,0E0,0E0,0E0,0E0,0E0,0E0,0E0,0E0,0E0,0E0,0E0,0E0,0E0,0E0,0E0,0E0,0E0,0E0,0E0,0E0,0E0,0E0,0E0,0E0,0E0,0E0],"parents":[2147483647,0,0,1,1,2,2,3,3,4,4,5,5,6,6,7,7,8,8,9,9,10,10,11,11,12,12,13,13,14,14,16,16,17,17,18,18,19,19,20,20,21,21,22,22,23,23,24,24,25,25,26,26,27,27,28,28,29,29,30,30],"right_children":[2,4,6,8,10,12,14,16,18,20,22,24,26,28,30,-1,32,34,36,38,40,42,44,46,48,50,52,54,56,58,60,-1,-1,-1,-1,-1,-1,-1,-1,-1,-1,-1,-1,-1,-1,-1,-1,-1,-1,-1,-1,-1,-1,-1,-1,-1,-1,-1,-1,-1,-1],"split_conditions":[-2.8866607E-1,-1.4571106E0,5.982709E-1,-1.7323027E0,-7.9972E-1,1.6795616E0,-8.34653E-1,-2.0822546E0,6.945919E-1,2.5441748E-1,1.6795616E0,1.1395562E0,1.6991276E0,7.558908E-1,1.5718021E0,2.9029893E-3,4.251452E-1,-1.6579087E0,-5.93896E-1,2.2316658E0,4.108581E-1,-4.705055E-1,1.7075767E-1,6.7987293E-1,-1.9207846E-1,1.1445893E0,-5.0303453E-1,9.8182136E-1,-8.687359E-1,1.2703707E0,-4.0007138E-1,3.948431E-2,2.1248776E-3,-1.4467892E-2,2.8164828E-2,-8.022971E-3,3.201564E-2,1.5456809E-2,-1.0789928E-2,-2.5651595E-3,2.666089E-2,8.596433E-3,-3.100534E-3,1.756035E-2,2.9131295E-3,-1.2167858E-2,-4.283929E-3,2.7836671E-2,-4.9415454E-3,-3.885531E-3,1.2729002E-2,7.7297804E-3,3.6495477E-2,-1.7461872E-2,8.9683365E-3,3.3177167E-2,7.3947967E-3,-1.5975729E-2,-2.0252949E-2,2.8694253E-3,1.6144672E-2],"split_indices":[3,3,3,3,3,4,94,1,47,97,4,13,20,62,70,0,14,84,88,13,94,63,25,91,46,99,22,70,42,3,19,0,0,0,0,0,0,0,0,0,0,0,0,0,0,0,0,0,0,0,0,0,0,0,0,0,0,0,0,0,0],"split_type":[0,0,0,0,0,0,0,0,0,0,0,0,0,0,0,0,0,0,0,0,0,0,0,0,0,0,0,0,0,0,0,0,0,0,0,0,0,0,0,0,0,0,0,0,0,0,0,0,0,0,0,0,0,0,0,0,0,0,0,0,0],"sum_hessian":[1.9201016E3,8.772042E2,1.0428973E3,1.8863297E2,6.885713E2,5.1026086E2,5.326365E2,7.2741356E1,1.1589161E2,3.7650317E2,3.120681E2,3.3749884E2,1.7276202E2,1.9257809E1,5.1337866E2,2.385939E0,7.0355415E1,1.0576559E2,1.0126024E1,3.1398434E2,6.251881E1,2.1464891E2,9.7419205E1,2.9457962E2,4.2919216E1,1.5957378E2,1.318824E1,1.4440746E1,4.8170633E0,5.1094446E2,2.4342144E0,6.915729E1,1.1981275E0,1.7054889E0,1.040601E2,7.1662226E0,2.9598017E0,3.0219943E2,1.1784918E1,5.3192272E1,9.32654E0,7.381239E1,1.408365E2,5.4390884E1,4.3028324E1,2.3119186E2,6.3387756E1,5.2648315E0,3.7654385E1,1.424493E2,1.7124481E1,8.317393E0,4.8708467E0,1.0589959E1,3.8507867E0,2.9025762E0,1.914487E0,3.3980222E2,1.7114223E2,1.1652453E0,1.268969E0],"tree_param":{"num_deleted":"0","num_feature":"113","num_nodes":"61","size_leaf_vector":"1"}},{"base_weights":[2.593102E-3,-3.770549E-1,4.7286403E-1,-5.2772605E-1,-1.8258083E-1,3.3695817E-1,1.0085577E0,-6.0083526E-1,-4.0894222E-1,-2.0646144E-1,3.4936777E-1,5.150337E-1,2.1099216E-1,3.9518718E-2,9.239381E-1,-3.6353046E-1,-6.133869E-1,-4.1980752E-1,2.891722E-1,-1.3233888E-1,-3.606593E-1,9.023921E-1,-2.7095178E-1,3.537905E-1,7.1999496E-1,-2.1435318E-3,3.0633596E-1,4.8384163E-1,9.7567177E-1,1.1578363E-2,-1.6934292E-2,-1.8878829E-2,-1.3668669E-2,-1.4500692E-2,-9.213418E-3,-7.329799E-3,2.5825834E-2,-2.9647409E-4,-7.800923E-3,-1.1983891E-2,1.5977581E-3,3.842997E-2,-1.6431301E-3,-1.4915097E-2,1.6181093E-2,-1.3952084E-2,1.1733281E-2,2.4221318E-2,5.9088995E-3,3.4645775E-3,-8.494187E-3,1.1855161E-2,9.4643026E-4,-1.1345665E-3,2.5248297E-2,-2.1237223E-3,3.0087544E-2],"categories":[],"categories_nodes":[],"categories_segments":[],"categories_sizes":[],"default_left":[0,0,0,0,0,0,0,0,0,0,0,0,0,0,0,0,0,0,0,0,0,0,0,0,0,0,0,0,0,0,0,0,0,0,0,0,0,0,0,0,0,0,0,0,0,0,0,0,0,0,0,0,0,0,0,0,0],"id":9,"left_children":[1,3,5,7,9,11,13,15,17,19,21,23,25,-1,27,29,31,33,35,37,39,41,43,45,47,49,51,53,55,-1,-1,-1,-1,-1,-1,-1,-1,-1,-1,-1,-1,-1,-1,-1,-1,-1,-1,-1,-1,-1,-1,-1,-1,-1,-1,-1,-1],"loss_changes":[3.4358502E2,3.110469E1,6.2243988E1,4.9600525E0,5.996564E0,1.5305534E1,3.3143463E0,8.759155E-1,1.877491E0,5.0608444E0,7.2457075E0,9.13121E0,8.213766E0,0E0,2.7037582E0,3.3788288E0,5.890198E-1,1.4870796E0,1.4730619E0,4.742213E0,2.3425503E0,4.063854E0,2.172399E0,5.0994473E0,5.5120544E0,4.194491E0,6.8044395E0,3.140381E0,3.6017303E0,0E0,0E0,0E0,0E0,0E0,0E0,0E0,0E0,0E0,0E0,0E0,0E0,0E0,0E0,0E0,0E0,0E0,0E0,0E0,0E0,0E0,0E0,0E0,0E0,0E0,0E0,0E0,0E0],"parents":[2147483647,0,0,1,1,2,2,3,3,4,4,5,5,6,6,7,7,8,8,9,9,10,10,11,11,12,12,14,14,15,15,16,16,17,17,18,18,19,19,20,20,21,21,22,22,23,23,24,24,25,25,26,26,27,27,28,28],"right_children":[2,4,6,8,10,12,14,16,18,20,22,24,26,-1,28,30,32,34,36,38,40,42,44,46,48,50,52,54,56,-1,-1,-1,-1,-1,-1,-1,-1,-1,-1,-1,-1,-1,-1,-1,-1,-1,-1,-1,-1,-1,-1,-1,-1,-1,-1,-1,-1],"split_conditions":[5.3608857E-2,-5.5572486E-1,1.1862445E0,-9.181786E-1,7.3860574E-1,-1.7219247E-1,-1.4409503E0,-4.213955E-1,9.3734914E-1,1.6795616E0,-4.49539E-1,5.903985E-1,3.3007833E-1,3.9518718E-2,-9.7802764E-1,2.5547096E-1,3.256239E-1,2.3388776E-1,1.1187214E0,-6.909593E-2,1.1403725E0,9.8996294E-1,9.287539E-1,-1.153213E0,5.1984584E-1,1.6795616E0,5.488016E-1,1.473038E0,-1.4169736E0,1.1578363E-2,-1.6934292E-2,-1.8878829E-2,-1.3668669E-2,-1.4500692E-2,-9.213418E-3,-7.329799E-3,2.5825834E-2,-2.9647409E-4,-7.800923E-3,-1.1983891E-2,1.5977581E-3,3.842997E-2,-1.6431301E-3,-1.4915097E-2,1.6181093E-2,-1.3952084E-2,1.1733281E-2,2.4221318E-2,5.9088995E-3,3.4645775E-3,-8.494187E-3,1.1855161E-2,9.4643026E-4,-1.1345665E-3,2.5248297E-2,-2.1237223E-3,3.0087544E-2],"split_indices":[3,2,2,2,88,95,57,95,14,4,1,2,2,0,34,45,0,72,12,94,98,20,5,19,1,4,1,3,13,0,0,0,0,0,0,0,0,0,0,0,0,0,0,0,0,0,0,0,0,0,0,0,0,0,0,0,0],"split_type":[0,0,0,0,0,0,0,0,0,0,0,0,0,0,0,0,0,0,0,0,0,0,0,0,0,0,0,0,0,0,0,0,0,0,0,0,0,0,0,0,0,0,0,0,0,0,0,0,0,0,0,0,0,0,0,0,0],"sum_hessian":[1.9224442E3,1.0638225E3,8.5862177E2,5.984514E2,4.6537103E2,6.861692E2,1.7245259E2,3.6793558E2,2.3051584E2,4.4596246E2,1.940859E1,2.8300385E2,4.0316534E2,3.3964954E1,1.3848763E2,1.9988604E1,3.4794696E2,2.2737569E2,3.1401634E0,3.0243896E2,1.435235E2,1.0020469E1,9.388123E0,1.5992043E2,1.2308341E2,1.2491112E2,2.7825424E2,1.5655912E1,1.2283172E2,4.031504E0,1.5957099E1,3.13362E2,3.4584957E1,1.4328622E2,8.4089455E1,1.9205414E0,1.219622E0,1.549344E2,1.4750455E2,1.3125371E2,1.2269788E1,6.937861E0,3.082608E0,7.6413374E0,1.7467848E0,6.470962E0,1.5344946E2,1.0499789E2,1.8085527E1,8.846659E1,3.6444523E1,2.0994363E2,6.83106E1,6.7329364E0,8.922976E0,3.0764122E0,1.197553E2],"tree_param":{"num_deleted":"0","num_feature":"113","num_nodes":"57","size_leaf_vector":"1"}},{"base_weights":[1.093361E-2,5.2965157E-2,-3.1219396E-1,-4.0470314E-1,8.2324654E-2,-1.943122E-1,-5.4326177E-1,-6.3787496E-1,-1.3044432E-1,-7.10533E-3,1.5893075E-1,-2.3413397E-1,6.096484E-1,5.425463E-1,-5.985473E-1,9.5648365E-3,-6.63878E-1,-4.9047956E-1,3.059103E-2,9.519337E-2,-7.886085E-2,5.024197E-1,1.32459E-1,2.8156403E-1,-2.8843987E-1,1.0278711E0,-1.4182339E-2,3.0353853E-2,-1.1791953E-2,1.5982732E-2,-6.383947E-1,-3.838765E-3,-2.0684944E-2,5.4165125E-3,-2.0372627E-2,-1.9591259E-2,7.224856E-3,3.0207267E-2,2.252618E-3,1.8805427E-2,-2.938729E-3,-7.4348296E-3,1.7905597E-2,1.2237444E-3,6.846629E-3,-1.7639471E-2,1.9246925E-2,-1.1653053E-2,2.1002146E-3,3.4575734E-2,9.004888E-3,-1.9770887E-2,9.40279E-3],"categories":[],"categories_nodes":[],"categories_segments":[],"categories_sizes":[],"default_left":[0,0,0,0,0,0,0,0,0,0,0,0,0,0,0,0,0,0,0,0,0,0,0,0,0,0,0,0,0,0,0,0,0,0,0,0,0,0,0,0,0,0,0,0,0,0,0,0,0,0,0,0,0],"id":10,"left_children":[1,3,5,7,9,11,13,15,17,19,21,23,25,27,29,-1,31,33,35,37,39,41,43,45,47,49,-1,-1,-1,-1,51,-1,-1,-1,-1,-1,-1,-1,-1,-1,-1,-1,-1,-1,-1,-1,-1,-1,-1,-1,-1,-1,-1],"loss_changes":[2.6274883E1,2.3033237E1,5.9601307E0,6.526306E0,1.1026538E1,4.913499E0,4.8071957E0,1.5949554E0,2.8414712E0,5.465011E0,7.8156223E0,4.077749E0,3.7951052E0,2.2163208E0,3.5645847E0,0E0,6.59502E-1,2.0368361E0,5.133829E0,5.551278E0,5.957751E0,4.5170393E0,7.0676775E0,4.7916746E0,4.672572E0,1.6093779E-1,0E0,0E0,0E0,0E0,1.5725651E0,0E0,0E0,0E0,0E0,0E0,0E0,0E0,0E0,0E0,0E0,0E0,0E0,0E0,0E0,0E0,0E0,0E0,0E0,0E0,0E0,0E0,0E0],"parents":[2147483647,0,0,1,1,2,2,3,3,4,4,5,5,6,6,7,7,8,8,9,9,10,10,11,11,12,12,13,13,14,14,16,16,17,17,18,18,19,19,20,20,21,21,22,22,23,23,24,24,25,25,30,30],"right_children":[2,4,6,8,10,12,14,16,18,20,22,24,26,28,30,-1,32,34,36,38,40,42,44,46,48,50,-1,-1,-1,-1,52,-1,-1,-1,-1,-1,-1,-1,-1,-1,-1,-1,-1,-1,-1,-1,-1,-1,-1,-1,-1,-1,-1],"split_conditions":[7.8046465E-1,-1.4672581E0,8.0328023E-1,-1.2401847E0,9.097685E-1,1.053381E0,-8.5881764E-1,-2.1493518E0,-2.16997E0,8.782335E-2,-9.967521E-1,-1.1275436E0,8.919353E-1,1.0288783E0,-7.05118E-1,9.5648365E-3,-1.3383749E0,-1.068085E0,-8.59379E-1,-1.4049611E0,-1.1950223E0,-9.939482E-2,7.4943715E-1,-3.8854423E-1,3.9448524E-1,1.2380543E0,-1.4182339E-2,3.0353853E-2,-1.1791953E-2,1.5982732E-2,3E0,-3.838765E-3,-2.0684944E-2,5.4165125E-3,-2.0372627E-2,-1.9591259E-2,7.224856E-3,3.0207267E-2,2.252618E-3,1.8805427E-2,-2.938729E-3,-7.4348296E-3,1.7905597E-2,1.2237444E-3,6.846629E-3,-1.7639471E-2,1.9246925E-2,-1.1653053E-2,2.1002146E-3,3.4575734E-2,9.004888E-3,-1.9770887E-2,9.40279E-3],"split_indices":[81,63,64,71,6,44,69,1,64,99,23,5,30,38,14,0,13,59,50,63,56,5,90,75,94,24,0,0,0,0,48,0,0,0,0,0,0,0,0,0,0,0,0,0,0,0,0,0,0,0,0,0,0],"split_type":[0,0,0,0,0,0,0,0,0,0,0,0,0,0,0,0,0,0,0,0,0,0,0,0,0,0,0,0,0,0,0,0,0,0,0,0,0,0,0,0,0,0,0,0,0,0,0,0,0,0,0,0,0],"sum_hessian":[1.9323838E3,1.710697E3,2.2168669E2,1.02355286E2,1.6083418E3,1.4801576E2,7.367092E1,5.4604942E1,4.775034E1,7.424789E2,8.658629E2,1.4170558E2,6.310186E0,3.1423147E0,7.05286E1,1.1469042E0,5.345804E1,1.412486E1,3.362548E1,3.0595938E2,4.365195E2,6.0668503E1,8.051944E2,1.3102E1,1.2860358E2,4.587866E0,1.7223202E0,2.0384955E0,1.103819E0,1.9787941E0,6.854981E1,2.7125146E0,5.074552E1,3.1084237E0,1.1016436E1,7.4133034E0,2.6212177E1,5.5427413E0,3.0041663E2,1.066268E1,4.258568E2,6.601011E0,5.406749E1,4.121206E2,3.930738E2,3.6507277E0,9.451272E0,1.0048721E2,2.8116367E1,3.4185157E0,1.1693501E0,6.739632E1,1.153496E0],"tree_param":{"num_deleted":"0","num_feature":"113","num_nodes":"53","size_leaf_vector":"1"}},{"base_weights":[-5.1496313E-3,4.3879357E-1,-3.7532568E-1,7.945442E-1,2.330368E-1,-1.8704987E-1,-5.435788E-1,1.1051517E0,6.3520515E-1,1.37061E-1,4.3230176E-1,9.941112E-1,-2.0424767E-1,4.726379E-1,-5.602162E-1,-1.1719644E-2,1.1233239E0,5.843647E-1,3.7580542E-2,2.696137E-1,-5.2535105E-2,1.17157005E-1,5.202031E-1,3.6221024E-2,7.703324E-3,-2.3103099E-1,3.8306502E-1,9.214977E-1,-1.4479914E-1,-4.0150973E-1,-6.247259E-1,3.7031867E-2,2.1814419E-2,1.8194085E-2,-1.18935695E-2,1.0516472E-2,-5.710035E-3,5.835161E-3,-6.102572E-3,-1.1298189E-2,1.2758917E-2,2.0684563E-2,9.044369E-3,-8.28655E-3,2.8579612E-3,-6.718166E-3,1.9881796E-2,3.287517E-2,3.4721545E-3,-1.6041784E-2,1.5635703E-2,-1.2890395E-2,2.4084518E-2,-1.0483093E-2,-1.9048616E-2],"categories":[],"categories_nodes":[],"categories_segments":[],"categories_sizes":[],"default_left":[0,0,0,0,0,0,0,0,0,0,0,0,0,0,0,0,0,0,0,0,0,0,0,0,0,0,0,0,0,0,0,0,0,0,0,0,0,0,0,0,0,0,0,0,0,0,0,0,0,0,0,0,0,0,0],"id":11,"left_children":[1,3,5,7,9,11,13,15,17,19,21,23,25,27,29,-1,31,33,-1,35,37,39,41,-1,-1,43,45,47,49,51,53,-1,-1,-1,-1,-1,-1,-1,-1,-1,-1,-1,-1,-1,-1,-1,-1,-1,-1,-1,-1,-1,-1,-1,-1],"loss_changes":[3.1434775E2,6.3479355E1,3.294049E1,1.5051041E1,1.0506351E1,1.02331295E1,9.568741E0,3.3356018E0,5.946083E0,9.421711E0,4.9011955E0,8.310056E-1,7.757128E0,2.740414E0,5.2970886E0,0E0,3.746933E0,4.5422974E0,0E0,8.2740135E0,5.811948E0,6.300438E0,4.9672966E0,0E0,0E0,6.9100933E0,3.821685E0,6.5741014E-1,1.5314114E0,5.7529545E0,8.5787964E-1,0E0,0E0,0E0,0E0,0E0,0E0,0E0,0E0,0E0,0E0,0E0,0E0,0E0,0E0,0E0,0E0,0E0,0E0,0E0,0E0,0E0,0E0,0E0,0E0],"parents":[2147483647,0,0,1,1,2,2,3,3,4,4,5,5,6,6,7,7,8,8,9,9,10,10,11,11,12,12,13,13,14,14,16,16,17,17,19,19,20,20,21,21,22,22,25,25,26,26,27,27,28,28,29,29,30,30],"right_children":[2,4,6,8,10,12,14,16,18,20,22,24,26,28,30,-1,32,34,-1,36,38,40,42,-1,-1,44,46,48,50,52,54,-1,-1,-1,-1,-1,-1,-1,-1,-1,-1,-1,-1,-1,-1,-1,-1,-1,-1,-1,-1,-1,-1,-1,-1],"split_conditions":[-2.2488816E-1,-9.9944854E-1,4.4123292E-1,-1.622486E0,1.6795616E0,-1.8505646E0,-1.4444091E0,-1.1558263E0,2.089327E0,-6.737512E-1,-1.1275436E0,-2.3098681E-2,1.6991276E0,1.8571297E0,-1.6520834E-1,-1.1719644E-2,-7.462234E-1,6.443125E-1,3.7580542E-2,4.6061955E-2,-3.2763347E-1,-1.09450564E-1,-2.7541326E-2,3.6221024E-2,7.703324E-3,1.2291306E0,-1.8130004E0,1.1237342E0,1.241383E0,9.111387E-1,-6.177155E-1,3.7031867E-2,2.1814419E-2,1.8194085E-2,-1.18935695E-2,1.0516472E-2,-5.710035E-3,5.835161E-3,-6.102572E-3,-1.1298189E-2,1.2758917E-2,2.0684563E-2,9.044369E-3,-8.28655E-3,2.8579612E-3,-6.718166E-3,1.9881796E-2,3.287517E-2,3.4721545E-3,-1.6041784E-2,1.5635703E-2,-1.2890395E-2,2.4084518E-2,-1.0483093E-2,-1.9048616E-2],"split_indices":[2,2,2,2,4,75,12,55,45,3,5,95,20,31,91,0,41,95,0,91,10,46,92,0,0,99,72,60,43,9,94,0,0,0,0,0,0,0,0,0,0,0,0,0,0,0,0,0,0,0,0,0,0,0,0],"split_type":[0,0,0,0,0,0,0,0,0,0,0,0,0,0,0,0,0,0,0,0,0,0,0,0,0,0,0,0,0,0,0,0,0,0,0,0,0,0,0,0,0,0,0,0,0,0,0,0,0,0,0,0,0,0,0],"sum_hessian":[1.9108201E3,8.687563E2,1.0420638E3,3.1729535E2,5.5146094E2,4.927673E2,5.492965E2,1.0556889E2,2.1172644E2,3.733332E2,1.7812776E2,6.25656E0,4.8651074E2,8.406641E0,5.4088983E2,1.0211107E0,1.0454778E2,1.9741829E2,1.4308153E1,2.1947156E2,1.5386163E2,3.9357113E1,1.3877065E2,4.3584914E0,1.8980682E0,4.6587213E2,2.0638607E1,4.5826926E0,3.8239481E0,1.5840556E2,3.8248428E2,8.000256E1,2.4545225E1,1.9344037E2,3.9779255E0,1.8683308E2,3.263847E1,5.823123E1,9.5630394E1,1.5038024E1,2.431909E1,7.70135E1,6.175715E1,4.0933817E2,5.653397E1,6.57243E0,1.4066176E1,3.4715488E0,1.1111437E0,2.536159E0,1.2877891E0,1.5541354E2,2.99202E0,1.4961316E1,3.6752298E2],"tree_param":{"num_deleted":"0","num_feature":"113","num_nodes":"55","size_leaf_vector":"1"}},{"base_weights":[2.1829102E-3,-3.6391324E-1,4.578407E-1,-5.4578817E-1,-1.8551476E-1,3.421151E-1,9.9878174E-1,-6.0017645E-1,-4.3477604E-1,6.8194836E-1,-2.002562E-1,1.896867E-1,4.7659275E-1,-3.4052336E-1,1.0228289E0,-6.094428E-1,-1.8751076E-1,-4.7287184E-1,9.455786E-2,-1.03267185E-1,3.509493E-2,-3.5313797E-1,-1.2832944E-1,-1.6506137E-1,2.526731E-1,5.5343884E-1,1.4060971E-1,-1.2732431E-3,-1.348599E-2,1.0368581E0,-5.910656E-3,6.085799E-3,-1.839166E-2,-1.7636731E-2,8.799132E-3,-1.4763091E-2,6.575906E-3,3.0570338E-2,-4.5648697E-3,-1.4791821E-2,1.3078801E-2,-1.3980988E-2,-7.212253E-3,1.9835958E-3,-6.271143E-3,-6.665059E-3,2.1115553E-2,1.133389E-2,3.5131732E-3,3.3478398E-2,1.5414298E-2,1.0611773E-2,-6.5554157E-3,3.1689405E-2,7.4328943E-3],"categories":[],"categories_nodes":[],"categories_segments":[],"categories_sizes":[],"default_left":[0,0,0,0,0,0,0,0,0,0,0,0,0,0,0,0,0,0,0,0,0,0,0,0,0,0,0,0,0,0,0,0,0,0,0,0,0,0,0,0,0,0,0,0,0,0,0,0,0,0,0,0,0,0,0],"id":12,"left_children":[1,3,5,7,9,11,13,15,17,19,21,23,25,27,29,31,33,35,37,39,-1,41,43,45,47,49,51,-1,-1,53,-1,-1,-1,-1,-1,-1,-1,-1,-1,-1,-1,-1,-1,-1,-1,-1,-1,-1,-1,-1,-1,-1,-1,-1,-1],"loss_changes":[3.2238495E2,3.466861E1,5.3556274E1,2.9398193E0,7.07378E0,1.447908E1,5.218277E0,1.2362213E0,3.6331062E0,3.680481E0,5.8289146E0,7.522809E0,9.654877E0,9.196326E-2,2.7506714E0,1.1367035E0,1.9436507E0,2.3194427E0,3.0700085E0,1.1565483E0,0E0,2.0558758E0,5.7397785E0,2.6914186E0,4.7853947E0,6.2578506E0,5.5502796E0,0E0,0E0,1.9990845E0,0E0,0E0,0E0,0E0,0E0,0E0,0E0,0E0,0E0,0E0,0E0,0E0,0E0,0E0,0E0,0E0,0E0,0E0,0E0,0E0,0E0,0E0,0E0,0E0,0E0],"parents":[2147483647,0,0,1,1,2,2,3,3,4,4,5,5,6,6,7,7,8,8,9,9,10,10,11,11,12,12,13,13,14,14,15,15,16,16,17,17,18,18,19,19,21,21,22,22,23,23,24,24,25,25,26,26,29,29],"right_children":[2,4,6,8,10,12,14,16,18,20,22,24,26,28,30,32,34,36,38,40,-1,42,44,46,48,50,52,-1,-1,54,-1,-1,-1,-1,-1,-1,-1,-1,-1,-1,-1,-1,-1,-1,-1,-1,-1,-1,-1,-1,-1,-1,-1,-1,-1],"split_conditions":[7.799889E-2,-6.5040696E-1,1.2426074E0,-9.3758774E-1,-6.3265616E-1,6.525031E-1,-2.9548714E0,1.8163129E0,4.4327918E-1,-8.009593E-1,5.9539354E-1,-1.1275436E0,5.1984584E-1,5.577767E-1,2.8385673E0,-1.1931118E0,-5.9423372E-2,7.558908E-1,-2.8940126E-1,-3.809287E-1,3.509493E-2,-2.519265E-1,-2.4487811E-1,1.4832494E0,-3.331374E-1,-5.1816434E-1,1.0411402E0,-1.2732431E-3,-1.348599E-2,1.3896539E0,-5.910656E-3,6.085799E-3,-1.839166E-2,-1.7636731E-2,8.799132E-3,-1.4763091E-2,6.575906E-3,3.0570338E-2,-4.5648697E-3,-1.4791821E-2,1.3078801E-2,-1.3980988E-2,-7.212253E-3,1.9835958E-3,-6.271143E-3,-6.665059E-3,2.1115553E-2,1.133389E-2,3.5131732E-3,3.3478398E-2,1.5414298E-2,1.0611773E-2,-6.5554157E-3,3.1689405E-2,7.4328943E-3],"split_indices":[3,2,2,2,76,3,11,84,11,38,7,5,1,0,60,11,95,62,43,1,0,88,96,93,13,64,64,0,0,84,0,0,0,0,0,0,0,0,0,0,0,0,0,0,0,0,0,0,0,0,0,0,0,0,0],"split_type":[0,0,0,0,0,0,0,0,0,0,0,0,0,0,0,0,0,0,0,0,0,0,0,0,0,0,0,0,0,0,0,0,0,0,0,0,0,0,0,0,0,0,0,0,0,0,0,0,0,0,0,0,0,0,0],"sum_hessian":[1.9305958E3,1.0706158E3,8.5998E2,5.2912274E2,5.414931E2,7.097688E2,1.5021115E2,3.5217502E2,1.7694771E2,8.291933E0,5.332012E2,3.338103E2,3.7595853E2,2.4173317E0,1.4779382E2,3.439743E2,8.200713E0,1.6516737E2,1.1780327E1,3.4797835E0,4.8121495E0,1.6934511E2,3.6385605E2,5.008787E1,2.837224E2,3.0544894E2,7.050958E1,1.0193373E0,1.3979944E0,1.4626172E2,1.532109E0,1.2787976E0,3.426955E2,4.3531218E0,3.8475914E0,1.6098293E2,4.1844525E0,1.822235E0,9.958092E0,2.0694485E0,1.410335E0,8.304457E1,8.630054E1,1.067784E2,2.5707767E2,4.7697388E1,2.3904846E0,1.4661543E2,1.37107E2,1.8315268E1,2.8713367E2,4.4259518E1,2.6250061E1,1.4241185E2,3.849855E0],"tree_param":{"num_deleted":"0","num_feature":"113","num_nodes":"55","size_leaf_vector":"1"}},{"base_weights":[6.072091E-3,-5.872689E-1,3.9650615E-2,-6.130348E-1,2.592396E-1,7.575619E-2,-4.2567456E-1,5.161259E-3,-6.262968E-1,2.5905512E-2,-1.3079893E-2,9.682618E-2,-3.2363084E-1,-4.5422742E-1,7.049943E-1,-6.3973105E-1,2.7336634E-4,3.1347726E-2,2.0014122E-1,-3.6799347E-1,3.035198E-2,-6.000599E-1,-2.3268221E-1,7.04222E-3,2.6009701E-2,1.958242E-4,-1.9610977E-2,3.4199846E-3,-2.38938E-3,6.986993E-3,-6.881233E-3,-1.774721E-2,-2.4641703E-3,-2.072308E-2,-5.288367E-3,-9.40278E-3,1.7125376E-2],"categories":[],"categories_nodes":[],"categories_segments":[],"categories_sizes":[],"default_left":[0,0,0,0,0,0,0,0,0,0,0,0,0,0,0,0,0,0,0,0,0,0,0,0,0,0,0,0,0,0,0,0,0,0,0,0,0],"id":13,"left_children":[1,3,5,7,9,11,13,-1,15,-1,-1,17,19,21,23,25,-1,27,29,31,-1,33,35,-1,-1,-1,-1,-1,-1,-1,-1,-1,-1,-1,-1,-1,-1],"loss_changes":[3.8905594E1,2.4401894E0,3.1079973E1,1.1676598E0,1.9697037E0,1.4469685E1,4.6209373E0,0E0,8.6221695E-1,0E0,0E0,1.1024319E1,5.4794817E0,4.0780087E0,7.6293945E-2,8.912735E-1,0E0,9.1757345E0,8.950668E0,5.3309917E0,0E0,2.8800716E0,3.6469362E0,0E0,0E0,0E0,0E0,0E0,0E0,0E0,0E0,0E0,0E0,0E0,0E0,0E0,0E0],"parents":[2147483647,0,0,1,1,2,2,3,3,4,4,5,5,6,6,8,8,11,11,12,12,13,13,14,14,15,15,17,17,18,18,19,19,21,21,22,22],"right_children":[2,4,6,8,10,12,14,-1,16,-1,-1,18,20,22,24,26,-1,28,30,32,-1,34,36,-1,-1,-1,-1,-1,-1,-1,-1,-1,-1,-1,-1,-1,-1],"split_conditions":[-1.622486E0,5.4908884E-1,1.3646764E0,-1.1558263E0,8.4813017E-1,1.6002989E0,1.6842303E0,5.161259E-3,5.2177143E-1,2.5905512E-2,-1.3079893E-2,4.630059E-1,2.5261784E0,-5.6066024E-1,-1.2928703E0,-9.826118E-1,2.7336634E-4,-1.6502514E-1,1.7831419E0,-1.2328491E0,3.035198E-2,2.9852152E-1,9.629954E-1,7.04222E-3,2.6009701E-2,1.958242E-4,-1.9610977E-2,3.4199846E-3,-2.38938E-3,6.986993E-3,-6.881233E-3,-1.774721E-2,-2.4641703E-3,-2.072308E-2,-5.288367E-3,-9.40278E-3,1.7125376E-2],"split_indices":[2,96,3,55,20,45,10,0,95,0,0,1,96,13,13,13,0,0,1,12,0,35,84,0,0,0,0,0,0,0,0,0,0,0,0,0,0],"split_type":[0,0,0,0,0,0,0,0,0,0,0,0,0,0,0,0,0,0,0,0,0,0,0,0,0,0,0,0,0,0,0,0,0,0,0,0,0],"sum_hessian":[1.950579E3,1.0359204E2,1.8469869E3,1.0079972E2,2.7923226E0,1.7147714E3,1.3221559E2,1.4756019E0,9.932412E1,1.3643894E0,1.4279332E0,1.6295602E3,8.521119E1,1.2954251E2,2.67308E0,9.726096E1,2.0631542E0,9.982182E2,6.313419E2,8.317251E1,2.038681E0,7.708962E1,5.2452892E1,1.3124001E0,1.36068E0,2.0689826E0,9.519198E1,5.7214325E2,4.2607498E2,5.870279E2,4.431401E1,4.6069717E1,3.7102787E1,6.297907E1,1.4110556E1,4.821761E1,4.235285E0],"tree_param":{"num_deleted":"0","num_feature":"113","num_nodes":"37","size_leaf_vector":"1"}},{"base_weights":[-6.725729E-3,4.2644736E-1,-3.8537705E-1,9.264548E-1,2.6537153E-1,-2.1625477E-1,-5.3905433E-1,1.105942E0,7.120797E-1,1.7188065E-1,4.841634E-1,-2.9653394E-1,-4.709562E-2,3.8449633E-1,-5.5538636E-1,-1.018705E-3,1.1208811E0,-3.233788E-1,7.480787E-1,3.2663617E-1,9.6508424E-4,1.0559482E-1,5.769569E-1,-3.429158E-1,-1.1475984E-2,3.0745825E-2,-7.387769E-2,-3.2594925E-1,7.88545E-1,-4.4088274E-1,-6.0771513E-1,3.6310967E-2,2.4341652E-2,-1.5340881E-2,2.572233E-3,2.3722269E-2,-6.1034756E-3,-5.6016394E-3,1.1739013E-2,-9.6120534E-4,1.9399775E-2,2.9432254E-2,-1.9496754E-4,1.8487774E-2,-3.7852034E-3,-1.1205212E-2,2.0632925E-3,2.5073411E-2,-4.256964E-3,5.636685E-3,-4.6371673E-3,-1.5457023E-2,3.720243E-3,-1.3400622E-4,3.0123366E-2,2.6071584E-3,-1.5139301E-2,-1.6985849E-2,-2.0644471E-2],"categories":[],"categories_nodes":[],"categories_segments":[],"categories_sizes":[],"default_left":[0,0,0,0,0,0,0,0,0,0,0,0,0,0,0,0,0,0,0,0,0,0,0,0,0,0,0,0,0,0,0,0,0,0,0,0,0,0,0,0,0,0,0,0,0,0,0,0,0,0,0,0,0,0,0,0,0,0,0],"id":14,"left_children":[1,3,5,7,9,11,13,15,17,19,21,23,25,27,29,-1,31,33,35,37,39,41,43,45,47,-1,49,51,53,55,57,-1,-1,-1,-1,-1,-1,-1,-1,-1,-1,-1,-1,-1,-1,-1,-1,-1,-1,-1,-1,-1,-1,-1,-1,-1,-1,-1,-1],"loss_changes":[3.218768E2,7.3472626E1,2.709758E1,7.778305E0,1.4106331E1,6.7782516E0,8.478149E0,2.0706635E0,4.1281624E0,1.2895903E1,7.2151794E0,4.4782066E0,4.7312527E0,3.159729E0,2.960556E0,0E0,2.281662E0,3.669392E-1,4.2633286E0,8.567144E0,4.979643E0,4.1280394E0,4.668621E0,3.6972504E0,5.475154E0,0E0,3.390625E0,4.3638885E-1,1.1564107E0,5.853798E0,8.365631E-1,0E0,0E0,0E0,0E0,0E0,0E0,0E0,0E0,0E0,0E0,0E0,0E0,0E0,0E0,0E0,0E0,0E0,0E0,0E0,0E0,0E0,0E0,0E0,0E0,0E0,0E0,0E0,0E0],"parents":[2147483647,0,0,1,1,2,2,3,3,4,4,5,5,6,6,7,7,8,8,9,9,10,10,11,11,12,12,13,13,14,14,16,16,17,17,18,18,19,19,20,20,21,21,22,22,23,23,24,24,26,26,27,27,28,28,29,29,30,30],"right_children":[2,4,6,8,10,12,14,16,18,20,22,24,26,28,30,-1,32,34,36,38,40,42,44,46,48,-1,50,52,54,56,58,-1,-1,-1,-1,-1,-1,-1,-1,-1,-1,-1,-1,-1,-1,-1,-1,-1,-1,-1,-1,-1,-1,-1,-1,-1,-1,-1,-1],"split_conditions":[-2.2488816E-1,-1.2710645E0,4.4123292E-1,-1.622486E0,1.6795616E0,1.6795616E0,-1.4444091E0,-1.1558263E0,-1.2697959E0,-6.5040696E-1,-1.1275436E0,1.1850607E0,-2.973884E0,-1.8578252E0,-3.3164427E-2,-1.018705E-3,-7.462234E-1,-6.1433E-1,2.1429634E0,-8.124783E-1,6.255065E-1,-1.68172E0,1.7678607E0,1.1609873E0,-1.9207846E-1,3.0745825E-2,-5.8479697E-1,-8.6262345E-2,5.13188E-1,3.1082703E-2,1.1348141E0,3.6310967E-2,2.4341652E-2,-1.5340881E-2,2.572233E-3,2.3722269E-2,-6.1034756E-3,-5.6016394E-3,1.1739013E-2,-9.6120534E-4,1.9399775E-2,2.9432254E-2,-1.9496754E-4,1.8487774E-2,-3.7852034E-3,-1.1205212E-2,2.0632925E-3,2.5073411E-2,-4.256964E-3,5.636685E-3,-4.6371673E-3,-1.5457023E-2,3.720243E-3,-1.3400622E-4,3.0123366E-2,2.6071584E-3,-1.5139301E-2,-1.6985849E-2,-2.0644471E-2],"split_indices":[2,2,2,2,4,4,12,55,31,2,5,13,46,32,91,0,41,0,93,30,97,14,61,89,46,0,48,19,2,88,2,0,0,0,0,0,0,0,0,0,0,0,0,0,0,0,0,0,0,0,0,0,0,0,0,0,0,0,0],"split_type":[0,0,0,0,0,0,0,0,0,0,0,0,0,0,0,0,0,0,0,0,0,0,0,0,0,0,0,0,0,0,0,0,0,0,0,0,0,0,0,0,0,0,0,0,0,0,0,0,0,0,0,0,0,0,0,0,0,0,0],"sum_hessian":[1.9604034E3,9.143129E2,1.0460905E3,2.216186E2,6.926943E2,4.9916513E2,5.4692535E2,1.18361E2,1.032576E2,4.8656726E2,2.0612704E2,3.3800333E2,1.611618E2,9.112025E0,5.3781335E2,1.5146596E0,1.16846344E2,3.201052E0,1.0005655E2,2.548774E2,2.3168985E2,4.099956E1,1.6512749E2,2.9052838E2,4.747494E1,3.0199804E0,1.5814182E2,3.3735495E0,5.7384763E0,1.7164725E2,3.661661E2,8.8381516E1,2.846482E1,2.0220456E0,1.1790062E0,9.592456E1,4.1319857E0,2.8302402E1,2.26575E2,2.213269E2,1.0362954E1,3.7737045E0,3.7225857E1,1.5650313E2,8.624364E0,2.7051984E2,2.000855E1,5.6117163E0,4.1863224E1,3.695008E1,1.2119174E2,2.2724981E0,1.1010513E0,1.4358099E0,4.302666E0,1.8462034E1,1.5318521E2,2.468043E2,1.193618E2],"tree_param":{"num_deleted":"0","num_feature":"113","num_nodes":"59","size_leaf_vector":"1"}},{"base_weights":[-5.492025E-3,-3.2718003E-1,4.7647253E-1,-5.085676E-1,-1.3566054E-1,3.6050352E-1,9.853731E-1,-5.9132123E-1,-3.884078E-1,-5.5903513E-2,-3.083953E-1,2.6147857E-1,5.0522375E-1,1.0102273E0,-2.0282385E-1,-5.992865E-1,-1.02724E-1,-4.090259E-1,4.062791E-1,2.3504655E-1,-1.1814673E-1,7.5551325E-1,-3.3790168E-1,2.1024093E-1,5.209231E-1,7.2577417E-1,3.5773137E-1,1.1185216E0,8.027875E-1,4.378357E-3,-1.3764022E-2,3.313098E-3,-1.808365E-2,-1.4031415E-2,2.6282312E-2,-1.2789509E-2,3.9267904E-4,-9.652183E-3,2.6729135E-2,4.016892E-3,3.221997E-2,7.4784695E-3,-4.676571E-3,-2.9826637E-3,3.1732462E-2,-1.2896772E-2,-5.4732603E-3,9.2334505E-3,1.5817569E-3,9.1583645E-3,2.7642807E-2,2.6032632E-2,1.0397749E-2,-5.627837E-3,1.2641944E-2,-2.5255491E-3,3.401756E-2,2.5677532E-3,2.6150776E-2],"categories":[],"categories_nodes":[],"categories_segments":[],"categories_sizes":[],"default_left":[0,0,0,0,0,0,0,0,0,0,0,0,0,0,0,0,0,0,0,0,0,0,0,0,0,0,0,0,0,0,0,0,0,0,0,0,0,0,0,0,0,0,0,0,0,0,0,0,0,0,0,0,0,0,0,0,0,0,0],"id":15,"left_children":[1,3,5,7,9,11,13,15,17,19,21,23,25,27,29,31,33,35,37,39,41,43,45,47,49,51,53,55,57,-1,-1,-1,-1,-1,-1,-1,-1,-1,-1,-1,-1,-1,-1,-1,-1,-1,-1,-1,-1,-1,-1,-1,-1,-1,-1,-1,-1,-1,-1],"loss_changes":[3.0005283E2,4.0250145E1,4.536325E1,5.6938934E0,7.7791624E0,8.931862E0,4.4336395E0,1.3038788E0,4.194626E0,7.0610275E0,5.859947E0,4.909998E0,8.064018E0,2.2566986E0,4.0323877E-1,9.240799E-1,2.8515117E0,1.7583427E0,2.6576529E0,5.6926193E0,4.484334E0,1.4299273E0,2.4157848E0,4.854232E0,5.038574E0,5.1674805E0,5.4712315E0,1.7568893E0,2.480709E0,0E0,0E0,0E0,0E0,0E0,0E0,0E0,0E0,0E0,0E0,0E0,0E0,0E0,0E0,0E0,0E0,0E0,0E0,0E0,0E0,0E0,0E0,0E0,0E0,0E0,0E0,0E0,0E0,0E0,0E0],"parents":[2147483647,0,0,1,1,2,2,3,3,4,4,5,5,6,6,7,7,8,8,9,9,10,10,11,11,12,12,13,13,14,14,15,15,16,16,17,17,18,18,19,19,20,20,21,21,22,22,23,23,24,24,25,25,26,26,27,27,28,28],"right_children":[2,4,6,8,10,12,14,16,18,20,22,24,26,28,30,32,34,36,38,40,42,44,46,48,50,52,54,56,58,-1,-1,-1,-1,-1,-1,-1,-1,-1,-1,-1,-1,-1,-1,-1,-1,-1,-1,-1,-1,-1,-1,-1,-1,-1,-1,-1,-1,-1,-1],"split_conditions":[1.6696975E-1,-5.5572486E-1,1.272193E0,-9.3758774E-1,1.6795616E0,5.390261E-1,1.9943926E0,1.2814598E0,1.2863456E0,-8.3782446E-1,-2.251748E0,8.995817E-1,-2.0326614E-1,-1.63338E-1,2.3993379E-1,-9.873714E-1,8.7700196E-2,1.3953768E0,-1.4043243E-1,7.4253637E-1,-8.594002E-1,-9.708542E-1,-4.293449E-3,-3.7520163E-2,9.097685E-1,6.945919E-1,-1.4579806E-1,-1.1953045E0,-2.769037E-1,4.378357E-3,-1.3764022E-2,3.313098E-3,-1.808365E-2,-1.4031415E-2,2.6282312E-2,-1.2789509E-2,3.9267904E-4,-9.652183E-3,2.6729135E-2,4.016892E-3,3.221997E-2,7.4784695E-3,-4.676571E-3,-2.9826637E-3,3.1732462E-2,-1.2896772E-2,-5.4732603E-3,9.2334505E-3,1.5817569E-3,9.1583645E-3,2.7642807E-2,2.6032632E-2,1.0397749E-2,-5.627837E-3,1.2641944E-2,-2.5255491E-3,3.401756E-2,2.5677532E-3,2.6150776E-2],"split_indices":[2,2,2,2,4,91,10,12,81,13,57,2,95,78,12,82,93,12,28,88,92,44,88,96,6,47,88,47,94,0,0,0,0,0,0,0,0,0,0,0,0,0,0,0,0,0,0,0,0,0,0,0,0,0,0,0,0,0,0],"split_type":[0,0,0,0,0,0,0,0,0,0,0,0,0,0,0,0,0,0,0,0,0,0,0,0,0,0,0,0,0,0,0,0,0,0,0,0,0,0,0,0,0,0,0,0,0,0,0,0,0,0,0,0,0,0,0,0,0,0,0],"sum_hessian":[1.9332921E3,1.1596218E3,7.736702E2,5.9471423E2,5.649076E2,6.3147675E2,1.4219348E2,3.498516E2,2.4486266E2,3.8737027E2,1.7753731E2,3.765969E2,2.548799E2,1.3942679E2,2.7666993E0,3.4401678E2,5.834826E0,2.3914339E2,5.719265E0,6.777697E1,3.195933E2,4.126955E0,1.7341035E2,3.1600037E2,6.05965E1,1.00571365E2,1.5430852E2,8.871894E1,5.070784E1,1.3530353E0,1.4136639E0,1.5391886E0,3.4247757E2,4.6303496E0,1.2044767E0,2.297233E2,9.420087E0,2.4202273E0,3.299038E0,6.1519352E1,6.257616E0,2.9246094E1,2.903472E2,1.253165E0,2.8737903E0,1.0783529E2,6.5575066E1,1.945638E2,1.2143658E2,4.0533943E1,2.0062557E1,7.2235275E1,2.8336096E1,1.5928592E1,1.3837993E2,1.0649583E0,8.7653984E1,4.6412926E0,4.6066547E1],"tree_param":{"num_deleted":"0","num_feature":"113","num_nodes":"59","size_leaf_vector":"1"}},{"base_weights":[1.0484639E-2,-5.358203E-1,4.106793E-2,-6.301963E-1,-2.3485789E-1,-3.8712803E-1,8.39264E-2,-6.484895E-1,9.802099E-3,-3.6717445E-1,6.056276E-1,-1.7099199E-1,-5.493025E-1,1.03304096E-1,-4.3657362E-1,-6.851915E-1,-1.767591E-1,-2.0014124E-2,-2.7843558E-3,2.644419E-2,3.8268783E-3,-3.2239476E-1,4.8294172E-1,-3.225943E-2,-6.143327E-1,-3.9175995E-2,1.4853059E-1,3.402204E-2,-5.089107E-1,7.590808E-4,-2.1189082E-2,-1.73404E-2,1.8592719E-2,1.580982E-2,-1.7989734E-2,7.3836944E-3,-1.2231571E-2,2.1160733E-2,-1.53364325E-2,-1.8286541E-2,1.3045141E-2,-1.9427218E-2,9.930006E-3,-6.3178837E-3,2.0625154E-3,1.8692572E-2,4.03822E-3,-1.16048725E-2,2.6454935E-2,-1.04846535E-2,-2.0738078E-2],"categories":[],"categories_nodes":[],"categories_segments":[],"categories_sizes":[],"default_left":[0,0,0,0,0,0,0,0,0,0,0,0,0,0,0,0,0,0,0,0,0,0,0,0,0,0,0,0,0,0,0,0,0,0,0,0,0,0,0,0,0,0,0,0,0,0,0,0,0,0,0],"id":16,"left_children":[1,3,5,7,9,11,13,15,-1,17,19,21,23,25,27,29,31,-1,33,-1,-1,35,37,39,41,43,45,47,49,-1,-1,-1,-1,-1,-1,-1,-1,-1,-1,-1,-1,-1,-1,-1,-1,-1,-1,-1,-1,-1,-1],"loss_changes":[3.2734947E1,2.8022804E0,3.4076477E1,1.5857029E0,3.1572227E0,5.828434E0,1.7061483E1,1.2179642E0,0E0,2.5583844E0,4.106828E-1,7.4705706E0,3.210659E0,1.0492369E1,2.0852175E0,1.0890121E0,2.5733442E0,0E0,3.97775E0,0E0,0E0,3.0395684E0,3.5203667E0,3.4440994E0,2.8944702E0,7.2833066E0,8.07934E0,3.5633326E0,1.2909594E0,0E0,0E0,0E0,0E0,0E0,0E0,0E0,0E0,0E0,0E0,0E0,0E0,0E0,0E0,0E0,0E0,0E0,0E0,0E0,0E0,0E0,0E0],"parents":[2147483647,0,0,1,1,2,2,3,3,4,4,5,5,6,6,7,7,9,9,10,10,11,11,12,12,13,13,14,14,15,15,16,16,18,18,21,21,22,22,23,23,24,24,25,25,26,26,27,27,28,28],"right_children":[2,4,6,8,10,12,14,16,-1,18,20,22,24,26,28,30,32,-1,34,-1,-1,36,38,40,42,44,46,48,50,-1,-1,-1,-1,-1,-1,-1,-1,-1,-1,-1,-1,-1,-1,-1,-1,-1,-1,-1,-1,-1,-1],"split_conditions":[-1.622486E0,-7.462234E-1,-1.0355514E0,4.251452E-1,3E0,5.654202E-1,1.4348428E0,3.1842926E-1,9.802099E-3,-5.474724E-1,7.315169E-2,-4.4069365E-1,3.848442E-1,-3.4818637E-1,-9.7616976E-1,-1.4688199E0,-1.0894196E0,-2.0014124E-2,1.8725209E-1,2.644419E-2,3.8268783E-3,-1.7517623E0,1.2604515E-1,-9.968784E-1,2.5278017E-1,-3.1866086E-1,-1.9856277E0,1.6795616E0,1.6944085E0,7.590808E-4,-2.1189082E-2,-1.73404E-2,1.8592719E-2,1.580982E-2,-1.7989734E-2,7.3836944E-3,-1.2231571E-2,2.1160733E-2,-1.53364325E-2,-1.8286541E-2,1.3045141E-2,-1.9427218E-2,9.930006E-3,-6.3178837E-3,2.0625154E-3,1.8692572E-2,4.03822E-3,-1.16048725E-2,2.6454935E-2,-1.04846535E-2,-2.0738078E-2],"split_indices":[2,41,57,14,35,64,3,24,0,81,0,13,88,94,32,12,0,0,84,0,0,78,13,12,30,9,14,4,2,0,0,0,0,0,0,0,0,0,0,0,0,0,0,0,0,0,0,0,0,0,0],"split_type":[0,0,0,0,0,0,0,0,0,0,0,0,0,0,0,0,0,0,0,0,0,0,0,0,0,0,0,0,0,0,0,0,0,0,0,0,0,0,0,0,0,0,0,0,0,0,0,0,0,0,0],"sum_hessian":[1.9569441E3,1.028701E2,1.854074E3,7.747996E1,2.5390146E1,1.6796042E2,1.6861135E3,7.634288E1,1.137082E0,2.2423225E1,2.9669194E0,7.2882095E1,9.507832E1,1.626367E3,5.9746506E1,7.0412094E1,5.9307804E0,1.184318E1,1.0580046E1,1.346277E0,1.6206424E0,5.9591984E1,1.3290113E1,1.078945E1,8.428888E1,3.918931E2,1.2344739E3,8.030833E0,5.171567E1,2.026087E0,6.838601E1,4.1263885E0,1.8043919E0,5.667082E0,4.912964E0,7.530631E0,5.206135E1,1.1097776E1,2.1923373E0,4.689123E0,6.100326E0,8.172994E1,2.5589378E0,1.5104169E2,2.4085143E2,3.393954E1,1.2005343E3,5.7301345E0,2.3006992E0,2.9149218E1,2.2566452E1],"tree_param":{"num_deleted":"0","num_feature":"113","num_nodes":"51","size_leaf_vector":"1"}},{"base_weights":[-5.1558693E-3,4.897134E-1,-3.2592347E-1,1.0634542E0,3.7873247E-1,-1.484513E-1,-4.903513E-1,1.1775281E0,7.476586E-1,9.195183E-1,3.2853195E-1,-1.9049622E-1,1.8218912E-1,3.1390467E-1,-5.0813574E-1,2.1255104E-1,1.2086105E0,8.93431E-1,-2.498724E-2,1.1262271E0,2.9928133E-1,2.0423932E-1,4.354672E-1,-9.6201524E-2,-3.4771067E-1,4.907767E-2,9.688573E-1,8.9767444E-1,-2.3969673E-1,-4.0784347E-1,-5.90032E-1,-1.401789E-2,2.3313908E-2,3.674168E-2,8.275371E-3,2.8656669E-2,-1.2293291E-2,2.6126504E-2,-1.8708823E-2,3.5230655E-2,-1.4489325E-3,-5.8618467E-3,2.6341755E-2,1.2591239E-2,1.7761536E-3,2.260497E-2,1.083398E-2,-4.1853306E-3,6.4735836E-3,-1.1597927E-2,4.7249286E-3,1.0701023E-2,-7.990705E-3,7.7268844E-3,3.796429E-2,1.769462E-4,3.3785015E-2,-1.811083E-2,1.2396868E-2,-7.147167E-3,-1.40934875E-2,-1.7883332E-2,1.6356794E-2],"categories":[],"categories_nodes":[],"categories_segments":[],"categories_sizes":[],"default_left":[0,0,0,0,0,0,0,0,0,0,0,0,0,0,0,0,0,0,0,0,0,0,0,0,0,0,0,0,0,0,0,0,0,0,0,0,0,0,0,0,0,0,0,0,0,0,0,0,0,0,0,0,0,0,0,0,0,0,0,0,0,0,0],"id":17,"left_children":[1,3,5,7,9,11,13,15,17,19,21,23,25,27,29,31,33,35,37,39,41,43,45,47,49,51,53,55,57,59,61,-1,-1,-1,-1,-1,-1,-1,-1,-1,-1,-1,-1,-1,-1,-1,-1,-1,-1,-1,-1,-1,-1,-1,-1,-1,-1,-1,-1,-1,-1,-1,-1],"loss_changes":[3.0760526E2,4.812303E1,3.423623E1,3.5494385E0,1.7075874E1,7.9151134E0,8.88237E0,2.4004898E0,4.0062084E0,6.56295E0,7.7171135E0,7.429224E0,6.702623E0,4.678871E0,4.6631775E0,1.8899536E0,9.4893646E-1,2.7898693E0,4.0757236E0,2.3180466E0,4.4131494E0,8.521909E0,7.1703224E0,4.3005958E0,3.761221E0,5.5470986E0,1.6310883E0,1.4061718E0,2.1218784E0,2.7414703E0,2.5777893E0,0E0,0E0,0E0,0E0,0E0,0E0,0E0,0E0,0E0,0E0,0E0,0E0,0E0,0E0,0E0,0E0,0E0,0E0,0E0,0E0,0E0,0E0,0E0,0E0,0E0,0E0,0E0,0E0,0E0,0E0,0E0,0E0],"parents":[2147483647,0,0,1,1,2,2,3,3,4,4,5,5,6,6,7,7,8,8,9,9,10,10,11,11,12,12,13,13,14,14,15,15,16,16,17,17,18,18,19,19,20,20,21,21,22,22,23,23,24,24,25,25,26,26,27,27,28,28,29,29,30,30],"right_children":[2,4,6,8,10,12,14,16,18,20,22,24,26,28,30,32,34,36,38,40,42,44,46,48,50,52,54,56,58,60,62,-1,-1,-1,-1,-1,-1,-1,-1,-1,-1,-1,-1,-1,-1,-1,-1,-1,-1,-1,-1,-1,-1,-1,-1,-1,-1,-1,-1,-1,-1,-1,-1],"split_conditions":[-3.8761687E-1,-1.5627515E0,3.3007833E-1,-7.462234E-1,-1.4690984E0,8.667562E-1,-1.4444091E0,-2.0822546E0,8.667562E-1,-1.6559659E-1,3.1946746E-1,9.177365E-2,-1.98627E-1,1.2317444E0,7.7393115E-1,-1.1758907E0,2.8354284E-1,1.3896539E0,-1.1807679E0,2.6750425E-1,-1.7273788E0,-2.3578852E-1,2.3686735E-1,1.2291306E0,1.431581E0,-4.6799296E-1,-8.540901E-1,-1.530945E-1,9.279329E-1,-8.687359E-1,8.259835E-1,-1.401789E-2,2.3313908E-2,3.674168E-2,8.275371E-3,2.8656669E-2,-1.2293291E-2,2.6126504E-2,-1.8708823E-2,3.5230655E-2,-1.4489325E-3,-5.8618467E-3,2.6341755E-2,1.2591239E-2,1.7761536E-3,2.260497E-2,1.083398E-2,-4.1853306E-3,6.4735836E-3,-1.1597927E-2,4.7249286E-3,1.0701023E-2,-7.990705E-3,7.7268844E-3,3.796429E-2,1.769462E-4,3.3785015E-2,-1.811083E-2,1.2396868E-2,-7.147167E-3,-1.40934875E-2,-1.7883332E-2,1.6356794E-2],"split_indices":[2,2,2,41,71,45,12,1,45,14,55,3,71,31,2,12,72,84,0,39,50,94,1,99,42,57,53,17,39,42,11,0,0,0,0,0,0,0,0,0,0,0,0,0,0,0,0,0,0,0,0,0,0,0,0,0,0,0,0,0,0,0,0],"split_type":[0,0,0,0,0,0,0,0,0,0,0,0,0,0,0,0,0,0,0,0,0,0,0,0,0,0,0,0,0,0,0,0,0,0,0,0,0,0,0,0,0,0,0,0,0,0,0,0,0,0,0,0,0,0,0,0,0,0,0,0,0,0,0],"sum_hessian":[1.9358114E3,7.610944E2,1.174717E3,1.2196853E2,6.391259E2,5.658644E2,6.0885266E2,8.759724E1,3.4371292E1,5.2818703E1,5.863072E2,5.024018E2,6.34626E1,1.2811994E1,5.9604065E2,2.9780982E0,8.461913E1,2.8784327E1,5.5869646E0,3.9003914E1,1.3814788E1,2.7249344E2,3.1381375E2,3.1505112E2,1.8735068E2,5.5186867E1,8.275736E0,5.933564E0,6.87843E0,2.7061667E2,3.25424E2,1.4293622E0,1.548736E0,8.287458E1,1.7445521E0,2.773624E1,1.0480869E0,2.0557482E0,3.5312161E0,3.7468716E1,1.535196E0,7.80571E0,6.009078E0,1.08865135E2,1.6362831E2,5.7721687E1,2.5609207E2,2.771329E2,3.7918198E1,1.7417857E2,1.31721E1,2.7873146E1,2.731372E1,2.9852986E0,5.290437E0,1.4194515E0,4.5141125E0,4.464776E0,2.4136539E0,7.3688034E1,1.9692863E2,3.241631E2,1.2609249E0],"tree_param":{"num_deleted":"0","num_feature":"113","num_nodes":"63","size_leaf_vector":"1"}},{"base_weights":[3.1110848E-4,-3.6081934E-1,4.2102116E-1,-5.310532E-1,-1.8984884E-1,2.819633E-1,8.048766E-1,-5.460593E-1,-1.9420013E-1,5.977464E-1,-2.0524201E-1,4.4717062E-1,1.8321343E-1,6.3444734E-1,1.0356629E0,-5.879846E-1,-4.5527703E-1,-2.969412E-1,5.082747E-1,-3.6129218E-1,1.0107938E0,-1.3055997E-1,-3.7228432E-1,5.600498E-1,1.9821167E-1,2.541748E-1,7.751261E-3,6.7888176E-1,7.4518904E-2,-1.3188932E-2,1.0583628E0,-1.8011615E-2,-6.7195725E-3,-1.4438505E-2,7.1483464E-3,-1.2665588E-2,3.020902E-3,2.640525E-2,-2.594643E-3,-2.6965481E-3,-1.3655676E-2,5.299965E-3,3.4781054E-2,1.4685156E-3,-5.9375977E-3,-1.2346669E-2,1.7877667E-3,-9.556066E-3,1.772666E-2,2.424548E-3,2.6648514E-2,9.534882E-3,-3.9473485E-4,-1.6172278E-3,1.5834503E-2,-8.325523E-3,2.1176737E-2,2.8176041E-2,-7.336217E-3,1.7435973E-3,3.248064E-2],"categories":[],"categories_nodes":[],"categories_segments":[],"categories_sizes":[],"default_left":[0,0,0,0,0,0,0,0,0,0,0,0,0,0,0,0,0,0,0,0,0,0,0,0,0,0,0,0,0,0,0,0,0,0,0,0,0,0,0,0,0,0,0,0,0,0,0,0,0,0,0,0,0,0,0,0,0,0,0,0,0],"id":18,"left_children":[1,3,5,7,9,11,13,15,17,19,21,23,25,27,29,31,33,35,37,39,41,43,45,47,49,51,53,55,57,-1,59,-1,-1,-1,-1,-1,-1,-1,-1,-1,-1,-1,-1,-1,-1,-1,-1,-1,-1,-1,-1,-1,-1,-1,-1,-1,-1,-1,-1,-1,-1],"loss_changes":[2.9686493E2,3.0500748E1,4.7947968E1,2.5542908E0,6.501295E0,1.0751583E1,8.761826E0,1.6478729E0,1.8828771E0,4.461744E0,6.398386E0,6.850971E0,5.1940565E0,3.4407692E0,3.8189163E0,1.4043274E0,3.0624886E0,1.1165726E0,8.349653E-1,5.719596E-2,7.236209E-1,4.3466063E0,2.7233448E0,4.7917404E0,6.3143854E0,5.060137E0,3.9150624E0,3.551117E0,3.3859496E0,0E0,2.3438034E0,0E0,0E0,0E0,0E0,0E0,0E0,0E0,0E0,0E0,0E0,0E0,0E0,0E0,0E0,0E0,0E0,0E0,0E0,0E0,0E0,0E0,0E0,0E0,0E0,0E0,0E0,0E0,0E0,0E0,0E0],"parents":[2147483647,0,0,1,1,2,2,3,3,4,4,5,5,6,6,7,7,8,8,9,9,10,10,11,11,12,12,13,13,14,14,15,15,16,16,17,17,18,18,19,19,20,20,21,21,22,22,23,23,24,24,25,25,26,26,27,27,28,28,30,30],"right_children":[2,4,6,8,10,12,14,16,18,20,22,24,26,28,30,32,34,36,38,40,42,44,46,48,50,52,54,56,58,-1,60,-1,-1,-1,-1,-1,-1,-1,-1,-1,-1,-1,-1,-1,-1,-1,-1,-1,-1,-1,-1,-1,-1,-1,-1,-1,-1,-1,-1,-1,-1],"split_conditions":[5.3608857E-2,-6.5040696E-1,9.935834E-1,1.204159E0,-6.3265616E-1,-6.8062687E-1,1.473038E0,-9.3758774E-1,1.438637E-2,-1.7702086E0,1.6795616E0,1.6795616E0,-2.7541326E-2,1.1709509E0,-1.3833822E0,9.4037384E-1,5.1586103E-1,-9.419184E-1,6.0411745E-1,-1.4676522E-1,-1.1953045E0,-2.4487811E-1,-2.9726537E-2,-1.2384082E0,8.2673454E-1,9.000294E-1,9.4037384E-1,-5.8901846E-1,2.9852152E-1,-1.3188932E-2,-1.0215547E0,-1.8011615E-2,-6.7195725E-3,-1.4438505E-2,7.1483464E-3,-1.2665588E-2,3.020902E-3,2.640525E-2,-2.594643E-3,-2.6965481E-3,-1.3655676E-2,5.299965E-3,3.4781054E-2,1.4685156E-3,-5.9375977E-3,-1.2346669E-2,1.7877667E-3,-9.556066E-3,1.772666E-2,2.424548E-3,2.6648514E-2,9.534882E-3,-3.9473485E-4,-1.6172278E-3,1.5834503E-2,-8.325523E-3,2.1176737E-2,2.8176041E-2,-7.336217E-3,1.7435973E-3,3.248064E-2],"split_indices":[3,2,2,12,76,13,3,2,11,89,4,4,92,52,12,79,11,3,19,16,47,96,2,87,2,63,79,14,35,0,11,0,0,0,0,0,0,0,0,0,0,0,0,0,0,0,0,0,0,0,0,0,0,0,0,0,0,0,0,0,0],"split_type":[0,0,0,0,0,0,0,0,0,0,0,0,0,0,0,0,0,0,0,0,0,0,0,0,0,0,0,0,0,0,0,0,0,0,0,0,0,0,0,0,0,0,0,0,0,0,0,0,0,0,0,0,0,0,0,0,0,0,0,0,0],"sum_hessian":[1.9519431E3,1.0504214E3,9.015217E2,5.252893E2,5.251321E2,6.6305414E2,2.3846758E2,5.022921E2,2.2997189E1,9.341475E0,5.157906E2,2.4673732E2,4.1631683E2,1.3932732E2,9.9140274E1,3.3986026E2,1.6243185E2,2.056651E1,2.43068E0,2.8498414E0,6.491633E0,3.5766547E2,1.5812512E2,1.689053E2,7.7832016E1,2.961127E2,1.2020411E2,1.2888676E2,1.0440546E1,1.2240018E0,9.791627E1,3.2803375E2,1.1826503E1,1.5685623E2,5.5756316E0,1.55933075E1,4.9732018E0,1.2002795E0,1.2304007E0,1.23561E0,1.6142313E0,1.3124331E0,5.1791997E0,9.766556E1,2.599999E2,1.4498813E2,1.3136984E1,5.41129E0,1.63494E2,6.747111E1,1.0360907E1,2.3901248E2,5.710022E1,1.08264626E2,1.19394865E1,3.2851665E0,1.2560159E2,2.2902064E0,8.15034E0,2.4051814E0,9.5511086E1],"tree_param":{"num_deleted":"0","num_feature":"113","num_nodes":"61","size_leaf_vector":"1"}},{"base_weights":[4.648226E-3,-5.459125E-1,3.335954E-2,-6.3427925E-1,-2.9018235E-1,6.96919E-2,-4.6732056E-1,5.8559007E-3,-6.544984E-1,-5.274368E-1,3.321289E-1,-1.0859843E-1,1.2895057E-1,-4.8823336E-1,1.9531699E-2,4.8830435E-3,-6.758987E-1,1.7805131E-1,-2.028557E-2,9.9410117E-1,-1.6240204E-2,-5.519785E-2,-4.5088443E-1,1.756293E-1,-5.3418476E-2,-5.1878935E-1,3.566412E-1,-2.0941218E-2,-4.2025056E-3,-1.394667E-2,2.633778E-2,9.284686E-3,3.375644E-2,5.967785E-3,-4.325251E-3,-3.7538202E-3,-1.7845022E-2,-1.7383594E-2,5.557237E-3,-6.1470964E-3,3.0913346E-3,-1.7560374E-2,-5.5885096E-3,2.5099037E-2,-1.3002479E-2],"categories":[],"categories_nodes":[],"categories_segments":[],"categories_sizes":[],"default_left":[0,0,0,0,0,0,0,0,0,0,0,0,0,0,0,0,0,0,0,0,0,0,0,0,0,0,0,0,0,0,0,0,0,0,0,0,0,0,0,0,0,0,0,0,0],"id":19,"left_children":[1,3,5,7,9,11,13,-1,15,17,19,21,23,25,-1,-1,27,29,-1,31,-1,33,35,37,39,41,43,-1,-1,-1,-1,-1,-1,-1,-1,-1,-1,-1,-1,-1,-1,-1,-1,-1,-1],"loss_changes":[3.0463842E1,1.974535E0,3.3349644E1,1.3042126E0,4.0691752E0,1.806453E1,3.2190647E0,0E0,1.311697E0,2.1647038E0,5.102112E0,7.775151E0,1.092906E1,3.3433228E0,0E0,0E0,6.98864E-1,2.290729E0,0E0,8.64563E-2,0E0,8.40132E0,2.6196318E0,7.521614E0,6.235311E0,2.5128765E0,2.2066624E0,0E0,0E0,0E0,0E0,0E0,0E0,0E0,0E0,0E0,0E0,0E0,0E0,0E0,0E0,0E0,0E0,0E0,0E0],"parents":[2147483647,0,0,1,1,2,2,3,3,4,4,5,5,6,6,8,8,9,9,10,10,11,11,12,12,13,13,16,16,17,17,19,19,21,21,22,22,23,23,24,24,25,25,26,26],"right_children":[2,4,6,8,10,12,14,-1,16,18,20,22,24,26,-1,-1,28,30,-1,32,-1,34,36,38,40,42,44,-1,-1,-1,-1,-1,-1,-1,-1,-1,-1,-1,-1,-1,-1,-1,-1,-1,-1],"split_conditions":[-1.622486E0,-7.462234E-1,1.2923808E0,-1.0045142E0,1.8119709E-1,-7.509521E-1,2.6482484E0,5.8559007E-3,-1.4688199E0,-1.4049611E0,1.8725209E-1,1.6510432E0,2.607333E-1,1.3896539E0,1.9531699E-2,4.8830435E-3,2.3309486E0,-1.3839633E0,-2.028557E-2,-1.3101499E0,-1.6240204E-2,-6.301525E-1,-7.645567E-1,-1.9629928E0,-5.997279E-1,9.7662896E-1,3.470303E-1,-2.0941218E-2,-4.2025056E-3,-1.394667E-2,2.633778E-2,9.284686E-3,3.375644E-2,5.967785E-3,-4.325251E-3,-3.7538202E-3,-1.7845022E-2,-1.7383594E-2,5.557237E-3,-6.1470964E-3,3.0913346E-3,-1.7560374E-2,-5.5885096E-3,2.5099037E-2,-1.3002479E-2],"split_indices":[2,41,2,55,96,13,10,0,12,63,84,56,70,84,0,0,13,88,0,12,0,57,69,89,62,67,29,0,0,0,0,0,0,0,0,0,0,0,0,0,0,0,0,0,0],"split_type":[0,0,0,0,0,0,0,0,0,0,0,0,0,0,0,0,0,0,0,0,0,0,0,0,0,0,0,0,0,0,0,0,0,0,0,0,0,0,0,0,0,0,0,0,0],"sum_hessian":[1.9250463E3,9.452106E1,1.8305253E3,6.914719E1,2.5373867E1,1.707481E3,1.2304428E2,1.4394798E0,6.770771E1,1.8480633E1,6.893234E0,4.257383E2,1.2817427E3,1.2133878E2,1.7054989E0,1.5591369E0,6.614857E1,3.1837428E0,1.5296889E1,3.8428004E0,3.0504336E0,3.692866E2,5.6451733E1,1.02055963E3,2.61183E2,1.1747606E2,3.8627207E0,6.323279E1,2.9157805E0,1.8343604E0,1.3493824E0,1.1577994E0,2.685001E0,9.544744E1,2.7383914E2,1.7873459E1,3.8578274E1,1.2082875E1,1.00847675E3,1.3254532E2,1.286377E2,9.724958E1,2.0226484E1,2.3661995E0,1.4965212E0],"tree_param":{"num_deleted":"0","num_feature":"113","num_nodes":"45","size_leaf_vector":"1"}},{"base_weights":[2.5696857E-3,4.0417063E-1,-3.559912E-1,8.652685E-1,2.789842E-1,-1.7746226E-1,-5.02739E-1,9.114927E-1,2.692519E-1,3.647268E-1,1.1952579E-1,8.610408E-1,-1.9833972E-1,-5.1570094E-1,4.99728E-1,1.1585324E0,8.1919503E-1,5.7677305E-1,-1.7909138E-2,4.630518E-1,2.4912706E-1,3.923976E-1,-2.4226004E-2,3.29672E-2,-2.611143E-3,-7.4725844E-2,-3.1321862E-1,-4.0883026E-1,-5.8618414E-1,8.2790715E-1,-1.34167E-2,3.566885E-2,1.1575611E-3,2.0429624E-2,3.2111593E-2,2.8200211E-2,-9.4423443E-4,8.782122E-3,2.0230087E-2,9.968931E-3,-3.3033593E-3,2.1417836E-2,4.5886645E-4,-1.9791499E-3,2.805778E-2,1.5807296E-3,-7.4089887E-3,-5.4950058E-3,-1.2691162E-2,-1.30855525E-2,5.500192E-3,-1.7746655E-2,-7.343111E-4,3.178904E-2,6.9856364E-3],"categories":[],"categories_nodes":[],"categories_segments":[],"categories_sizes":[],"default_left":[0,0,0,0,0,0,0,0,0,0,0,0,0,0,0,0,0,0,0,0,0,0,0,0,0,0,0,0,0,0,0,0,0,0,0,0,0,0,0,0,0,0,0,0,0,0,0,0,0,0,0,0,0,0,0],"id":20,"left_children":[1,3,5,7,9,11,13,15,17,19,21,23,25,27,29,31,33,35,-1,37,39,41,43,-1,-1,45,47,49,51,53,-1,-1,-1,-1,-1,-1,-1,-1,-1,-1,-1,-1,-1,-1,-1,-1,-1,-1,-1,-1,-1,-1,-1,-1,-1],"loss_changes":[2.7138922E2,5.1073196E1,2.5996674E1,4.9710693E0,9.53574E0,9.943616E0,7.351639E0,3.047882E0,4.3525343E0,5.057987E0,9.678165E0,2.1411295E0,6.2629204E0,3.823944E0,2.6938334E0,1.4967384E0,3.820015E0,2.5953624E0,0E0,8.611156E0,6.3516617E0,1.0308167E1,6.5657697E0,0E0,0E0,4.721519E0,3.1950607E0,3.6063766E0,9.592972E-1,5.672593E-1,0E0,0E0,0E0,0E0,0E0,0E0,0E0,0E0,0E0,0E0,0E0,0E0,0E0,0E0,0E0,0E0,0E0,0E0,0E0,0E0,0E0,0E0,0E0,0E0,0E0],"parents":[2147483647,0,0,1,1,2,2,3,3,4,4,5,5,6,6,7,7,8,8,9,9,10,10,11,11,12,12,13,13,14,14,15,15,16,16,17,17,19,19,20,20,21,21,22,22,25,25,26,26,27,27,28,28,29,29],"right_children":[2,4,6,8,10,12,14,16,18,20,22,24,26,28,30,32,34,36,-1,38,40,42,44,-1,-1,46,48,50,52,54,-1,-1,-1,-1,-1,-1,-1,-1,-1,-1,-1,-1,-1,-1,-1,-1,-1,-1,-1,-1,-1,-1,-1,-1,-1],"split_conditions":[-2.2488816E-1,-1.3481437E0,4.0620118E-1,6.945919E-1,-5.5032504E-1,-2.1751478E0,1.5718021E0,-1.8028221E0,-1.4690061E0,6.340879E-1,-3.1866086E-1,4.5378646E-1,-2.90308E-1,7.7393115E-1,4.369868E-1,-2.6065853E-1,-5.760345E-1,-1.0468198E-2,-1.7909138E-2,1.605896E-1,2.5441748E-1,3.4787175E-1,1.454204E0,3.29672E-2,-2.611143E-3,4.2263132E-1,1.537168E-1,1.6559099E0,3E0,-6.237508E-1,-1.34167E-2,3.566885E-2,1.1575611E-3,2.0429624E-2,3.2111593E-2,2.8200211E-2,-9.4423443E-4,8.782122E-3,2.0230087E-2,9.968931E-3,-3.3033593E-3,2.1417836E-2,4.5886645E-4,-1.9791499E-3,2.805778E-2,1.5807296E-3,-7.4089887E-3,-5.4950058E-3,-1.2691162E-2,-1.30855525E-2,5.500192E-3,-1.7746655E-2,-7.343111E-4,3.178904E-2,6.9856364E-3],"split_indices":[2,2,2,47,2,46,70,3,2,1,9,38,22,2,97,0,69,69,0,55,97,22,69,0,0,20,62,80,64,78,0,0,0,0,0,0,0,0,0,0,0,0,0,0,0,0,0,0,0,0,0,0,0,0,0],"split_type":[0,0,0,0,0,0,0,0,0,0,0,0,0,0,0,0,0,0,0,0,0,0,0,0,0,0,0,0,0,0,0,0,0,0,0,0,0,0,0,0,0,0,0,0,0,0,0,0,0,0,0,0,0,0,0],"sum_hessian":[1.8826693E3,8.879767E2,9.946926E2,1.8834303E2,6.996336E2,4.497498E2,5.449428E2,1.7429614E2,1.404688E1,4.5414648E2,2.4548715E2,8.070249E0,4.4167953E2,5.38466E2,6.4768353E0,4.4265385E1,1.3003076E2,1.06132E1,3.4336803E0,2.4378558E2,2.103609E2,8.4106064E1,1.6138109E2,6.324413E0,1.7458352E0,2.1354636E2,2.2813318E2,2.1669727E2,3.217687E2,4.9032564E0,1.5735788E0,4.30345E1,1.2308836E0,8.6273445E1,4.3757317E1,6.3034587E0,4.3097415E0,1.3630055E2,1.0748503E2,1.7087508E2,3.948582E1,4.4915962E1,3.9190098E1,1.5554483E2,5.8362617E0,1.2314358E2,9.040278E1,1.0566724E2,1.2246594E2,2.0738089E2,9.3163805E0,3.1866846E2,3.1002572E0,2.9670687E0,1.936188E0],"tree_param":{"num_deleted":"0","num_feature":"113","num_nodes":"55","size_leaf_vector":"1"}},{"base_weights":[2.5257112E-3,-3.5439345E-1,4.3018624E-1,-5.002828E-1,-1.7256725E-1,3.21714E-1,9.290192E-1,5.373873E-1,-5.062548E-1,-2.0001534E-1,3.3936948E-1,3.889928E-1,8.9704216E-2,7.1923715E-1,1.0229015E0,2.7207538E-2,-3.4424246E-3,-5.7157177E-1,-4.1438586E-1,-1.2337588E-1,-3.659454E-1,-2.0194347E-1,8.8526756E-1,2.243005E-1,5.2118653E-1,2.1717758E-1,-2.0537795E-1,8.0146164E-1,-3.1757024E-1,1.0447522E0,5.6576647E-2,-1.7788587E-2,-9.589284E-3,1.0708621E-2,-1.2815651E-2,3.9990577E-3,-5.1031196E-3,-1.245523E-2,7.482513E-4,-1.3878696E-2,1.8393427E-2,3.7376903E-2,5.2403463E-3,9.052843E-3,-1.3739852E-3,1.6819673E-2,-2.9933432E-3,-2.7680553E-3,1.1407814E-2,1.2324204E-2,-9.644073E-3,2.7057039E-2,4.976337E-3,3.5504212E-3,-1.6384097E-2,3.1732164E-2,-3.0026848E-3,-2.269465E-3,4.445817E-3],"categories":[],"categories_nodes":[],"categories_segments":[],"categories_sizes":[],"default_left":[0,0,0,0,0,0,0,0,0,0,0,0,0,0,0,0,0,0,0,0,0,0,0,0,0,0,0,0,0,0,0,0,0,0,0,0,0,0,0,0,0,0,0,0,0,0,0,0,0,0,0,0,0,0,0,0,0,0,0],"id":21,"left_children":[1,3,5,7,9,11,13,15,17,19,21,23,25,27,29,-1,-1,31,33,35,37,39,41,43,45,47,49,51,53,55,57,-1,-1,-1,-1,-1,-1,-1,-1,-1,-1,-1,-1,-1,-1,-1,-1,-1,-1,-1,-1,-1,-1,-1,-1,-1,-1,-1,-1],"loss_changes":[2.964619E2,2.7996674E1,4.7509613E1,3.908783E0,6.7117767E0,1.1317268E1,2.361969E0,1.0302216E0,3.2675934E0,5.669615E0,7.3983245E0,1.2150803E1,6.243058E0,4.6871414E0,2.1851578E0,0E0,0E0,1.6348801E0,2.584896E0,3.7277951E0,2.7327442E0,3.06306E0,2.9471664E0,5.2999287E0,7.6984863E0,5.866905E0,3.7248695E0,2.943861E0,5.166536E-1,1.6503143E0,5.2489977E-2,0E0,0E0,0E0,0E0,0E0,0E0,0E0,0E0,0E0,0E0,0E0,0E0,0E0,0E0,0E0,0E0,0E0,0E0,0E0,0E0,0E0,0E0,0E0,0E0,0E0,0E0,0E0,0E0],"parents":[2147483647,0,0,1,1,2,2,3,3,4,4,5,5,6,6,7,7,8,8,9,9,10,10,11,11,12,12,13,13,14,14,17,17,18,18,19,19,20,20,21,21,22,22,23,23,24,24,25,25,26,26,27,27,28,28,29,29,30,30],"right_children":[2,4,6,8,10,12,14,16,18,20,22,24,26,28,30,-1,-1,32,34,36,38,40,42,44,46,48,50,52,54,56,58,-1,-1,-1,-1,-1,-1,-1,-1,-1,-1,-1,-1,-1,-1,-1,-1,-1,-1,-1,-1,-1,-1,-1,-1,-1,-1,-1,-1],"split_conditions":[7.799889E-2,-7.1139413E-1,1.3646764E0,-1.4955724E0,1.1387969E0,4.630059E-1,1.473038E0,-7.63697E-1,-1.1370357E0,1.6795616E0,-7.017159E-1,6.681187E-1,1.0411402E0,1.7274679E-1,1.9943926E0,2.7207538E-2,-3.4424246E-3,3.256239E-1,-1.6853311E0,-7.144286E-1,1.3905553E0,4.5378646E-1,-4.4711318E-2,4.9998504E-1,1.242138E0,-3.44399E-1,-5.7572544E-1,1.4534545E0,5.1527196E-1,7.742212E-1,-2.0822546E0,-1.7788587E-2,-9.589284E-3,1.0708621E-2,-1.2815651E-2,3.9990577E-3,-5.1031196E-3,-1.245523E-2,7.482513E-4,-1.3878696E-2,1.8393427E-2,3.7376903E-2,5.2403463E-3,9.052843E-3,-1.3739852E-3,1.6819673E-2,-2.9933432E-3,-2.7680553E-3,1.1407814E-2,1.2324204E-2,-9.644073E-3,2.7057039E-2,4.976337E-3,3.5504212E-3,-1.6384097E-2,3.1732164E-2,-3.0026848E-3,-2.269465E-3,4.445817E-3],"split_indices":[3,3,3,13,81,1,3,67,3,4,69,3,64,11,10,0,0,0,61,87,78,38,90,45,92,10,73,3,16,97,1,0,0,0,0,0,0,0,0,0,0,0,0,0,0,0,0,0,0,0,0,0,0,0,0,0,0,0,0],"split_type":[0,0,0,0,0,0,0,0,0,0,0,0,0,0,0,0,0,0,0,0,0,0,0,0,0,0,0,0,0,0,0,0,0,0,0,0,0,0,0,0,0,0,0,0,0,0,0,0,0,0,0,0,0,0,0,0,0,0,0],"sum_hessian":[1.9402278E3,1.0576772E3,8.8255054E2,5.858585E2,4.7181876E2,7.262672E2,1.5628331E2,2.843225E0,5.8301526E2,4.4838727E2,2.3431503E1,5.6248096E2,1.6378625E2,5.0994957E1,1.0528835E2,1.5654662E0,1.2777587E0,3.376976E2,2.4531769E2,3.079127E2,1.4047458E2,1.2081526E1,1.1349978E1,2.5165535E2,3.108256E2,1.1456082E2,4.922544E1,4.745825E1,3.5367079E0,1.0288083E2,2.4075303E0,3.1003162E2,2.7665974E1,3.5663586E0,2.4175133E2,4.713687E1,2.6077582E2,1.2470669E2,1.5767895E1,9.481473E0,2.600053E0,7.029253E0,4.320725E0,1.954778E2,5.6177547E1,2.9234116E2,1.8484436E1,3.9687984E1,7.487283E1,7.401478E0,4.1823963E1,4.062014E1,6.83811E0,1.3824129E0,2.154295E0,1.0180212E2,1.0787079E0,1.0567228E0,1.3508074E0],"tree_param":{"num_deleted":"0","num_feature":"113","num_nodes":"59","size_leaf_vector":"1"}},{"base_weights":[9.691955E-3,-4.3443504E-1,5.3261545E-2,-4.4960517E-1,2.4651479E-2,9.346546E-2,-4.6692467E-1,-4.7124517E-1,4.695553E-1,-1.0568331E-1,1.6117081E-1,-4.9664122E-1,4.8612478E-1,-6.518416E-1,-3.590528E-1,2.6830964E-2,-9.629962E-5,3.1395763E-1,-1.5497997E-1,1.7044622E-1,-5.111635E-1,-3.6483583E-1,-6.6518426E-1,2.9398618E-2,-1.2324806E-2,9.574967E-3,-2.0252254E-2,2.819479E-3,-1.3029137E-2,1.4121768E-2,-9.975901E-3,-7.761181E-3,2.3081913E-4,6.2059825E-3,1.0841684E-3,-2.0633707E-2,1.811905E-2,-1.1488692E-3,-1.4220615E-2,-2.0799713E-2,7.863408E-3],"categories":[],"categories_nodes":[],"categories_segments":[],"categories_sizes":[],"default_left":[0,0,0,0,0,0,0,0,0,0,0,0,0,0,0,0,0,0,0,0,0,0,0,0,0,0,0,0,0,0,0,0,0,0,0,0,0,0,0,0,0],"id":22,"left_children":[1,3,5,7,-1,9,11,13,15,17,19,21,23,25,27,-1,-1,29,31,33,35,37,39,-1,-1,-1,-1,-1,-1,-1,-1,-1,-1,-1,-1,-1,-1,-1,-1,-1,-1],"loss_changes":[3.723357E1,3.6452332E0,3.668568E1,3.6125984E0,0E0,2.1957397E1,3.8061066E0,3.151165E0,8.9109576E-1,8.601738E0,7.6625366E0,2.4798431E0,2.3122091E0,1.632103E0,3.630025E0,0E0,0E0,4.595038E0,6.256323E0,5.857254E0,3.7205343E0,2.5127592E0,1.5534E0,0E0,0E0,0E0,0E0,0E0,0E0,0E0,0E0,0E0,0E0,0E0,0E0,0E0,0E0,0E0,0E0,0E0,0E0],"parents":[2147483647,0,0,1,1,2,2,3,3,5,5,6,6,7,7,8,8,9,9,10,10,11,11,12,12,13,13,14,14,17,17,18,18,19,19,20,20,21,21,22,22],"right_children":[2,4,6,8,-1,10,12,14,16,18,20,22,24,26,28,-1,-1,30,32,34,36,38,40,-1,-1,-1,-1,-1,-1,-1,-1,-1,-1,-1,-1,-1,-1,-1,-1,-1,-1],"split_conditions":[-1.3481437E0,1.624227E0,1.3646764E0,4.5929214E-1,2.4651479E-2,-7.426786E-1,1.6842303E0,-1.1009852E0,5.0026846E-1,-1.1275436E0,1.7633082E0,1.6944085E0,-8.687359E-1,-1.1558263E0,-9.3572944E-1,2.6830964E-2,-9.629962E-5,1.4137832E0,-1.5888743E-1,7.41486E-1,3.5307032E-1,-9.602395E-1,1.9000672E0,2.9398618E-2,-1.2324806E-2,9.574967E-3,-2.0252254E-2,2.819479E-3,-1.3029137E-2,1.4121768E-2,-9.975901E-3,-7.761181E-3,2.3081913E-4,6.2059825E-3,1.0841684E-3,-2.0633707E-2,1.811905E-2,-1.1488692E-3,-1.4220615E-2,-2.0799713E-2,7.863408E-3],"split_indices":[2,72,3,14,0,13,10,46,14,5,45,2,42,55,46,0,0,25,92,42,19,20,67,0,0,0,0,0,0,0,0,0,0,0,0,0,0,0,0,0,0],"split_type":[0,0,0,0,0,0,0,0,0,0,0,0,0,0,0,0,0,0,0,0,0,0,0,0,0,0,0,0,0,0,0,0,0,0,0,0,0,0,0,0,0],"sum_hessian":[1.9219772E3,1.7090318E2,1.751074E3,1.6949828E2,1.4048995E0,1.6262086E3,1.2486536E2,1.6607562E2,3.422649E0,4.1245398E2,1.2137546E3,1.2155413E2,3.3112242E0,6.1794613E1,1.0428101E2,1.333046E0,2.089603E0,4.2794483E1,3.696595E2,1.1979741E3,1.578054E1,6.998699E1,5.156714E1,2.0758166E0,1.2354077E0,1.1463809E0,6.0648235E1,1.4818828E1,8.946219E1,3.4661278E1,8.133204E0,2.2536761E2,1.4429189E2,9.419947E2,2.5597937E2,1.3953632E1,1.8269082E0,1.7875933E1,5.2111057E1,5.0293274E1,1.2738677E0],"tree_param":{"num_deleted":"0","num_feature":"113","num_nodes":"41","size_leaf_vector":"1"}},{"base_weights":[8.995862E-3,4.0174162E-1,-3.4595174E-1,7.163496E-1,2.1023244E-1,-1.8224442E-1,-4.9788287E-1,9.756473E-1,5.727586E-1,5.6343615E-1,1.7416942E-1,-2.104602E-1,5.1679295E-1,4.5944083E-1,-5.162123E-1,1.0135286E0,4.4968745E-1,6.4141385E-2,6.63697E-1,7.7019376E-1,6.7419626E-2,8.398038E-2,3.089785E-1,-2.8523004E-1,-6.0655504E-2,1.440776E-2,9.0402275E-1,9.5475906E-1,-3.4864512E-1,-3.8290516E-1,-5.696909E-1,3.231069E-2,1.7976154E-2,2.173608E-2,-1.5562368E-2,3.2963216E-2,-3.8047947E-3,2.1750484E-2,6.9904127E-3,2.4985408E-2,-1.3829769E-2,-1.1065078E-2,1.9179296E-2,2.1636669E-2,1.6407002E-3,1.0663182E-2,-6.7197205E-3,-1.0104831E-2,9.386901E-4,-7.4085454E-3,2.122275E-3,2.3218714E-2,-1.0287132E-2,3.097639E-2,6.5943843E-4,3.1589149E-3,3.3236608E-2,-1.5912399E-2,3.806561E-3,-1.2340429E-2,1.8006405E-2,-1.5311524E-2,-1.9327652E-2],"categories":[],"categories_nodes":[],"categories_segments":[],"categories_sizes":[],"default_left":[0,0,0,0,0,0,0,0,0,0,0,0,0,0,0,0,0,0,0,0,0,0,0,0,0,0,0,0,0,0,0,0,0,0,0,0,0,0,0,0,0,0,0,0,0,0,0,0,0,0,0,0,0,0,0,0,0,0,0,0,0,0,0],"id":23,"left_children":[1,3,5,7,9,11,13,15,17,19,21,23,25,27,29,31,33,35,37,39,41,43,45,47,49,51,53,55,57,59,61,-1,-1,-1,-1,-1,-1,-1,-1,-1,-1,-1,-1,-1,-1,-1,-1,-1,-1,-1,-1,-1,-1,-1,-1,-1,-1,-1,-1,-1,-1,-1,-1],"loss_changes":[2.6718353E2,5.466812E1,2.4949753E1,1.2244125E1,7.1239223E0,9.698097E0,9.389526E0,1.9576797E0,1.0305557E1,5.289175E0,6.2466106E0,5.225006E0,3.7127824E0,4.4667587E0,3.4337769E0,2.3062134E0,3.0204651E0,7.0629053E0,4.840576E0,3.211979E0,4.331946E0,5.7557306E0,5.1911583E0,5.104912E0,3.862985E0,2.8036678E0,1.2015553E0,7.510376E-1,4.6986604E-1,4.433264E0,1.2788162E0,0E0,0E0,0E0,0E0,0E0,0E0,0E0,0E0,0E0,0E0,0E0,0E0,0E0,0E0,0E0,0E0,0E0,0E0,0E0,0E0,0E0,0E0,0E0,0E0,0E0,0E0,0E0,0E0,0E0,0E0,0E0,0E0],"parents":[2147483647,0,0,1,1,2,2,3,3,4,4,5,5,6,6,7,7,8,8,9,9,10,10,11,11,12,12,13,13,14,14,15,15,16,16,17,17,18,18,19,19,20,20,21,21,22,22,23,23,24,24,25,25,26,26,27,27,28,28,29,29,30,30],"right_children":[2,4,6,8,10,12,14,16,18,20,22,24,26,28,30,32,34,36,38,40,42,44,46,48,50,52,54,56,58,60,62,-1,-1,-1,-1,-1,-1,-1,-1,-1,-1,-1,-1,-1,-1,-1,-1,-1,-1,-1,-1,-1,-1,-1,-1,-1,-1,-1,-1,-1,-1,-1,-1],"split_conditions":[-2.1494445E-1,-9.9944854E-1,5.982709E-1,-1.622486E0,-1.2180699E0,1.7225559E0,-1.4444091E0,-3.4591144E-1,-1.7226963E0,-6.315581E-2,1.8725209E-1,1.6795616E0,-1.8130004E0,1.8571297E0,-1.6520834E-1,-3.503553E-1,3.1946746E-1,-1.1780604E0,6.5860665E-1,1.3905553E0,-1.4846162E-1,-1.0355514E0,1.8465161E0,1.1395562E0,-4.696511E-1,-2.429493E-1,2.5382453E-1,-1.530945E-1,-8.3885974E-1,9.111387E-1,9.935834E-1,3.231069E-2,1.7976154E-2,2.173608E-2,-1.5562368E-2,3.2963216E-2,-3.8047947E-3,2.1750484E-2,6.9904127E-3,2.4985408E-2,-1.3829769E-2,-1.1065078E-2,1.9179296E-2,2.1636669E-2,1.6407002E-3,1.0663182E-2,-6.7197205E-3,-1.0104831E-2,9.386901E-4,-7.4085454E-3,2.122275E-3,2.3218714E-2,-1.0287132E-2,3.097639E-2,6.5943843E-4,3.1589149E-3,3.3236608E-2,-1.5912399E-2,3.806561E-3,-1.2340429E-2,1.8006405E-2,-1.5311524E-2,-1.9327652E-2],"split_indices":[2,2,3,2,63,45,12,63,14,14,84,4,72,31,91,0,55,67,93,78,95,57,80,13,13,11,2,17,90,9,2,0,0,0,0,0,0,0,0,0,0,0,0,0,0,0,0,0,0,0,0,0,0,0,0,0,0,0,0,0,0,0,0],"split_type":[0,0,0,0,0,0,0,0,0,0,0,0,0,0,0,0,0,0,0,0,0,0,0,0,0,0,0,0,0,0,0,0,0,0,0,0,0,0,0,0,0,0,0,0,0,0,0,0,0,0,0,0,0,0,0,0,0,0,0,0,0,0,0],"sum_hessian":[1.9146138E3,9.088495E2,1.0057642E3,3.428617E2,5.659878E2,4.8517883E2,5.205854E2,1.20131966E2,2.2272974E2,5.108026E1,5.1490753E2,4.670268E2,1.8152027E1,9.3280115E0,5.1125742E2,1.11196236E2,8.935724E0,3.404148E1,1.8868826E2,3.566221E1,1.5418055E1,3.0948257E2,2.0542496E2,3.109319E2,1.5609492E2,8.352651E0,9.7993765E0,5.6706605E0,3.6573515E0,1.4871437E2,3.6254303E2,9.50331E1,1.616314E1,7.1565027E0,1.7792217E0,4.5634966E0,2.9477985E1,1.6457346E2,2.4114798E1,3.4243164E1,1.4190426E0,8.947603E0,6.470451E0,1.2561928E1,2.9692065E2,1.8925958E2,1.6165365E1,2.6729453E2,4.3637367E1,6.4197014E1,9.18979E1,2.2991738E0,6.053477E0,8.404161E0,1.3952157E0,1.1238508E0,4.5468097E0,2.5624566E0,1.0948949E0,1.4509813E2,3.6162302E0,2.063008E2,1.5624223E2],"tree_param":{"num_deleted":"0","num_feature":"113","num_nodes":"63","size_leaf_vector":"1"}},{"base_weights":[1.8726228E-3,-3.3655486E-1,4.0865135E-1,-5.0531673E-1,-1.8304652E-1,2.5070053E-1,8.009073E-1,-5.6826115E-1,-3.8410088E-1,6.8126625E-1,-2.0043296E-1,1.640332E-1,4.1834298E-1,6.059881E-1,9.788677E-1,-5.7800615E-1,-1.4064838E-1,-2.2165185E-1,-4.913498E-1,-1.501191E-1,3.4464262E-2,-1.3037795E-1,-3.470094E-1,2.796535E-1,4.2247046E-2,4.5251483E-1,-4.9664804E-1,5.3414625E-1,1.0395061E0,-1.5584815E-3,9.946322E-1,-1.7573597E-2,-8.083174E-3,2.140408E-2,-1.48971705E-2,-7.808184E-3,2.755195E-2,1.45305805E-2,-1.526495E-2,1.35601405E-2,-1.5528822E-2,6.066891E-3,-5.3429175E-3,-1.1663694E-2,-5.5254524E-4,-8.200149E-3,9.80032E-3,3.3133884E-3,-1.2170919E-2,1.0551162E-2,2.2788772E-2,-1.9489266E-2,4.899148E-3,1.7441822E-2,-3.0478744E-3,3.3576835E-2,-1.9659416E-3,3.012798E-2,-2.4163513E-3],"categories":[],"categories_nodes":[],"categories_segments":[],"categories_sizes":[],"default_left":[0,0,0,0,0,0,0,0,0,0,0,0,0,0,0,0,0,0,0,0,0,0,0,0,0,0,0,0,0,0,0,0,0,0,0,0,0,0,0,0,0,0,0,0,0,0,0,0,0,0,0,0,0,0,0,0,0,0,0],"id":24,"left_children":[1,3,5,7,9,11,13,15,17,19,21,23,25,27,29,31,33,35,37,39,-1,41,43,45,47,49,51,53,55,-1,57,-1,-1,-1,-1,-1,-1,-1,-1,-1,-1,-1,-1,-1,-1,-1,-1,-1,-1,-1,-1,-1,-1,-1,-1,-1,-1,-1,-1],"loss_changes":[2.6580768E2,2.721193E1,5.4127167E1,3.607895E0,8.454081E0,9.035225E0,8.122833E0,1.2854538E0,2.9310455E0,4.503368E0,5.5341225E0,5.8275366E0,6.8812943E0,3.2614174E0,2.159729E0,6.112671E-1,2.9777095E0,3.3743098E0,2.025116E0,1.3171327E0,0E0,5.89657E0,2.3968582E0,5.6165733E0,6.2506886E0,6.1028786E0,9.2811775E-1,3.2785473E0,1.5149555E0,0E0,1.4048615E0,0E0,0E0,0E0,0E0,0E0,0E0,0E0,0E0,0E0,0E0,0E0,0E0,0E0,0E0,0E0,0E0,0E0,0E0,0E0,0E0,0E0,0E0,0E0,0E0,0E0,0E0,0E0,0E0],"parents":[2147483647,0,0,1,1,2,2,3,3,4,4,5,5,6,6,7,7,8,8,9,9,10,10,11,11,12,12,13,13,14,14,15,15,16,16,17,17,18,18,19,19,21,21,22,22,23,23,24,24,25,25,26,26,27,27,28,28,30,30],"right_children":[2,4,6,8,10,12,14,16,18,20,22,24,26,28,30,32,34,36,38,40,-1,42,44,46,48,50,52,54,56,-1,58,-1,-1,-1,-1,-1,-1,-1,-1,-1,-1,-1,-1,-1,-1,-1,-1,-1,-1,-1,-1,-1,-1,-1,-1,-1,-1,-1,-1],"split_conditions":[7.799889E-2,-6.5040696E-1,9.724161E-1,-9.3758774E-1,-6.3265616E-1,5.893285E-1,1.3263679E0,1.2814598E0,-8.6944276E-1,-1.2070826E0,1.6795616E0,4.5232365E-1,1.7187053E0,3.6811033E-1,-1.3833822E0,2.0443451E0,5.416253E-1,2.197019E0,-8.5367537E-1,-2.7349347E-1,3.4464262E-2,-6.7639506E-1,1.3905553E0,-1.4281353E0,-6.703394E-2,3.160848E-1,8.19754E-1,1.2156618E0,1.3890969E0,-1.5584815E-3,1.5904897E0,-1.7573597E-2,-8.083174E-3,2.140408E-2,-1.48971705E-2,-7.808184E-3,2.755195E-2,1.45305805E-2,-1.526495E-2,1.35601405E-2,-1.5528822E-2,6.066891E-3,-5.3429175E-3,-1.1663694E-2,-5.5254524E-4,-8.200149E-3,9.80032E-3,3.3133884E-3,-1.2170919E-2,1.0551162E-2,2.2788772E-2,-1.9489266E-2,4.899148E-3,1.7441822E-2,-3.0478744E-3,3.3576835E-2,-1.9659416E-3,3.012798E-2,-2.4163513E-3],"split_indices":[3,2,2,2,76,91,2,12,91,88,4,66,13,9,12,59,92,68,70,29,0,16,78,12,70,99,38,35,59,0,55,0,0,0,0,0,0,0,0,0,0,0,0,0,0,0,0,0,0,0,0,0,0,0,0,0,0,0,0],"split_type":[0,0,0,0,0,0,0,0,0,0,0,0,0,0,0,0,0,0,0,0,0,0,0,0,0,0,0,0,0,0,0,0,0,0,0,0,0,0,0,0,0,0,0,0,0,0,0,0,0,0,0,0,0,0,0,0,0,0,0],"sum_hessian":[1.9288295E3,1.0529663E3,8.7586316E2,5.0047226E2,5.5249396E2,6.25593E2,2.5027016E2,3.269876E2,1.7348465E2,1.0141807E1,5.423522E2,4.136987E2,2.1189433E2,1.2154627E2,1.2872389E2,3.1935797E2,7.6296444E0,7.0207954E1,1.032767E2,3.8948658E0,6.246941E0,3.6824295E2,1.7410924E2,2.1155664E2,2.0214204E2,2.0475294E2,7.141395E0,1.0618209E2,1.53641815E1,1.9043714E0,1.2681952E2,3.1062717E2,8.7308E0,1.9487164E0,5.6809278E0,6.865389E1,1.5540563E0,1.3477876E0,1.0192892E2,1.3890827E0,2.505783E0,4.5796883E1,3.2244604E2,1.54306E2,1.9803236E1,1.6202726E1,1.9535391E2,1.7608644E2,2.6055609E1,1.5576738E2,4.8985573E1,5.8100896E0,1.3313055E0,9.891621E1,7.265883E0,1.43183565E1,1.0458249E0,1.2575864E2,1.0608777E0],"tree_param":{"num_deleted":"0","num_feature":"113","num_nodes":"59","size_leaf_vector":"1"}},{"base_weights":[-6.431458E-3,-5.822993E-1,2.320526E-2,-6.663204E-1,-3.5386577E-1,5.6267142E-2,-4.1861594E-1,-2.0629516E-2,-1.4214699E-1,1.3747604E-1,-4.735882E-1,-2.5754333E-1,8.1182286E-2,-5.261191E-1,-2.407298E-1,-1.375524E-2,1.0394351E-2,-1.5567437E-2,2.3916215E-2,-1.9782247E-2,-1.1329814E-1,-3.9954156E-1,2.9306572E-2,9.164127E-2,-5.3223395E-1,-1.6183339E-2,-5.71975E-1,-5.896081E-1,-3.6142446E-2,2.7273074E-2,-1.2406746E-2,-1.4586258E-2,1.9559674E-3,2.2317298E-2,-3.7112616E-3,3.096823E-3,-7.3470487E-3,1.8028095E-2,-1.9187715E-2,-1.6047576E-2,1.3735346E-2,-1.8791206E-2,-2.672822E-3,-2.007686E-2,5.4365024E-3,-8.602904E-3,1.591065E-2],"categories":[],"categories_nodes":[],"categories_segments":[],"categories_sizes":[],"default_left":[0,0,0,0,0,0,0,0,0,0,0,0,0,0,0,0,0,0,0,0,0,0,0,0,0,0,0,0,0,0,0,0,0,0,0,0,0,0,0,0,0,0,0,0,0,0,0],"id":25,"left_children":[1,3,5,7,9,11,13,-1,15,17,19,21,23,25,27,-1,-1,-1,-1,-1,29,31,33,35,37,39,41,43,45,-1,-1,-1,-1,-1,-1,-1,-1,-1,-1,-1,-1,-1,-1,-1,-1,-1,-1],"loss_changes":[3.301542E1,1.5814972E0,2.690129E1,6.635475E-1,1.6882887E0,1.3412519E1,2.325369E0,0E0,7.652923E-1,3.0904305E0,1.4257736E0,5.153097E0,1.0234082E1,1.8398743E0,3.5577166E0,0E0,0E0,0E0,0E0,0E0,3.087727E0,3.4350767E0,4.763963E0,6.1151E0,3.6399865E0,2.1022854E0,1.8492775E0,1.2548466E0,4.7909007E0,0E0,0E0,0E0,0E0,0E0,0E0,0E0,0E0,0E0,0E0,0E0,0E0,0E0,0E0,0E0,0E0,0E0,0E0],"parents":[2147483647,0,0,1,1,2,2,3,3,4,4,5,5,6,6,8,8,9,9,10,10,11,11,12,12,13,13,14,14,20,20,21,21,22,22,23,23,24,24,25,25,26,26,27,27,28,28],"right_children":[2,4,6,8,10,12,14,-1,16,18,20,22,24,26,28,-1,-1,-1,-1,-1,30,32,34,36,38,40,42,44,46,-1,-1,-1,-1,-1,-1,-1,-1,-1,-1,-1,-1,-1,-1,-1,-1,-1,-1],"split_conditions":[-1.622486E0,-5.1872045E-1,1.272193E0,2.0119461E-1,-9.49247E-1,-1.0355514E0,-8.1561816E-1,-2.0629516E-2,-5.4022938E-2,-4.652234E-3,5.050115E-1,-6.1128646E-2,2.4082923E0,-9.939482E-2,-2.3621894E-2,-1.375524E-2,1.0394351E-2,-1.5567437E-2,2.3916215E-2,-1.9782247E-2,-1.0227576E0,2.9852152E-1,-9.5307875E-1,1.9569026E0,-1.8613552E0,9.7060524E-2,2.110401E0,1.2432604E0,-7.908951E-2,2.7273074E-2,-1.2406746E-2,-1.4586258E-2,1.9559674E-3,2.2317298E-2,-3.7112616E-3,3.096823E-3,-7.3470487E-3,1.8028095E-2,-1.9187715E-2,-1.6047576E-2,1.3735346E-2,-1.8791206E-2,-2.672822E-3,-2.007686E-2,5.4365024E-3,-8.602904E-3,1.591065E-2],"split_indices":[2,39,2,21,42,57,92,0,53,96,32,97,20,5,98,0,0,0,0,0,44,35,69,5,82,97,19,91,9,0,0,0,0,0,0,0,0,0,0,0,0,0,0,0,0,0,0],"split_type":[0,0,0,0,0,0,0,0,0,0,0,0,0,0,0,0,0,0,0,0,0,0,0,0,0,0,0,0,0,0,0,0,0,0,0,0,0,0,0,0,0,0,0,0,0,0,0],"sum_hessian":[1.9326866E3,9.368357E1,1.839003E3,6.7090004E1,2.6593565E1,1.7117815E3,1.2722153E2,6.416698E1,2.923026E0,5.181277E0,2.1412289E1,1.2522425E2,1.5865573E3,7.80783E1,4.9143223E1,1.8116856E0,1.1113406E0,2.7042074E0,2.4770694E0,1.3578793E1,7.833496E0,8.349779E1,4.1726463E1,1.5607958E3,2.5761568E1,6.553516E0,7.152479E1,1.747003E1,3.1673191E1,1.3179826E0,6.5155134E0,7.033515E1,1.3162633E1,6.677925E0,3.504854E1,1.5095208E3,5.1275005E1,1.8315554E0,2.3930012E1,3.0678592E0,3.4856567E0,6.401597E1,7.508818E0,1.5953909E1,1.5161215E0,2.2300947E1,9.372245E0],"tree_param":{"num_deleted":"0","num_feature":"113","num_nodes":"47","size_leaf_vector":"1"}},{"base_weights":[-4.7359276E-3,3.8545367E-1,-3.3120707E-1,8.150774E-1,2.4196975E-1,-1.7777103E-1,-4.946626E-1,1.0196102E0,6.7940664E-1,9.582441E-1,2.1812382E-1,-2.6133937E-1,-9.861842E-4,5.7780486E-1,-5.1590884E-1,2.0655073E-4,1.0349641E0,-2.6439402E-1,7.1488065E-1,-1.9825852E-1,1.1055535E0,1.442598E-1,3.9993444E-1,-2.7795297E-1,4.153422E-1,2.1046863E-1,-1.7067915E-1,-2.4417737E-1,9.036235E-1,-3.3307794E-1,-5.7737315E-1,3.1887874E-2,9.454301E-3,2.0071838E-2,-1.8668875E-2,2.619674E-2,1.6629463E-2,2.0859297E-3,-1.16224075E-2,3.5164192E-2,1.9297353E-3,7.518641E-3,-2.3059377E-3,1.3162352E-2,-5.432901E-3,-9.484286E-3,-4.1022993E-4,2.8627181E-2,-1.63611E-2,1.8750123E-3,2.0074293E-2,-1.0270777E-2,6.595025E-4,-1.3464307E-2,3.696567E-3,-1.0168228E-4,3.3548526E-2,-1.3811389E-2,-3.7464765E-3,-1.746909E-2,3.283525E-3],"categories":[],"categories_nodes":[],"categories_segments":[],"categories_sizes":[],"default_left":[0,0,0,0,0,0,0,0,0,0,0,0,0,0,0,0,0,0,0,0,0,0,0,0,0,0,0,0,0,0,0,0,0,0,0,0,0,0,0,0,0,0,0,0,0,0,0,0,0,0,0,0,0,0,0,0,0,0,0,0,0],"id":26,"left_children":[1,3,5,7,9,11,13,15,17,19,21,23,25,27,29,-1,31,33,35,37,39,41,43,45,47,49,51,53,55,57,59,-1,-1,-1,-1,-1,-1,-1,-1,-1,-1,-1,-1,-1,-1,-1,-1,-1,-1,-1,-1,-1,-1,-1,-1,-1,-1,-1,-1,-1,-1],"loss_changes":[2.4181747E2,5.3110825E1,2.5833145E1,5.3033752E0,1.0887806E1,7.8987293E0,1.1688026E1,1.3017426E0,4.6388054E0,3.7350826E0,8.403421E0,4.196863E0,6.2300158E0,2.9475665E0,5.321823E0,0E0,1.3340149E0,2.2687082E0,2.7795334E0,1.8799838E-1,1.2043209E0,1.0593332E1,4.1713333E0,3.578064E0,5.2320743E0,5.2045975E0,3.1934447E0,3.3178657E-1,1.4649086E0,3.277174E0,1.3025208E0,0E0,0E0,0E0,0E0,0E0,0E0,0E0,0E0,0E0,0E0,0E0,0E0,0E0,0E0,0E0,0E0,0E0,0E0,0E0,0E0,0E0,0E0,0E0,0E0,0E0,0E0,0E0,0E0,0E0,0E0],"parents":[2147483647,0,0,1,1,2,2,3,3,4,4,5,5,6,6,7,7,8,8,9,9,10,10,11,11,12,12,13,13,14,14,16,16,17,17,18,18,19,19,20,20,21,21,22,22,23,23,24,24,25,25,26,26,27,27,28,28,29,29,30,30],"right_children":[2,4,6,8,10,12,14,16,18,20,22,24,26,28,30,-1,32,34,36,38,40,42,44,46,48,50,52,54,56,58,60,-1,-1,-1,-1,-1,-1,-1,-1,-1,-1,-1,-1,-1,-1,-1,-1,-1,-1,-1,-1,-1,-1,-1,-1,-1,-1,-1,-1,-1,-1],"split_conditions":[-2.889797E-1,-1.2710645E0,5.982709E-1,-5.0303453E-1,-2.2016225E0,1.6795616E0,-1.4444091E0,-2.0822546E0,-9.288581E-1,-2.257773E0,1.6795616E0,1.6758085E0,-3.96696E-2,-1.8578252E0,3.4946808E-1,2.0655073E-4,9.757769E-1,-6.479384E-2,-5.466403E-1,-7.566837E-1,7.8714126E-1,-5.5572486E-1,1.9908067E0,1.2016078E0,4.6426423E-2,5.63368E-1,-1.6520834E-1,-1.6980121E0,4.7287172E-1,-3.089973E-1,8.655736E-1,3.1887874E-2,9.454301E-3,2.0071838E-2,-1.8668875E-2,2.619674E-2,1.6629463E-2,2.0859297E-3,-1.16224075E-2,3.5164192E-2,1.9297353E-3,7.518641E-3,-2.3059377E-3,1.3162352E-2,-5.432901E-3,-9.484286E-3,-4.1022993E-4,2.8627181E-2,-1.63611E-2,1.8750123E-3,2.0074293E-2,-1.0270777E-2,6.595025E-4,-1.3464307E-2,3.696567E-3,-1.0168228E-4,3.3548526E-2,-1.3811389E-2,-3.7464765E-3,-1.746909E-2,3.283525E-3],"split_indices":[2,2,3,22,71,4,12,1,55,0,4,89,88,32,88,0,93,11,93,2,32,2,83,13,82,99,91,71,2,92,11,0,0,0,0,0,0,0,0,0,0,0,0,0,0,0,0,0,0,0,0,0,0,0,0,0,0,0,0,0,0],"split_type":[0,0,0,0,0,0,0,0,0,0,0,0,0,0,0,0,0,0,0,0,0,0,0,0,0,0,0,0,0,0,0,0,0,0,0,0,0,0,0,0,0,0,0,0,0,0,0,0,0,0,0,0,0,0,0,0,0,0,0,0,0],"sum_hessian":[1.896308E3,8.637711E2,1.0325369E3,2.1508295E2,6.486882E2,5.3366864E2,4.9886826E2,8.317531E1,1.3190764E2,1.9637585E1,6.290506E2,3.6204657E2,1.7162206E2,9.182028E0,4.8968622E2,1.2638171E0,8.191149E1,4.5445533E0,1.2736308E2,2.1796494E0,1.7457935E1,4.4859415E2,1.8045645E2,3.5394586E2,8.100698E0,7.630184E1,9.532021E1,2.67757E0,6.5044575E0,1.24819374E2,3.6486685E2,7.83894E1,3.5220938E0,1.0185754E0,3.5259776E0,6.1890373E1,6.547271E1,1.1640708E0,1.0155785E0,1.629044E1,1.167496E0,3.0280872E2,1.4578543E2,1.6938695E2,1.1069512E1,3.0908493E2,4.4860947E1,5.1939607E0,2.9067376E0,5.8549923E1,1.775192E1,4.999398E1,4.532623E1,1.577394E0,1.1001762E0,1.4331462E0,5.071311E0,7.6705986E1,4.811339E1,3.6241772E2,2.4491434E0],"tree_param":{"num_deleted":"0","num_feature":"113","num_nodes":"61","size_leaf_vector":"1"}},{"base_weights":[-5.9483754E-3,-3.440303E-1,3.8306126E-1,-5.096685E-1,-1.9012958E-1,2.2425163E-1,6.763714E-1,-5.65081E-1,-3.972841E-1,5.7165873E-1,-2.0400698E-1,3.0667892E-1,3.6987565E-2,5.5030006E-1,9.1440904E-1,-3.5454866E-1,-5.7698536E-1,-4.1780087E-1,2.4516585E-1,-1.6062708E-1,3.2385945E-2,-9.6617475E-2,-2.8312528E-1,7.0354563E-1,2.5083417E-1,2.2309864E-1,-1.1998995E-1,6.0827976E-1,1.2994385E-1,-6.81307E-3,9.334008E-1,1.1812384E-2,-1.821208E-2,-1.7547118E-2,-8.263872E-3,-1.2920941E-2,1.0857971E-2,2.591627E-2,-1.4952497E-2,-1.552781E-2,1.2648372E-2,-3.5108079E-3,2.0284982E-2,-4.695202E-3,-1.1134077E-2,7.5776526E-3,2.9384868E-2,1.1818048E-2,3.9758594E-3,-1.5850285E-3,1.2150033E-2,-1.2030951E-2,1.0641475E-3,3.4023352E-2,1.6894529E-2,-6.634057E-3,2.1778539E-2,2.8958242E-2,9.356003E-3],"categories":[],"categories_nodes":[],"categories_segments":[],"categories_sizes":[],"default_left":[0,0,0,0,0,0,0,0,0,0,0,0,0,0,0,0,0,0,0,0,0,0,0,0,0,0,0,0,0,0,0,0,0,0,0,0,0,0,0,0,0,0,0,0,0,0,0,0,0,0,0,0,0,0,0,0,0,0,0],"id":27,"left_children":[1,3,5,7,9,11,13,15,17,19,21,23,25,27,29,31,33,35,37,39,-1,41,43,45,47,49,51,53,55,-1,57,-1,-1,-1,-1,-1,-1,-1,-1,-1,-1,-1,-1,-1,-1,-1,-1,-1,-1,-1,-1,-1,-1,-1,-1,-1,-1,-1,-1],"loss_changes":[2.5515428E2,2.6363052E1,4.1868774E1,2.885086E0,5.8215866E0,9.045246E0,8.991058E0,6.276703E-1,2.3203201E0,3.8619208E0,4.4819775E0,8.849777E0,5.2990456E0,5.023052E0,2.5540466E0,4.0872827E0,5.855026E-1,1.7993565E0,3.1161604E0,1.2433015E0,0E0,3.6540074E0,3.3415642E0,5.9354725E0,6.018463E0,4.183353E0,4.319724E0,3.720459E0,5.7361407E0,0E0,1.807991E0,0E0,0E0,0E0,0E0,0E0,0E0,0E0,